	0	1	2	3	4	5	6	7	8	9	10	11	12	13	14	15	16	17	18	19	20	21	22	23	24	25	26	27	28	29	30	31	32	33	34	35	36	37	38	39	40	41	42	43	44	45	46	47	48	49	50	51	52	53	54	55	56	57	58	59	60	61	62	63	64	65	66	67	68	69	70	71	72	73	74	75	76	77	78	79	80	81	82	83	84	85	86	87	88	89	90	91	92	93	94	95	96	97	98	99
South	0.0028332245785047273	-0.002344019309136264	0.0032416099051871183	0.005506272941307246	-0.004874412085092817	0.005462173694820068	-0.005232827873707526	0.005979860390571736	-0.0073425292008296094	-0.0037130377622653747	-0.0035803555506353836	-0.006030831651380952	0.0013207198891049701	-0.010256802483756123	-0.01009847767377367	0.007496299328313012	-0.0025494738166221957	-0.02137055331980514	0.0001722613501980832	0.0004242453160649563	0.0038022195305882503	0.005563482045704608	-0.008696097299925817	0.03254966664289019	-0.017005965770538242	0.003994142574657037	0.0006312889901068682	0.002117134127934516	0.000957608993222478	0.0021203807655099122	-0.001807112134810937	0.001825576908911968	-0.0022189550837254674	-0.003905569540871648	0.00025787319210566876	-0.0010038424977358556	-0.004534595071160409	-0.010514362786671278	0.004692009013989621	0.03239517192151109	0.032785627579747366	-0.0002719647039609749	-0.009355404317776138	-0.0005764563450120856	0.005991628736184903	-0.004025513749086515	-0.0009393041297124012	0.001606008206707288	0.003316907749692447	0.005308276948935901	-0.0032059989917938084	0.002162002498799731	0.000773407092746752	0.00547615502517238	-0.009473684362986535	-0.0032386301104402417	-0.005314859488086639	0.008103379580452022	-0.0021323987633780177	-0.013803087494142018	-0.0029055883287775453	0.0069392691693903365	-0.00962508459064273	0.03631940456179815	0.0296095996381839	-0.013304581961190156	0.010448049161991024	0.029773975197800836	0.007312352240518317	0.004836680859168826	-0.013918112010836889	-0.03657453626108892	-0.009923385246424348	0.029434024173640886	-0.02521140800109957	0.010818769771591122	0.019354007802441536	0.008263577882681821	-0.017138497994251784	0.008254420190315784	-0.018735827520767568	0.00930455772670518	0.0010048842868285216	0.0038131372440827517	-0.013569266523221091	0.4053211233616836	0.17156904733475434	-0.013679169066859087	-0.014999600838580669	0.01986253506791043	0.10472561690514	0.05045612561137535	0.11311176691248952	0.01623161817297239	-0.0011813814942890225	0.13563065745048256	0.021077476577417726	-0.011342997294716084	0.027374591231803337	-0.00861418689438159
existe	0.0028332245785118353	-0.002343979003178136	0.003241809884074201	0.005519450621618862	-0.004869254684361786	0.005547032974715052	-0.002989279927902595	0.005282474384684006	-0.006348206481514461	-0.007352584376827398	-0.0016066272066000828	-0.0028531838830959783	-0.003155157901121141	-0.001761780152867978	0.0001436658357816204	-0.001961024163406282	0.017194738172227553	0.015492074874603773	0.004494006186476904	0.009384259845472375	0.01188733211352738	0.011669320340269521	-0.038471291415857464	-0.019505207820038492	0.10665803691670557	0.2492741338016972	-0.03522374289995347	0.05214901665772199	0.021885760446401194	0.04252035319885764	-0.04243183267539313	0.01288415793561051	0.006642939147437684	0.012561301401636592	0.0005902327637332015	0.002530635151155363	0.004663538073914232	0.004643471670821471	-0.0032595142973092526	-0.004179623472667107	0.006592667321316633	0.0023030819078915157	-0.00469161678498695	0.00791514349875366	-0.0008480439776552976	0.002017701123428658	-0.01211329193180607	-0.0019820297821752306	-0.008489754352343368	0.00048040558140730917	-0.0004434599623617257	0.003626909485396884	0.0006301284666463939	-0.0005287365022666234	0.002234021046346126	-0.0006842527465267083	-0.00019145516794508068	-0.0008792796063632428	-0.0012298555958860167	-0.0007833678833560082	0.0023086596264188836	-0.0011945675940323681	0.005255834519972217	0.0013804296580276695	0.0034514432591881312	-0.003313928535828717	0.0010407051472977845	0.01888963865290032	0.0015823597486006417	0.007369065589983639	0.0015928090023638805	-0.02827454917052276	-0.0059203771007632225	-0.023571521225924624	0.02916070259324768	-0.001636303757986804	-0.010218638426985838	0.0011567473819311409	-0.0054026353769285555	-0.0025989381049479707	0.0022422302409994613	0.0024838090478512265	-0.0006700177076028025	-0.009699429470338474	-0.001353632961894469	0.0026908093298395053	0.0006690067243930453	0.0020587299335305623	-0.0029125272479600985	-0.00706024114845321	0.027551861462528443	0.0016118921801791808	-0.02628446923845655	-0.01646398926343152	0.03963932226316043	-0.0027256147621873006	-0.35812509272958726	-0.16808464125652833	0.06948210012741692	-0.029181635487314346
s	0.0028332245785182395	-0.0023448389318272865	0.0032433278347864546	0.005562222722388251	-0.005046898040764888	0.005599476030180233	-0.005264932695127755	0.005869090581399121	-0.00682975626574958	-0.007785540187624899	-0.007406931666849877	-0.004900647884587041	-0.0036550908995626828	-0.00351027444560458	-0.0020433774024954682	-0.0007018526776202474	0.022082757663809658	0.016463825315370103	0.00889898986291756	0.02149944922259653	0.04569288343703695	0.0819440433864131	0.16270315594715568	-0.013013583932188016	-0.016932816951983082	0.009451660728756976	0.003740355955781937	0.008718291196949831	0.005275139977365435	0.011415317769179553	-0.013469610099320793	-0.005151250706820237	0.007848369042544365	0.00955284704511965	-0.0006022977505375813	0.000901629435572627	0.0022873486199200387	0.0017184680954964691	-0.0036791610966043315	-0.001382636343747596	0.019296414785459688	-0.026219718220827293	0.005182443294674372	-0.030886765402522737	-0.19873873274937806	0.09773715721443527	-0.001843640696978448	0.006854199833652276	0.004316819274999011	-0.00825956511394874	0.0075071260603047545	-0.004487019944430093	0.001708536171273941	-0.0014820357189979346	0.007557918737924501	0.0038285451399728376	0.008310768870954076	-0.02231713718243497	0.001685219262114596	0.05696213490811135	0.06654950997658744	0.03101753662180974	-0.020039979594136854	0.015178592488236123	0.009964448404543077	-0.0028215034123522317	0.001171319211248363	0.006824074117424306	-0.00597058797672146	0.00697205105537038	0.027100352947686784	0.0030459700350441953	-0.002680708397452169	0.01362714288322802	0.0031277830305743437	-0.0009872083383193411	-0.002125612021913987	-0.0013513055665354675	-0.0013240050148256004	0.0020145596846718574	-6.287853938392526e-05	-0.0010107002735604987	0.00013307025592943552	-0.0009810401908800217	0.0007356653229636089	0.005714983473274815	0.0006620438517910554	-0.00025216386997559646	-0.0038813357838113575	0.004252141521610823	-0.0027144944492311363	0.0007262009321053128	-0.000536246212171701	-0.0006180344044229725	-0.0002855456313118288	-0.0041418584909610895	-0.00019817709194889718	0.00015284762580784067	-0.000614456030286429	4.57929270175593e-05
considérer	0.002833224578504008	-0.002340509096944436	0.003232473215077649	0.005316921914331296	-0.004634593039442868	0.004481105616543102	-0.004347565406028814	0.00452700604746343	-0.005271566067576559	-0.005472896575169996	-0.00424653884823405	-0.0024616478379801657	-0.0018985843226764821	-0.0008764098404619742	-0.00038934193182586785	-0.0007397251864542783	0.009699042639252847	0.007968533932060786	0.0026134598921892186	0.0042150965537064225	0.006120347872250291	0.0061537943045324355	-0.014993973412109785	-0.020556481667337412	-0.01837459909470989	0.0007366125040940701	-0.00046956648121504224	-0.001025461639797358	-0.0005799448606546116	-0.0018083748363964599	0.005048578619138257	0.0016135973830740814	-0.003247260024708316	-0.006658357470374159	0.00024751001669582993	-0.0015367061948286928	-0.003670358840604019	-0.005251660926526132	0.0030692122856857255	0.005678444257141018	-0.011184385546650476	0.004999986659055067	0.0018350898405726235	-0.006300028442027821	-0.003211745508928863	-0.0035632823236642105	0.001655765684259796	0.0004957370307610255	-0.007931031252172586	0.001469316428350756	-0.0023653935171968087	0.003207216536094508	-0.002036564004750237	-0.00738053449828523	-0.0010694881021319535	-0.012273158693042614	-0.006826976514871681	0.001739756539123222	-0.007035656905376091	-0.005728882958162981	0.010621272099009468	-0.0008810946724620208	0.01947365836630403	-0.0010214787814700824	0.006535288247335808	-0.005597014892344427	-0.005456469463754032	0.024035941358701688	-0.0013549857474555735	0.007110547556103653	0.0003471010110751918	-0.01677041006828113	-0.0009503891309875648	-0.005520591606668533	-0.018737502021364226	0.005835517760714691	0.0141288621260046	0.0031918327811786816	0.0018719604754028202	0.0026305689364197037	-0.011618733869766638	0.013811478539729295	-0.0034005380039818667	0.05302910731682427	-0.03346050793162283	-0.010414913327887187	0.005520329676096614	0.001243680656483252	0.0018230037232099087	-0.005330847832941386	0.02780593982274346	-0.012737115927033575	-0.004793510163328171	-0.02209193535270226	-0.0015798415202067154	0.019066880111656817	-0.0409471174392373	0.08833312857004329	0.02602387086052748	0.014043875825480622
Morrow	0.002833224578506823	-0.002339072580924767	0.0032300226805185156	0.00524296242676384	-0.004547372036184489	0.004701233149617701	-0.004146278020115587	0.0042336653347090905	-0.004878764862327243	-0.005215293651268116	-0.0036874311023407805	-0.0019490448452544429	-0.0017014077690556894	-0.0009124649645001681	-8.708873103517416e-05	-0.0008345014681782471	0.007731539094215386	0.005807295041783882	0.001476902274473483	0.0026256926495596988	0.0027659057359998066	0.0018816333497170355	-0.004521445692143468	-0.0008047916667914025	0.005783118931519211	-0.0024073101502799675	-0.00120285457370644	-0.0034319326679623334	-0.0020026573928920407	-0.00528715410739318	0.008855093525300064	0.0016230054055261416	-0.007064548609784506	-0.009646633013759016	0.00024431475394603715	-0.002836288253142589	-0.005425897929824008	-0.006486690772580122	0.0038321137565707486	0.006159231926395579	-0.01245104484247671	-0.003016575794428631	0.007848511698324824	-0.010502526235918443	-0.0032652967462439455	-0.006814519840908959	0.00047236365645868066	-0.001040536510483057	-0.009918887123889006	0.004275391751366063	-0.005187678579231291	0.0032669797662278942	-0.0034453199399163406	-0.009749969136126626	-0.0026795376078983975	-0.006957530742591003	-0.016403046795164758	0.003242019595130637	-0.013116072459396038	-0.009635805414268684	0.017113821904803216	-0.011461286813457087	0.034080072041811675	0.0031636232979927632	0.015110690226740388	-0.012884242558177997	0.008445073561435317	0.07188429585205361	-0.004396149754490904	0.017508666961855296	-0.001832336474564036	-0.07389218591953814	0.001199895292201168	-0.028837285256392748	-0.10729382143737415	0.03177937964821682	0.0975264960659529	0.025809661711471664	0.036218916528750034	-0.014052878706434093	-0.18402284490280227	-0.40801680918104	-0.0011839371247241973	-0.008067807486708612	0.041958442595391186	-0.009870035682069705	-0.03452180521271142	-0.002993706273946935	0.002694087239944326	0.013436213979186463	-0.045034636218870085	0.008488802229896475	0.021918482544467145	0.018917352178694703	-0.0035614028174392872	-0.007011212888656339	0.011461017197461303	-0.012922756010891373	0.01189138059284105	-0.004644058383866361
totalement	0.002833224578379075	-0.002372990186850112	0.0033126262502256284	0.007684215907748303	-0.018135671064028167	0.02707122647507807	0.29878602893938017	-0.01913746594659836	0.015866139910630326	0.011438630653581663	0.005028852055393641	0.0024587830309701283	0.002120752266250533	0.0014030103847579014	-7.7394323715947e-05	0.00126006696662618	-0.009983150621530653	-0.007865730828457183	-0.0020491825759824814	-0.004348911928838726	-0.004274453726697962	-0.004163242183591305	0.011037421967936615	0.0028201949563711245	-0.021892978451200987	0.03331256922131331	0.1004827581857054	-0.047590828473162025	-0.020009717121360016	-0.02914451688834352	0.014659237437955136	0.001725555247243746	-0.005684016996180376	-0.006346443959412343	-2.4078091837627545e-05	-0.0011403107330230054	-0.002070450237213152	-0.002132784336862937	0.0012628933771507618	0.0016947880282898748	-0.003172774585107844	-0.0014724639304153587	0.0005712789897837243	-0.0011879232399130163	-0.00018345171915670495	-0.0006387005032454096	0.0004809574660156529	1.3313873009350289e-05	-0.0005294147588119241	0.002716926146773999	0.0018652386874721315	-0.000891166992914229	-0.001590814070113366	-0.00014273021313607063	-0.00045039484768680466	0.0019241565116722512	-0.0015680880086661052	0.00021455073497696252	-0.00013079406663558794	-0.001194037220018986	0.001620965926775353	-0.000803265549497036	0.0019993865338603914	2.8925910155292237e-05	0.0005305181889840686	-0.00015023010535098087	0.00019713856617416866	0.0005254396416867566	3.903909298681209e-05	0.0005345619570550561	0.00048387728725985974	-0.0025554057631914356	3.5703776932960885e-05	-0.00044448276391128097	0.0003148989998295378	-0.00042576317957619377	-0.0003321028112333365	-0.0009858163429036456	-0.0005128045007071107	-0.0007857900771322938	4.863473581392941e-05	-0.0028397871487861083	-0.0011801740884280925	0.00034733658480550725	-0.005553045883424687	-0.0002777433786176342	0.004480020246092495	0.00028727974049223316	0.01364775046403911	0.010471159257567423	0.01887527647119085	-0.0035022030365258142	-0.02514529444089464	-0.020305469338400765	-0.12819311627638572	0.0013403115979849535	-0.0040780106799479425	-0.01581807387955727	0.0017610884850616636	-0.011738297026763923
idée	0.0028332245785163248	-0.002345562166994034	0.003245472003579472	0.005607276843945059	-0.005041530614675238	0.005727056957185117	-0.005410795290301527	0.006078754874921131	-0.00718978806540284	-0.008320410047410605	-0.0081841478916773	-0.005321718573831898	-0.004187297289267322	-0.0038001551266090045	-0.0019589533267594674	-0.0011311314795977533	0.025959616931163446	0.020601341290149858	0.010802307644261709	0.02674011691253769	0.05730732145282713	0.10420974364063373	0.2107513758412784	-0.02116839862263229	-0.02302688873237191	0.01283302724960948	0.005032121996862512	0.012281750609287746	0.007774683006903237	0.016822078973694497	-0.02123704641861631	-0.007151561355494154	0.013643237046683016	0.018134849434682836	0.0017959262049523678	0.0030714256891067123	0.009111069045330853	0.018232019841777296	0.001779815523055257	-0.01484868371048503	-0.01638498755066138	0.01769955859517979	-0.003269895305906548	0.037119872662429734	0.21807397872260498	-0.10806917439060598	0.0021780244144008316	-0.010641145077024152	-0.004167185712373434	0.006613409372564997	-0.0054629534052945145	0.0041400377997363146	-0.0009651923278059984	0.0003628134195251536	-0.0025727123509640968	-0.0017262041979360268	-0.003001793546575931	0.010446469748974892	-9.841231783573547e-05	-0.024576403554303176	-0.029003580015224767	-0.012302513121652156	0.006746739164281678	-0.005348801969153834	-0.003772322689886358	0.0008382911310693027	-0.0009665398363521403	-0.0019696239922806147	0.0017335759130067234	-0.0017298355888910144	-0.007478577537288771	-0.001253236524917066	0.0005303811489171088	-0.004195150131674499	-0.0003303143985990131	0.0004577410145734143	0.000521839200342808	0.00042724408901277286	0.00015874756718404007	-0.0006104353801986719	-7.981152438137334e-05	0.00039923264778319255	-0.00018713918429020477	0.004308763288513707	-0.0014021443465455689	-0.0015834631606052862	-0.00010707463571548587	4.635879001042842e-05	0.0008966050147072992	-0.0012622315699454673	0.0029589609775864806	-0.009284577151408045	0.001718917314838012	0.003058274359639985	0.00012758692995962077	0.0009466778371415938	0.0005201105011975818	-0.0009556418365572925	0.0004365050719340993	-7.838721255594563e-05
rôle	0.0028332245784674567	-0.0023493071246540286	0.003254548859894294	0.005898799402719869	-0.00683234042703309	0.007968653654525166	-0.0096382164465365	0.03078812287549171	0.11225106699649318	0.009178679355512252	0.0007550577721376853	0.00010164787751931531	-6.708842401856579e-05	0.00020451372413728174	-4.3202749708013116e-05	-1.0618862707500488e-06	0.0009208517217441552	0.001210455516489719	0.0004491923841216187	0.000522133424573575	0.0007564966069518161	0.0004275298780237733	-0.0014791267753711348	-0.00040328946188114036	0.0017285897208362613	-0.0009200490068224164	-0.00031127364197844	-0.00117708490447367	-0.000930264073268081	-0.002032003721634698	0.0033047960026436718	0.0008483622010353391	-0.0022646097797412753	-0.0035674367717246137	-1.995164513915404e-05	-0.0010180156151627995	-0.0019597355683561545	-0.00208570947166667	0.0025337348650448202	0.003450722032658302	-0.007079916405041079	-0.003025617622901042	0.0015914916779073084	-0.0036032365459562135	-0.0010021929054354845	-0.0025940290697236794	0.0011105197500537337	-0.00048653757471534464	-0.004227100466063781	7.138707270143364e-05	-0.0035503685407859	0.002706462795101482	-0.002422404742551172	-0.003685828098255038	-0.0007604578998405124	-0.003038651248161417	-0.006768000179162504	0.0011344508276410362	-0.007101356975265443	-0.004091266127483205	0.007045057572318414	-0.005222816066206297	0.01698063482788392	0.0004148197822126231	0.009182961201028607	-0.009162549271826892	0.0023003954006106404	0.024589119016875553	-0.005403945254260798	0.011646899677233025	0.015604891919670393	-0.01979500855427444	-0.000997987570086609	-0.0036327497768566946	-0.02742274645684033	0.008170651092041249	0.023984853917972594	0.005675982936344042	0.007846007075198712	0.007604077643242058	-0.01135113864507185	0.0443514836037346	0.011065002621038647	-0.004383004509682264	0.03169870450603024	-0.0005289531382043147	-0.012120106296144167	-0.0019955617658640643	0.13651896346849696	0.010148479055784336	-0.0164963271652478	0.005024842912902198	0.0180354023075211	-0.002050275977230051	0.006750502587192945	0.0039884036876981	0.00014806224535285302	-0.0047309488040795595	-0.004969094530085461	0.024895348143958457
Meuse	0.0028332245785057373	-0.002340555059350943	0.003224866990230304	0.005315575395287469	-0.004624606777513874	0.004874691430727929	-0.004321910078487867	0.0045307937690755055	-0.0052208575703445274	-0.0055479474931894885	-0.004234901343497373	-0.0022323095419355863	-0.0018967241021404992	-0.0009167905019132443	-0.0002563028636834823	-0.0008466884306039301	0.009397803740609972	0.007666295404335437	0.002377093550638582	0.0056528300301922395	-0.0036706917655827983	0.0008728901688239482	-0.003941372448616391	-0.000857229620215269	0.0054116111213476335	-0.0028943316200891684	-0.0014502178318586553	-0.003611393088431984	-0.0025881115303127374	-0.006137485146581854	0.011779338083725718	0.003395342135343128	-0.009436803747831927	-0.009084643518695932	-0.00029788891655889877	-0.003484834850562152	-0.006955008825471707	-0.00951548008992267	0.005758240937221198	0.009352441876177987	-0.021529108907241624	-0.005658587843034138	0.014943560303265883	-0.023601777382209536	-0.007961391776993109	-0.018145234142866947	0.009679173536935325	-0.001864573338314622	-0.04165025375882732	0.023488279130642893	-0.03912472131280652	0.05907625012457256	0.00876150727692028	0.035182508750251335	0.0026474928111604058	0.00823785434903919	-8.87659563543748e-05	0.0043230044185608016	-0.07624194549332834	0.03528245746452529	-0.03621468594742419	0.010211204562891806	-0.026436884459705625	-0.0030049974276797967	-0.0006582685211202061	0.0012593479868109507	0.002525460522152038	0.06443260401388914	-0.0182932000874527	-0.02718804953376594	-0.03373169188894584	0.07746656245514442	-0.0013094290982375882	0.013156303551996052	0.023831782184030682	-0.004568616132721898	-0.015380532400896416	-0.0018460469987548397	-0.002338059788219236	0.0029742383400435837	0.011212755640555384	-0.012777785025670634	-0.001312331780039665	-0.0007979798351276555	-0.001002787884744814	0.000684521789121352	-0.0017064175399640162	-0.00013833576904677945	0.0006276640491843539	0.0029831982736281395	-0.003861285094584095	0.001985013250423056	0.0029104489612828497	0.004829116277040008	-0.007871164315673349	0.0010571268183256956	-0.0020286493771110264	-0.0019877366966446096	-0.0022528236060198087	0.03461232174251499
interpellation	0.002833224578630689	-0.00237985030218273	0.0033275425614922205	0.008734874157439478	0.1703917127022221	-0.023221348984305758	0.007850807949512872	-0.004286909495455402	0.004048649020172464	0.0023640587884265355	0.0007550560290087906	0.0007206209489494797	-0.0002501470979180166	0.0010182636569330827	0.0009734603257694104	-0.0007609398542908485	0.0009701659646765897	0.0029354242569203763	0.0003890587455714753	0.00046433860102717043	0.0003769950619757975	-0.00041430087287144726	-0.0037215072898010943	-0.002844850241639399	0.0063043753570238	0.0011951782028496011	-0.0015333110213186798	-0.0025878067824828023	-0.0024231087746311754	-0.006814771688286038	0.045754307035204195	-0.08145028679463394	0.042195089070753054	0.022790363082888954	-0.0035361397352231543	0.00041424942372578774	0.0032849696267283303	0.003247337777139269	-0.0022799179107566873	0.00254732771452508	0.01522654240344018	0.0031311430032536936	0.02207417079987175	0.1635568240774602	-0.07985192392406812	-0.10781101237942818	0.006075322114873365	0.012546785990375392	-0.023108200053176726	0.004380332097119291	-0.005394558981863513	0.002736681371497634	-0.0005622689371105036	0.0008927573881136229	-0.007088336231772031	-0.0022547177062684377	-0.003507551132880653	-0.003857059718669945	-0.0016928054953586433	-0.00018088404104158948	-0.00037026804130339363	-0.004774528653730034	0.002267580633709832	0.002173744006707931	0.0023217218754888434	-0.0008369883143216177	-0.004069178548685152	0.0010469883583874	-0.00017979672089745834	-0.00019067659014993183	-5.731699326919342e-05	0.0024519313405360448	0.000952187581860729	0.0018650232383137337	-0.006489954701215304	0.0008291521819174729	0.0028877497487297546	3.0296262468248493e-05	0.0024366658416004917	0.0007341485645772474	-0.0018331878112905434	0.0010988841269673612	-3.516016381788491e-05	-2.1890306195749198e-05	-0.001095788753572457	0.00169400642180121	-0.0009251129934790062	0.00016808915736109373	0.0003712769513723914	-0.0004330846552592782	-0.0003993103740368546	-0.0020228236396469933	-0.0022463359164744574	-0.002029324460521286	-0.00029497467708686643	0.002034512511885387	0.004936190157200652	0.0043154480978717154	-0.002545530534760372	0.0011623194505768685
meurtre	0.0028332245785588064	-0.0023821557404224924	0.0033344482460321897	0.00865805760926968	-0.04532307554620152	-0.27019964646968125	0.015915430965049597	-0.009060622669736767	0.008586490018587885	0.006641995899396885	0.0032080764411053816	0.0017285543585381802	0.00111966475229882	0.0009636456439293326	0.00039912230213035894	0.00032319753629843524	-0.005092451737036817	-0.0031721492226536308	-0.0010821946504425638	-0.00025708154853303663	-0.0014342662112757183	-0.0012827671659946787	0.002806031571249446	-0.000378779433922484	-0.002871498957065649	0.002063924351937989	0.000925122289144379	0.0004826523842392516	0.0008226582094102998	0.0019958757983263137	-0.006043782756882969	-0.004578655247655439	-0.002002912582260579	0.0024135679546725196	-7.898922444508948e-05	0.0009734768110165209	0.0021052409597549318	0.0029603730444044043	-0.0018153910065274968	-0.004013796730980096	0.004752587300062304	-5.500325841434079e-05	-0.0032160058849780657	0.007334193381598825	0.0020417147582241562	0.0070063392560995585	0.0018199868531597063	-8.600677382442122e-06	0.01119847007352455	0.00984067334213162	-0.005843035695894351	0.0018854036863740452	0.0021618076098037964	0.008762452045832774	0.0016660038962497143	0.08234742130279438	-0.01907262070250528	0.0030126982511128287	-0.010427034334346743	-0.007843432685787794	0.011121723327124277	-0.0063099031350613965	0.0062749533336439005	-0.0009101808115360398	0.0008573264616026574	-0.0008275104777866402	0.0009242082469332518	0.0015018740418211822	-0.0008495932239757195	-8.83872202002904e-05	4.6185386094318645e-06	-0.0005743353932959744	0.00042417878397197576	-0.001545411462048332	-0.00017576185788727508	0.00034672830294130586	0.00020565046314110352	-0.0001358268636643999	0.0010581154032700112	-0.0006273859131329315	0.00016046394709707916	-0.0005130275232777099	0.00019514727819414955	-0.0006816369596823971	0.005573524932193466	0.002305006963795951	0.00019314552306107236	0.00013895840004140528	-0.0026169588054301383	-0.0021171990017230745	2.2607661698606507e-06	0.007864455227885238	-0.00874143155730713	0.017732549947744633	0.014686073989930491	0.005619921290406966	0.04813898199633798	-0.16033817971236483	-0.08820958405436492	0.012084473161180687
port	0.0028332245785462704	-0.0023506562626808714	0.0031988995205115165	0.005891539091064765	-0.006438563781833119	0.007020973821807914	-0.0069480087494428995	0.008720692008842661	-0.011276815095443333	-0.016607927885732357	-0.057393707902756726	0.40655190310802874	0.016709740713278486	0.009944881030429717	-0.0006744088336786951	0.007162422207515921	-0.03899598323061827	-0.020726228803788743	-0.003575597478125706	-0.006749868209761516	-0.005141566998174947	-0.0045283007920971785	0.009429589337785442	0.002503190565056143	-0.01041975518722325	0.0042626235879024066	0.002524716668591097	0.006408045268176463	0.003400121517977455	0.00972846492961963	-0.023526810698203345	-0.009541136086341842	0.041260732800917216	-0.044885779874961895	-0.00011239589705405961	-0.002048885105990993	-0.002957361406846404	-0.0027971185987101972	0.0009651161234409686	0.001434152127405948	-0.0020006658881098066	-0.00013475166163987658	0.0005649780252637918	-0.0004180857407327769	-0.00017257504315112103	-0.0002131755967224886	0.00039509892004924933	-0.0001618914681580457	-0.000886111054727971	8.337775531725398e-05	-6.585470081484687e-05	0.0012307116658900911	0.00034696349575115025	0.0010077489007138587	0.0004787848101343358	0.0004158071534723028	0.0007888610547341747	-0.00019786539543271628	1.3808324200329045e-05	0.00048112954238046894	-0.000634965318023744	0.0003364842668509794	-0.0008890805039823363	-7.324590307944412e-06	-8.965206218553706e-05	-0.0002395191779169699	-0.00014682883807406056	-0.0007719437694116722	5.65415092079022e-05	-0.006877526814514488	0.002131011733811654	-0.0008080075079046206	-0.0001057883736974739	-0.00016296595388893588	0.00021971784804346306	0.000175810306902828	-0.0001824461784301996	7.721026004015768e-05	-5.7796385793228676e-05	0.00011268406657648136	3.120713529336343e-05	0.00012012522468765651	-8.828586741397153e-05	0.0004075422037035509	0.00017600227213276356	3.869808393937302e-05	-9.78452669385052e-06	6.13478919801872e-05	-1.2467178353488456e-05	-0.00011424708563972734	0.0009275704167248742	-7.524724727668748e-05	-0.0008999630246914851	-0.003525844625654412	0.0013492012309794929	-0.001180739348755025	0.0016094946818569402	-0.0013255109248840212	0.0013233828971148543	-0.0021035756936676037
défendre	0.0028332245784717467	-0.0023497893759109626	0.003255471046855268	0.005865528271847657	-0.0057264969893588355	0.006704320632120526	-0.006728035683370919	0.008085846740429468	-0.010576938571202253	-0.012791848056343619	-0.024147314032267633	-0.030309924714170017	0.3480642466665413	0.13511949602300366	0.059232303594768554	-0.018270646315580556	-0.053086353666386504	0.00011743739063721503	-0.00413787623654927	-0.00564368586416599	-0.007450790609114331	-0.0074019929857769996	0.011571381512493824	-0.015593999107002078	0.0009362859466660774	0.0013100857583421702	0.00038411643631849944	0.005596495895749627	-0.0037732051177377024	0.0017501483809809434	-0.005814181188849514	-0.0008507214334155014	0.00284284296766056	0.005213129717465653	6.011511112818154e-05	0.0011731992836510998	0.0031314787658351874	0.005627959933450973	-0.002971463972706341	-0.012857879370321637	-0.007448464524810697	-0.00028387168741440355	-8.239393526876179e-05	-0.0004249127845415107	-0.002415110634751333	0.0016105782780293865	-0.0001676963702050777	-0.0008705394036337896	-6.311927212007337e-05	-0.0024248016729429434	0.002197053388746317	-0.0014479352234840976	0.0005075997565609718	0.0017469148168843063	0.00026499369617789814	0.0019941395826884025	0.004414014439476874	-0.007842500679850168	0.004578421630169562	0.01076922703410925	-0.013950625621588062	-0.035202063158231614	-0.010633570552837368	0.01833142006494827	0.013800607870177815	-0.0043669351219424255	-0.010059405637136499	0.009179215107635846	-0.00030294100352269617	0.001492426024160459	-0.00022080505351386968	-0.004697235006007085	-0.002413220162258662	-0.0006695757781387309	-0.0051091787012933244	0.0007781306668613415	0.0037518034679494723	0.0004465684278811702	0.0008394003950018113	-0.00027878939416950974	-0.0020358869255603608	0.0028994957715449735	-0.00034295690258132636	4.2497523047695606e-05	-0.007446826867291988	-0.007399680272160113	0.021203823091898406	-0.0013509685976594472	-0.0004584455535958186	0.0015411788811334152	-0.0034057131922974274	-0.00047719144068695575	-0.000781604427686964	-0.0008948033487220048	0.0002011234436525149	0.000526673357789699	-0.0015367427293857	0.0021020346599583684	-0.0003538422758825998	0.0015088512587339321
292list	0.0028332245785044783	-0.002342174475340896	0.0030429202292934403	0.005306216543105062	-0.0046800683573289675	0.004892744848898584	-0.004358892926399979	0.00454277846717592	-0.005281132749186944	-0.005753357422813363	-0.005016370059669742	0.004066959060574532	-0.0016312631649782867	-0.0008878038983629807	-0.00014871765900430212	-0.0008345330861089066	0.008613582008580568	0.007005554130909468	0.001978167380078977	0.004058725341742704	0.001228423483314243	0.002240623687287599	-0.005850489884146874	-0.0013933068218240918	0.007598283464367538	-0.0036401259919093534	-0.0019593482910215112	-0.005616990467797843	-0.0034855126183485565	-0.009329403367818555	0.023684679747567935	0.009525426334335176	-0.040782812497725585	0.040513590364961743	-1.3876990281841786e-06	0.0008509373529445693	0.0004960080275926496	-0.0006989656284396017	0.0011065817892916118	0.0020887605244446703	-0.00656586180299986	-0.0022522315918473137	0.00516352878808944	-0.008609496273141481	-0.002949666295883625	-0.006624630667865649	0.003087841632373071	-0.0006145377298610345	-0.013224315875403998	0.010131568211573279	-0.014328984934186228	0.019146868993416038	0.001796145258548223	0.008358452517585168	-0.0004168182740816786	0.0002717330768374311	-0.0024025569263727703	0.001586005442144399	-0.013923353049295869	0.0031510138839490644	-0.0015910733190831338	-0.0010107370535416974	0.005284003976896721	-0.000498104618031292	0.00597101864127865	-0.00651440964133492	0.003409148746604628	0.022473417115491855	-0.003901449651378818	-0.18284050364462978	0.05207250127548525	-0.04416977699105353	-0.0003375801293606295	-0.00866529152622877	-0.015790454557467342	0.003788443897851804	0.010898640451520024	0.001887867035516608	0.004079799726356369	0.003217987242704577	-0.00475223886213669	0.005531276472120226	-0.0022680325458276887	0.009925003846836979	-0.013880450024241655	-0.0009258762893589387	0.020228573319241702	0.002590454148675479	0.007752824130243043	-0.014742220974373776	0.07569500633049452	-0.0340103123044286	-0.05578282840484182	-0.25604543256914375	0.07725955361622985	-0.058185423384097885	0.08876333622287941	-0.0529046358607433	0.05275346867288057	-0.09883307945120416
Elsdorf	0.002833224578506762	-0.0023432403974186795	0.0031336701087007575	0.0054138760932570425	-0.004913877452051263	0.005206144382457468	-0.004748078010131248	0.005094808918538854	-0.006039917759870696	-0.0068414275659686675	-0.008464964595135887	0.02535744095701102	-0.000978425040042614	-0.00044839082767941796	-0.00026897954333217344	-0.0005268095835939731	0.008005010450480132	0.0072763376223289634	0.0022509808454182455	0.003991671339105414	0.0038592874147013925	0.0035824229803529447	-0.008664915780646992	-0.002527793866274927	0.010295998159080347	-0.005467126292217198	-0.0029251410235383076	-0.009071691832610857	-0.00576795740076345	-0.01576064230190815	0.04823726678196909	0.022076702157045464	-0.09985127631637106	0.13091019635589238	-1.8313835482096645e-05	0.008025144997296566	0.012444528145700285	0.011973455954650217	-0.005610479471770915	-0.007661035231795461	0.01163972684445054	0.0026680793526400156	-0.00429974609390271	0.0057646606994611205	0.001570932954113603	0.003765078294009911	-0.0011444351153570898	0.00010880277055425654	0.00571405530571677	-0.004393103971171547	0.00469991146525654	-0.006431679853952196	-0.0005489600100273076	-0.004204038724456314	0.0003432194226433566	-0.0008138923058224013	-0.0024540698832327228	4.251282060739603e-06	0.0008540585081711265	-0.002890952724161504	0.004251064095227924	-0.0016899716443639686	0.0067153493740878395	0.0005460309679858541	-0.0005328984376950958	0.005065221376256797	0.00219439033120215	0.017075125267590238	-0.002146169804188077	0.3216408158839717	-0.10232512433542015	0.07051012566703506	0.0014940109900946166	0.008738559440795844	0.004601757555116603	-0.002326003092620401	-0.0008481515696654087	-0.0014022226939541145	-0.0009409096834829536	-0.0024408694284225596	0.002272089340812615	-0.003521035084130696	-0.0006478687064160222	-0.007333327929295731	-0.008816117601023358	-0.0002909526757516531	0.012848003304460905	0.0017519817286241616	0.004690807630825736	-0.009408987817600786	0.052200726221325995	-0.0243042993199299	-0.03900923300612774	-0.18268459512223756	0.055722816643028646	-0.041961254718638145	0.06661347563843947	-0.03953368423084474	0.03965730582524546	-0.07722350116212136
confirmation	0.0028332245785178418	-0.002349975988638112	0.0032559927157394305	0.005637917985395164	-0.005914729121563477	0.006736132464543555	-0.006812018576752007	0.008573321182376702	-0.011059066890729535	-0.008912139638398873	-0.014284356276015254	-0.022930204763652245	0.0025886479376576593	-0.07915447564066636	-0.0925405784834469	0.07656457013380882	-0.2440962437578446	0.11649807234491495	-0.002874239954259726	-0.004200379664344736	-0.009849695687660648	-0.012072612535323102	0.016197718266495235	-0.04334264126620076	0.0179543348599408	-0.003311411108118332	-0.0002144892737016655	-0.0010296277064475875	-0.0002997677714441705	-0.000739263441485232	-0.0007179466461524299	-0.002127825749140467	0.002028369068882532	0.003238184093025364	-7.348709741195975e-05	0.0004694174203854534	0.0021960590890838655	0.004842913560334932	-0.0022691767535690252	-0.013574211402880995	-0.013082185088086382	-0.00018010558890569652	0.003350954637718305	-0.0004280796643503207	-0.0027017850553726803	0.0010219639014468337	0.00010484906492676228	-0.0005745313019301849	-0.0015056495201116876	-0.0011406300004818473	0.0008576762760570062	-0.00033071638297635375	-0.0003321452613808297	-0.001312907154585278	0.0014636264071239153	0.00017101473237972602	-0.00031495908151831474	0.0003174550953877111	-0.0001489056004500399	0.001154978936066222	6.48810244866533e-05	-0.002922370748264149	0.004587209157995362	-0.006007414076757783	-0.0040215317661021835	0.0010973463281091118	-0.0008697937057981671	-0.000811725526639516	-0.0011916109926255	-5.670582191277243e-05	0.0005296782732876343	0.001707407528572527	0.0017003453621394684	-0.006716255289387459	-0.0015049800152637013	0.0003497968157437246	0.0012118368268963352	0.00015723162855648364	0.0018374884217741546	-0.0038024345165356102	0.0014926899287034572	0.0002945154014086051	-6.465483427364066e-05	0.00014514948674568945	-0.0022886303716593615	-0.0013215227637687899	-0.00023611408484382462	-0.0035798026033987767	-9.433677836629328e-05	-0.0005035895569475541	0.0037910318386601277	0.0006269248400670845	0.0008053541297285971	-0.0008446978789092442	0.0005107374407062909	0.00995439959993926	0.00021456728382759221	0.00042681781849884023	0.0004281708286742042	0.00015693984382431168
Mike	0.002833224578510341	-0.0023437240252556623	0.0032413930069635274	0.005498940792736174	-0.004952214028003554	0.0054633368000533995	-0.005148623321600302	0.005836898781218352	-0.00669581305512333	-0.005131642152980262	-0.00480509171501956	-0.005333292078897572	-0.00040232699205573676	-0.007660233618814939	-0.0068686042564143485	0.0043379795214020835	0.00563170691357481	-0.008249459973522125	0.002715911687452305	0.00698055636704608	0.01581474222396559	0.027447252680479914	0.03952391328600678	0.018449291989018277	-0.015369016392042384	0.005103078011608678	0.0011675039957315507	0.0033395004697881927	0.0019925926305129956	0.00399443045463467	-0.003454564873861995	0.00056115946109129	-0.0009571748280571982	-0.0031306229923769536	-0.0021138256282856554	-0.0004595521503046149	-0.0051498964568517875	-0.016004519675502513	-0.0040649890545179715	0.022671524853382953	0.04173712047500505	-0.011172988030336865	-0.008642389590573831	-0.013681896539151965	-0.08915657940047922	0.044704775801391754	-0.0021778991412070474	0.006792555275870835	0.008410054697759359	0.0019765267223301446	-0.0017057628858578432	-0.0019048831357599732	-0.00020436773158279	0.008900658776000228	-0.0136435881675784	-0.0032533263795933944	-0.01064936786951947	0.045897664684366166	0.0005060936461403023	-0.13276115330879437	-0.16912722674331843	-0.07754418056014349	0.04555678353783439	-0.04716516195523733	-0.03456809492320454	0.012361264891641747	-0.004663217502623249	-0.037109780298192875	0.0313798751054659	-0.037005216728487104	-0.13884402253342473	-0.013738272550443836	0.01394809669790959	-0.06730313946834388	-0.015589677182079528	0.0035662382862733004	0.010290680722001223	0.0073158574916778775	0.007656541884744133	-0.010963706736647708	0.0013480947211531261	0.005262752101845033	-0.00048082752119457987	0.00040811939668937186	-0.004619393913184935	-0.03398127545129715	-0.0028567607380764817	0.0014145173070408204	0.03052157557622965	-0.03176352300168077	0.013975179879550135	0.003936633946576982	0.002535038522039415	-0.0018407027925957812	0.001745640739821518	0.031844197555060946	-0.00015664149187978246	0.0020095231255529986	0.00229365725955279	0.00012399490979525356
unique	0.002833224572782073	-0.006146835014411928	-0.37975182474008423	-0.0012182339393374958	0.000814035306967378	-0.0008278055600528262	0.0007121648390423629	-0.0007209218803951849	0.0008303676912952002	0.0008914146016645186	0.0007901401653734076	-0.0008807035376299874	0.00023056866303968913	0.00012206962864836496	2.5131393207599578e-05	0.0001162535013633885	-0.0012477138759361766	-0.0010214559353682248	-0.0002929064121356845	-0.0005939648614755096	-0.00017335457725021867	-0.0003259795934059829	0.0008556631432718072	0.00020595760917013067	-0.0010995978409290633	0.0005359828385785807	0.0002843213802000192	0.00082582991881479	0.0005199380925344737	0.0013828448594171718	-0.00356226842335074	-0.0014509381414060285	0.0062534861410425795	-0.00646716436397835	2.7256190175557727e-06	-0.00017763605379300814	-0.00016516322188501933	3.5098332607889915e-06	-0.00010002363415878915	-0.00022095436243301653	0.0007981466546105737	0.0002782530545100928	-0.0006582191497551924	0.001101016008603311	0.000387354397297663	0.0008548777072394115	-0.00042810520504190904	8.774819946909696e-05	0.0017520281898196514	-0.001341806704330836	0.0019206618489981285	-0.002637033615786641	-0.0002873977821343859	-0.0012196478032581223	1.8484150278823275e-06	-9.429597626210533e-05	0.0001922945307923458	-0.0001768620663922943	0.0017522532669154663	-0.000478018289445957	0.00030998523541937413	6.008532855571354e-05	-0.00047506803436960475	6.696379448738882e-05	-0.0006297021382872109	0.0006890718056607112	-0.0004035999227774475	-0.002592809767032741	0.0004579199857234033	0.01854538954150578	-0.005130848585526036	0.004193331909774788	3.897872285943144e-05	0.0008497393865607855	0.0015139707579233455	-0.0003893971332690517	-0.0010466652892031688	-0.0001725802849258393	-0.0003811311655767544	-0.00030942518231613127	0.00042848285956136826	-0.000480121524499342	0.00023638341622310807	-0.0009226077338815904	0.00131748305278829	6.367637273726676e-05	-0.0018822967796681444	-0.0002477926936320286	-0.0007191893605626367	0.001298655848353147	-0.006768083037757841	0.002913274392063443	0.004839419250721996	0.02160596441814045	-0.006316740885011909	0.004684524596953565	-0.00696679763029995	0.00413412402808913	-0.003939724154018656	0.006004151067382791
caractéristique	0.0028332245784983955	-0.0023464374635284915	0.0032475329271466815	0.005646919950621294	-0.004867241648286736	0.00583519018814216	-0.005781318603512525	0.0068775795996423375	-0.008638414618949146	-0.003713572040322315	-0.004365190079415365	-0.008674682158233193	0.0027115051636690327	-0.01633242232065492	-0.016462438713355537	0.012598460977632057	-0.0072950936161981445	-0.040400160449447095	-0.00040335260665628374	0.0001988348667644425	0.006703348761957445	0.01135459423670882	-0.01821865539996865	0.08006410823675557	-0.04804254664642581	0.01295305366409401	0.003013838434119593	0.010332529511566598	0.005055224729127915	0.013250919299222754	-0.020665034916557398	-0.002955350923800798	0.010280522420431398	0.018939341284722695	-0.00010625887913228962	-0.001895891514179366	0.008774054047314806	0.024550577910067428	-0.0069252180586191515	-0.06213381220835459	-0.06372429679826616	-0.0026843646776526084	0.013211555334628991	-0.005898950788635612	-0.008675712910219492	-0.005884384295605577	0.00109922341130432	-0.0009791028582273437	-0.009455742017401314	0.0009943719525837991	-0.0027727268689910958	0.0008603522102737225	-0.0024941895142249785	-0.0056416345395607775	-0.007567503606942354	-0.013755643862917706	-0.01468268595345895	0.007797466783874706	-0.0205483165938068	-0.032055196123645685	0.061429867918288625	-0.06104558195251876	-0.0421255667509363	-0.023211349742560092	-0.020996388638673036	0.00927768847787553	-0.0032833756278411817	-0.01024418317971842	-0.0014103791475987568	-0.0021405511420159442	0.0006787800172508799	0.007149764371266264	0.0015775562366091844	-0.0040173188659672395	0.0030743607253660883	-0.0012364606239674324	-0.00205937837414327	-0.0006077751365848425	0.0004267910379043144	-0.0014361879669962014	0.002441900169897868	-0.0017587868529844492	0.00026229083844623197	-0.0009689034104800869	0.0016290272341992732	0.00071128551892228	6.307945108108889e-05	-0.0007286164300606764	0.0005443026249215078	0.002352167318527814	-0.02283075034993082	-0.01431149422312156	-0.020455725201538405	-0.006745403641732981	0.002743500186284117	0.03418212208907825	0.0008943887512875889	0.00038781497106770823	0.0016379380488189543	-0.00041933267864571744
liberté	0.0028332245785046457	-0.002344839085931148	0.0032436183440587643	0.005552890418389297	-0.004961607491914013	0.005597080806892887	-0.005419861305727412	0.006278998943686685	-0.007784638964824939	-0.003938513104457017	0.0025395139368523216	-0.005621030673424357	0.0016759423463259338	-0.010627344406722552	-0.010641052506825222	0.008037695512360186	-0.0037140761565187764	-0.023286909140492085	5.3799774862857896e-05	0.0002486409337299478	0.0038780230653526985	0.006048144069907377	-0.00942946269645158	0.035871741858194056	-0.019296261708622205	0.0042548775975160096	0.0008275812612598364	0.0025700464193742535	0.001156590104661266	0.002739364712784095	-0.002265495525055718	0.00230784846634457	-0.0023603419929301827	-0.004089045236502064	0.00025591842132568587	-0.0009328794952441102	-0.005179800304020503	-0.01276990038917596	0.006342817477817937	0.041879848472441555	0.0431544525890908	0.0002404384531795137	-0.012345761304435033	-0.0020133461130302467	0.011117485867888636	-0.009286244734465241	0.0014572611062036607	0.002147067859766324	-0.012794536869843404	-0.01776597566725132	0.013782808610614396	-0.007245509685778556	0.003670502771286551	0.015232739965567144	-0.01134356349251486	0.010983087125125558	0.0006870215053265179	0.005862423411463209	0.008762486889975874	0.0371467353035091	0.002957102817347474	-0.011224917057778148	-0.0004857525070989157	0.030318906562952018	0.027485925308357008	-0.012487952397867087	0.013310801750289317	0.06371607470922391	0.21799748848235168	0.012733120105569045	0.06897447105727508	0.030081174382688352	0.004533062312035938	-0.0022871628293301485	-0.0223887486802811	-0.0031950253232998615	0.014781631892429137	-0.015494004789453456	0.17516596064044454	-0.21642949038917456	0.10223632270902179	-0.00853749388941065	-0.0008175813133425132	0.0017191373853694912	-0.011589769164087155	-0.04637218645448557	-0.012617751561993015	0.0009206269144500594	-0.0024296605316110878	-0.0013299197430915854	0.021287610762612992	0.008357971188049953	0.010108777265415779	0.002085359002998062	0.00225659024921729	0.052265276957954354	0.005244869585192911	-0.002431490089788055	0.00644040332432114	-0.001153265105794817
cancellation	0.002833224578508098	-0.002347917357316681	0.0032511539250951148	0.005651960390581041	-0.005330657173095745	0.006186988417288805	-0.006188106084834244	0.007544919594333066	-0.009592240647065601	-0.0044475436507072225	-0.006878541800355003	-0.013163967132473448	0.0031346763441932684	-0.036459441975500134	-0.04085906829906892	0.03326850071538873	-0.08477157603725219	0.010829653753899958	-0.0015250956532932452	-0.0017484931565950076	-0.000270843162951279	0.0014439993088957298	-0.0025470385098454763	0.022008902156267024	-0.015367013322405074	0.0043968972918816684	0.001093122476893733	0.0034915512038153507	0.0019324744128152984	0.004526136263900585	-0.006189064124967079	0.00047352357628813267	0.0011216268583810612	0.0009673986158763477	0.00024234421756007675	0.00039210031605857974	-0.001599822226583024	-0.00634175156600254	0.0028536055076396703	0.026584088115855303	0.034401475320447975	0.001080773659994069	-0.011181469390160365	0.003959837580875566	0.007881452216269468	-0.0012460037024910574	-0.0009178385664948652	0.001805903486698228	0.006640040516265294	0.0031000666929854887	-0.001115633067304291	0.00035276768715002474	0.001438884424475262	0.005911670387675396	-0.005020721039007789	2.5617394242039536e-05	0.002188049828554672	-0.00020580885071334008	0.0014479661485122678	-0.004373919628352065	-0.001411505967725363	0.010607524022860243	-0.01813730793397364	0.02326782266991076	0.015716499901894727	-0.004730633797087248	0.003552226551004258	0.004813741805128398	0.005720240108393076	0.00047066849148911117	-0.0028717525078582225	-0.008566115124706036	-0.006932044856034365	0.02697109865126098	0.0040361133356722634	-0.0007713876591223124	-0.003531511607849643	-0.00029050530760179553	-0.006993563013391282	0.014457577486919006	-0.006499478001678147	-0.0002797786753489838	0.00018882155567434986	0.00019826424384551916	0.0069917494195140244	0.011220373836392659	0.0023054421146340223	0.00027795079098309706	0.0007914829440918147	0.0013346886921543444	-0.014159730113223287	-0.0038752142348137363	-0.005465508543958074	0.00085100310535937	-0.0018207951769844835	-0.04243470168511808	-0.0031425173181795496	0.00032970847678164515	-0.004327723734837495	0.0007088337843462675
Roberge	0.0028332245785032233	-0.0023467081030096888	0.003248413342901312	0.005655037165428527	-0.005091119639338377	0.005912630952990437	-0.005839304374237965	0.006954602069119232	-0.008743055727914926	-0.003032258629907133	-0.0022692527173464924	-0.008115033495360784	0.0030104427480676294	-0.015487107738598072	-0.015568495913141692	0.012031041134624162	-0.008193156720032378	-0.03652806981860589	-0.0006398087288543254	-0.00024104315353655026	0.0046284567111416	0.008228476326081502	-0.012217775550208167	0.05374898808578382	-0.030862421491880947	0.007788590476454372	0.0015728330113040983	0.005323094552413895	0.0028072950711561873	0.006569608852303399	-0.007756593913819718	0.002622591422393292	-0.0003795353327490881	-0.002075309869809411	0.00039145558411141166	-8.823767191677582e-05	-0.005373756865309019	-0.016652588487660953	0.00810567210984987	0.06409510042779433	0.07919200774386824	0.0018384518138302311	-0.026986139345608024	0.006573898060077036	0.022828189528856135	-0.00766844159747276	-0.0013297968206680219	0.00589777010595935	0.011611397367911561	0.0032251907997917547	8.994769936383241e-05	-0.0016401832157750189	0.0069994083915689564	0.03179966208502855	-0.031964049272803836	0.005820467015671215	0.006985876738989786	0.02279508221635645	0.046644361086735274	0.2338662568475426	0.014474566743605118	-0.12771991662130644	0.11766167971446777	-0.10030712432022829	-0.06418154273056889	0.01763087199611123	-0.01241359107589902	-0.023202134190032357	-0.04127210537132381	-0.003314517036668926	-0.005365830137848087	0.010295321829026788	0.007367479142405661	-0.03129763898345429	0.001138607128401286	0.001256714586197344	2.6205430938864085e-05	0.0021659243152402853	-0.017780835535392243	0.016199435365014073	-0.007251257350173416	0.00021275739273077677	3.540375069149569e-05	0.00048094626753406754	-0.0023052173482120382	-0.001910621291267704	-0.0003821562752453038	3.1981711183050755e-05	-0.0006542448655441385	0.0002619480750898082	0.0023287743203689593	0.0016872922947516918	0.001310375280636239	0.0015179131848492037	0.0004102256122294947	0.008669468643023065	0.001658016830963241	-0.0009604661156620425	0.001912466171561454	-0.0004734876623690388
neige	0.0028332245785149934	-0.0023474261240679093	0.0032493382221838746	-0.005433860793923131	-0.0044048213520562225	0.004661208522653195	-0.00416135284176045	0.004732909826424936	-0.005308470921674118	-0.005800844445486324	-0.004529105356279026	-0.0024632624148853144	-0.0021395523964660565	-0.0012233810886798611	-0.00013961775754027864	-0.0011064734176631057	0.01079901393387271	0.008368050450591039	0.007051164950053097	0.004874113985881354	0.005243379680237033	0.004100842016075003	-0.010084473635346987	-0.002019244670017989	0.015309767312598657	-0.008972176998152514	-0.00877257815835936	-0.017782476886958297	-0.015052248497295473	-0.030092275865643038	-0.019616265925958023	-0.0015084465960165027	0.00010856988776860709	-0.004945601197227161	0.00016052756038299103	-0.0039052314465657526	-0.010567350251349153	-0.007996963263012278	0.007342408067903556	0.014285453491609451	-0.0480340656096079	-0.07118889978773583	-0.05832230578118882	0.016364978743839916	0.0014635043703777311	0.0008615072282129807	-0.0031946443881301204	-0.00385033371398883	-0.03447484881724858	0.21491875595722762	0.2049883865150159	-0.046859677000873984	-0.11815778550017153	0.05341184179395257	0.010988834977439613	0.009709082073693451	0.018744765772819576	-0.002937084492605062	0.011621341603164345	0.008362772614639805	-0.013306443140124758	0.008063684194571716	-0.0218717120775051	-0.0012321866739631177	-0.009448471494799271	0.009879676433329711	-0.0008225169064050141	-0.007710371137407412	0.0006576314688668348	-0.0008779601660725924	-0.0015183393944645275	0.005363198454091066	0.001808292532685077	0.0016196795130233796	0.003249499245001371	-0.0011062870736263265	-0.0013812897935711194	-0.02529451229285838	-0.0037497349229494758	0.0008317132241601852	0.004117049061961143	-0.0018142891738521137	0.0003719006587349215	-0.0005246698185357107	0.003655730241720652	-0.00015434555976860664	-0.0040890794709746575	-0.0048094248272630155	4.0774409699387195e-05	0.0025857408375721544	-0.007799596772526	0.0016634910127009059	0.0049731323334688896	0.006085462218716094	0.006722633916556284	-0.0015986520768215412	0.0029518647472726936	-0.0023516808305045203	0.003058047434392218	-0.0012554442586867297
lettre	0.0028332245785028087	-0.002348551675103852	0.0032528392372000656	0.005751735425344795	-0.005196157363659479	0.006194219904837341	-0.006251410323177829	0.0076310367509595314	-0.009712299027604624	-0.0020686114319246537	-0.0025957388873775467	-0.00974733383737117	0.004286511701965277	-0.01930209312701333	-0.019607443391925973	0.01542409441913966	-0.012801551040300833	-0.04736956284444646	-0.001297358291362814	-0.0010796035926203995	0.004725494979346986	0.009200560915984778	-0.01324536951565405	0.06472390477561381	-0.038650557330689915	0.0101218353959429	0.0022324234617892413	0.007339117964974811	0.0039605866353897255	0.009323381034756785	-0.011988446622001766	0.0020157262392113693	0.0015468526355505267	0.0007739157196026605	0.0005003761234070904	0.0007152513508968199	-0.004078857855771764	-0.01522666785866282	0.007070643037626759	0.06292762904906822	0.0814941677817865	0.0025466339067438826	-0.02716854442787993	0.009328672410596607	0.02103013638841214	-0.004342521973599311	-0.0018969746871024206	0.005011755646913408	0.014306449627892064	0.003829505619540754	5.527416009312898e-06	-0.001170876379329771	0.005432179295744498	0.022831560088708472	-0.019298961492914254	0.004394058901757203	0.008481869565915758	0.007901801623836822	0.024610308989815477	0.10263054372278574	0.0034085549463704233	-0.04251263471036536	0.025906542519051397	-0.015279870319867057	-0.010089925640521573	0.002872928245815561	-0.0011744697522742403	-0.006325403014900848	-0.0005490896050464279	-0.0011853579796889517	-0.0009388928057798337	-0.00014471764354122285	-0.004945284815624862	0.01989165214448692	0.008418553078779149	-0.0016063692633362632	-0.00657818857215387	-0.0009777342454295281	-0.007159806895484349	0.014103134211749229	-0.004322765392411072	-0.0026721896122306275	0.0003662841982905053	-0.0005452851419498337	0.01122836389888397	0.000822341003268591	-0.0013627010627618556	-0.0004973242300563049	-6.678039484453056e-05	0.0021805070506721023	-0.015046147929155235	-0.0015976898801238655	-0.002552566416773122	0.004880863164792938	-0.0020804109456873366	-0.04031595250186727	-2.3398540574462792e-05	-0.0025198847237034114	-0.0008163081594456598	-0.0009977360027637787
Strauch	0.002833224578506703	-0.002337841894019645	0.0032285383038601345	0.005187372412455239	-0.004528942863619701	0.0046086363561897575	-0.003967013449575233	0.003996967918319213	-0.004581702582926516	-0.0049976730727210456	-0.0034271908540720493	-0.0016306776010167195	-0.001520212368265696	-0.0011143283612674304	0.00014877008291122595	-0.0009893618534682867	0.007024023970488466	0.0052180029417310675	0.001040596025309017	0.00248256095231855	0.0021422009059485995	0.0018912889206738788	-0.004148394064152277	-0.0009577206699595553	0.005743830611330075	-0.002016836473395695	-0.001417804581080952	-0.0032026716140589086	-0.0013280265253295845	-0.004343395526582554	0.007705686536068103	0.0020153061303733524	-0.006058884627979556	-0.008307155307505717	0.00021956786892050873	-0.002247957748855698	-0.004268772210457451	-0.004752431388433495	0.003416964800476638	0.004513660869446642	-0.008609202370371744	-0.0027787779353597693	0.005231902531242762	-0.008220648398329904	-0.0019423205889603536	-0.005566050199416599	0.00019993158793194486	0.00017752220008037268	-0.006880353083557668	0.003228742886444959	-0.004969554342128625	-5.8335020296840234e-05	-0.003032064428612072	-0.006947666039259591	-0.004305636448150345	-0.004413879017957999	-0.011420983929545162	0.0029378357618660075	-0.00811739898523903	-0.005451448268767183	0.008918332339764684	-0.005764137874134382	0.01759036095607481	0.00023377023152182375	0.0064132165616018755	-0.002809696688862759	0.003230467843765612	0.02006810155836734	-0.0021966124805471027	0.002754401429635846	-0.0013370105203035186	-0.014811465893813248	0.0012756018082391981	-0.0027466373054755265	-0.012400483460440889	-0.0003635691641836591	0.008895797891064585	0.00022498015918951146	0.0029852225814945054	-0.00031826071630866246	-0.0039739283594337526	0.002396013979087427	0.0005635214943236375	-0.0015254175481839638	-0.008327949056617353	-0.0012963758276706774	0.007610757688862331	-8.604557995509814e-05	0.0023571383260023986	-0.0035881825584653066	0.008551740882489271	-0.009207068735716223	-0.0018807348313698846	-0.01450887954483533	-0.0004075370115655454	0.004190728283977749	-0.0041190271510592475	0.00970625122348783	-0.008937099935929754	-0.0006833064210950484
contexte	0.0028332245785134946	-0.0023424737621461703	0.003238567813260004	0.005432046253367181	-0.004727774728556891	0.005195605240977442	-0.004718816917716518	0.005021672670891285	-0.00591648600193774	-0.006493610538793233	-0.0052691405876248345	-0.002976077266460375	-0.0023991053858894097	-0.0018062870182495652	-0.00045865535059766427	-0.0010596036547232332	0.012307728320591732	0.009192645277290433	0.0027386162709722084	0.005350871951930553	0.004705712039296291	0.004925616738826081	-0.01119040893413124	0.0005838089539761115	0.01369177398949116	-0.0061401159221750184	-0.002357099502042605	-0.008928892470296894	-0.005854369328722008	-0.015965270580179106	0.04548725893424523	0.002646089035453012	-0.0318477763503753	-0.09691039277190422	0.20329231843966128	0.18435550377874874	0.11441156289360623	0.08323059685501064	-0.03323594737610837	-0.06003205403225336	0.05333836815597583	-0.043501430856805384	0.008601387918418165	0.003192124102173441	0.02399360752903179	0.01989519835171863	-0.005405314098708682	0.22145764664302767	-0.013963065318397425	0.00021316389749102133	0.004493835667409204	0.0028357095506499758	0.0019309957699136509	0.0033216397449715752	0.003663529832452307	0.0023823959185750865	0.007463840021198934	-0.00131528069386962	0.004194421035700226	0.0022511478702328183	-0.003653523511397367	0.0023318033936827968	-0.007368785295193069	-0.00021472141873649098	-0.0035174267966614978	0.0010387831045418003	-0.0012974802557096255	-0.00743340298576258	0.0006745319466024578	-0.001243599705423734	0.00041541748704998147	0.005693733897457188	-0.00016977540458427195	0.00021477912367001348	0.004182583882667983	0.002101218168324077	-0.0016942509966145543	4.442597193420484e-06	-0.00042872793789751514	8.50913720304128e-05	0.0020552359254601667	-0.001229213339666033	-0.0001173024536267076	0.0005959486783969676	0.002017965711037258	0.0003220516400438342	-0.0022398301209857023	1.0614138670898918e-05	-0.0008817603778543785	0.0010420703701173092	-0.0016799799895698894	0.0025296007957694953	0.0006935652737942513	0.004325639414936435	0.00011631339650530715	0.0007021370869570512	0.002391085507039116	-0.001933475099619027	0.0023279626665443486	6.431210308841667e-05
lieu	0.0028332245784332168	-0.0023580969580027185	0.0032766224422348094	0.00656383890498417	-0.011513559439259153	0.01586885663487968	0.14236686919338917	-0.006454549230892217	0.004327544945749277	0.0016549058139304577	-0.0010035242038486086	-0.0006632251812852576	-0.0007436485606355315	-0.00048110151895127545	-2.8931654297313647e-05	-0.00045759059521914905	0.004750124321015457	0.004573334154722844	0.0014973831995928758	0.0032844106321109753	0.0035815370840827816	0.003544894329756994	-0.00962289028744508	-0.0018442449465445737	0.018865383839491007	-0.06372107803199965	-0.1360693709700538	0.06391950064181333	0.026990447078322665	0.039691089486551374	-0.020659626212031452	-0.004260753136640842	0.009802668851799302	0.010965663090880859	-5.255866787358084e-05	0.0021807593408655927	0.004002364274614577	0.004258064171581099	-0.002591512297599118	-0.0035501513094318704	0.006851886874497892	0.0030099199523146887	-0.0013907785885234926	0.0034791869829744076	0.0009145995498132265	0.002462190770762097	-0.00045548823046713104	0.00019677609154479005	0.004799898148671111	-0.0052708833303098425	-0.002687682503653064	-0.00010577201408752419	0.00333595887110314	0.0007607307526409177	0.000691063578126757	0.00579408595350145	0.001029551795936683	-0.00042639511410642005	0.0019411570857980295	0.00011591886459246664	-0.0006437123541259407	0.0005697921996674991	-0.0027937156951313054	-4.3077516572259666e-05	-0.001070831280400017	0.00030570860915521414	-0.0006448761533448463	-0.003557216331100399	0.0003109740054555495	-0.000768190035682857	7.982771711359873e-05	0.002850587393822341	-0.00031837903081371154	0.00060781377068031	0.0030953385669567233	-0.00020297478516674702	-0.0021608650349645743	0.0008813334872872832	-0.00036638764068068876	3.5611489677180594e-05	0.000864719052372637	-0.0006297293387119956	0.0004039632997470922	-8.889880388143542e-05	0.004049806440687799	0.0007662585608822284	-0.004623002587803245	-2.383943915318246e-05	-0.011887859841830523	-0.008037922523561992	-0.02276138145676548	0.0070456631881598095	0.03358085795343433	0.040821671679748615	0.24421717595773607	-0.0034648921655083195	0.0005519634143840669	0.030520316029074412	-0.0012864179375441757	0.0248093447049684
président	0.00283322457849666	-0.0023449268632335244	0.003243448783022935	0.00556754302071185	-0.005175490696567147	0.005467988466429253	-0.005306735125875843	0.005930639535855478	-0.007173791537867581	-0.00783796411584214	-0.007754254917612576	-0.005417881043775476	-0.004143773462394317	-0.004079206423214583	-0.002536455058529976	-0.0006933038213308082	0.02758510601377373	0.025516629261417546	0.02456505869585428	-0.1724559037691736	-0.039467868778594366	-0.020918743258316982	0.023832165785719155	-0.004045196594956502	-0.013557721025391753	0.005286385616625859	0.0005146873433728727	0.003709586355906128	0.0030491627561615585	0.00621611802556503	-0.009761357086098207	-0.0031932870529007666	0.0017395326847790531	0.004341584423821196	-5.7954439875986473e-05	0.0006239425377566076	0.0013232905741421674	0.0016217677560198436	-0.0009326074811266596	-0.0011366440143178863	0.0020781419104297094	-0.0019246331205262784	0.0008399649041475887	-0.0005376647918258356	0.00010951979001530901	-0.0007467826340987567	7.209238494935099e-05	-0.0005535258802073992	-0.002562160807630394	-0.0025346995792525605	0.0020425463825037363	-0.0004502234344984637	7.254975606147372e-05	2.314910043469537e-05	0.00040624715137702397	0.0008200248553741447	-0.001728725188913139	5.134430824941562e-05	-0.0013142765479880452	-0.001850242862452143	0.002159573724684072	-0.000615575172564024	0.0030132627164494614	0.00382406770592799	0.0051777604282161535	-0.003743493497617989	0.0024598110413406255	0.018264353226275037	-0.00011720969649272293	0.0032348690607962157	-0.001282043294157726	-0.0261021684592428	-0.006298078831336602	0.011076006297594058	-0.027638160077616367	0.02468337534422702	0.04092182377719061	0.041621016276137214	-0.21066921542176906	-0.10457932566804805	0.09672181568111553	-0.022645273638755688	0.0007703906198736669	0.0006968925515705904	0.00436971498624084	-0.01997249762914075	-0.012386898459014264	-0.0002546313142568362	-0.0012244020523383874	0.0020314699625437055	-0.0025916402251013396	-0.004618648566071653	0.005757217005074467	0.01002930715201564	0.00014960610212201464	0.010723098231162763	0.016632206395789044	-0.0040502419916019616	0.0002712161268758175	-0.0023622484676727104
bien	0.0028332245785092688	-0.002341594731951658	0.0032358029502640422	0.005383543661907296	-0.00463684301918983	0.005102824946451361	-0.0036366644925029164	0.004761543105861278	-0.00561601400967995	-0.006199434519924775	-0.0027555866771851196	-0.002454757163921491	-0.002366429965507415	-0.0012470820338624268	-5.596648318331732e-05	-0.0012983141088354216	0.012249660662946298	0.01049940902017063	0.00301512656342795	0.005746890713266597	0.007214553487881229	0.00671285346986719	-0.020916119938336832	-0.009897519579432926	0.05390390581351534	0.11847386801906813	-0.01750750485574375	0.023421454437465024	0.009388680874650748	0.01777033938608018	-0.015553989575724833	0.007238520488901063	8.997908571332838e-05	0.0012132586884482386	0.00020636370533086868	1.3495738306325885e-05	-0.0002829946732262091	-0.0011328595226457773	0.00036965341957905656	0.001204204420271554	-0.003202563078435222	2.883115057459196e-05	0.003272236707234793	0.001060625626797713	-0.001536256989156588	-0.0007769402040807612	-0.005687820237319319	-0.0016157998750615716	-0.008480000536588223	0.0014911218072305513	-0.002026297701031074	0.003413763192360537	-0.0005362127053958791	-0.0021078838945365885	-0.0021206118704054696	-0.003591864005805522	-0.006488974271634096	-0.0007656539133980862	-0.00634276570920321	-0.00440031169771541	0.008060808484382937	-0.004789835468709738	0.016606398091036513	0.0023203041139116705	0.008337304166948643	-0.006159014341138901	0.0026870852440971787	0.03695523358105875	-0.000527053543462698	0.011888997116555592	0.0008976702980286249	-0.04962808638913356	-0.008624718157750332	-0.03438859543476309	0.038537027247719	-0.0031681848301273125	-0.011812711247448315	0.0013821718832434419	-0.00567940512690903	-0.004617089835830981	0.0023771557785852554	0.003737579834305999	-0.000641420027850746	-0.013999596007147591	-0.005229736144947396	0.003019313661194706	0.003835148116835864	0.002631882397888022	-0.002526176902033184	-0.010222836495554229	0.039070269985286135	-0.0016546824049575217	-0.03496063542043283	-0.027033668182986366	0.04725918197369563	-0.0018047002164764125	-0.45316902691368194	-0.20783966719704977	0.08363537632599663	-0.03673164817136211
Michel	0.002833224578505973	-0.002342256277983578	0.00315995500854178	0.005375041557031416	-0.004808669916204865	0.005082317133625188	-0.004606266500195371	0.004886908688480315	-0.00575870802643846	-0.006398892308492466	-0.007167384258263807	0.017467347066514215	-0.0011927165165962672	-0.0005656953239781791	-0.00025469679577411544	-0.0005978628012582275	0.008096556501071833	0.007060132464773057	0.002122553705487357	0.00366547003755042	0.0036642716197284302	0.003297387916503575	-0.007807374680624299	-0.002185061958300885	0.009242610592597404	-0.004835923437762609	-0.002516236800705487	-0.007794395699942999	-0.004978943497510791	-0.013422106076834882	0.03967061318052475	0.017788401845187776	-0.07909459407996243	0.09991118221967388	-4.247689144668248e-05	0.005713580585516735	0.0086331638900808	0.007929606198298224	-0.003552819733543505	-0.004730034614750349	0.006540560394208174	0.0016354143924466745	-0.0017449874868886977	0.0024269328474579646	0.0006748309853073248	0.0016339158109840886	-0.0004627383997315021	-0.00012127631267477498	0.002070194705418721	-0.0033744584801400045	0.0031022794428535497	-0.004561497424077989	-0.0009546128310592246	-0.0050017828866471565	-9.744204044754602e-05	-0.0016249752771534233	-0.00481297682994833	0.0005205199795958754	-0.0019225918284449038	-0.003773897169044426	0.00608181536008859	-0.0029168647683086215	0.010943096092261084	0.0006865350112078943	0.0014396338732584162	0.0035941545388814312	0.0029679865248800575	0.022346579676681237	-0.0027481701614132676	0.3142538730508195	-0.10010766013781697	0.065819410140355	0.0015353221716962338	0.00741309395776214	0.001238199428827945	-0.001636878933983415	0.0016020915808627998	-0.0009361455965180335	-0.00028492396836833807	-0.0023001664263946134	0.0009961969983740045	-0.001938231245577787	-0.0009324260577233704	-0.006935711516735422	-0.011399666580724253	-0.0006210516702191554	0.016234351877255852	0.0021681093956941195	0.0056549206290071	-0.011872783457232432	0.06287160639697	-0.028932396448219877	-0.046410214354652465	-0.21429912288276576	0.06519086571813286	-0.048424626150366835	0.07599267816461658	-0.04442608599263555	0.044745416205868804	-0.0926695086256156
amérique	0.002833224578501997	-0.0023435273852498778	0.00324067188835718	0.005484890427851526	-0.004819498402375066	0.005350174840182201	-0.005104611536412564	0.005721027462790797	-0.007024302843814962	-0.004394076288080704	-0.00450004015524161	-0.0060746705339407465	0.011746943234126906	-0.003789062698268543	-0.005872061383025904	0.004953322477265879	-0.0016843162191243254	-0.01488333718273404	0.0003870307619849342	0.0010526346361986816	0.0035514253849662086	0.005054154575483768	-0.008191898305884258	0.025529473469071737	-0.011957101098394374	0.0024689819548407536	0.0001919029461073694	0.00047802775553474914	0.0007145917897445147	0.0005073726902797429	0.0017967429955461668	0.002192724512786558	-0.0033471041993169736	-0.006587025581252455	0.0004631502841691006	-0.0013549601493750923	-0.005696691095352598	-0.012356475669531089	0.006781661607856444	0.035828062702929736	0.027386106878071227	0.0065050780129593255	-0.009416241131778323	0.00045038486602709885	0.008095766660793974	-0.005369830445448255	3.56937791023556e-05	0.004214411059532824	0.0016704790526346084	0.008616639263929783	-0.007313933366549366	0.004219699269762622	-0.0013720995917388943	-0.0027117726134095804	-0.008390394453445431	-0.011340052395193801	-0.02049293546274109	0.028023696684266464	-0.02398055550173149	-0.058668714788983736	0.07092608096909331	0.18903293175668945	0.057481034310820675	-0.10181737792553963	-0.08017651518802232	0.02558198248009696	-0.2353829678094258	-0.0021925013651671148	-0.013529455579054883	-0.0032217062903243804	0.0059687293278480325	0.021959409974000747	0.0006804920308772526	-0.04400552683527712	-0.006559224269875923	-0.0005479879803114785	0.004597997287218171	-0.000507647488482884	0.009107296740526188	-0.020678023938477105	0.010317700157645814	-0.0015294160334258912	2.1260180518407903e-05	-0.0007049186733485066	0.002337814911647431	-0.01820763320953859	0.04162931113129095	-0.0030191458997468855	-0.0021342019364519625	0.0048542838705939815	-0.009959526643509959	0.007204433393831871	0.0038184742542607094	0.006158654870036397	0.0009150898483483174	0.015987120669811575	0.009126960690345907	-0.01609800259395048	0.00012360962708828256	-0.0034500529219748293
professeur	0.00283322457850924	-0.002345313898975453	0.0032452111731938894	0.005583502028742715	-0.005069507504481403	0.005713947484165035	-0.0055050255108727	0.006427441680800371	-0.007434770966327331	-0.004489433441497397	-0.0046133456477161165	-0.006686656260569263	0.0007845461050502928	-0.010993069607194665	-0.010432582478965512	0.007366951530107647	0.0012050979555623823	-0.018737499376742177	0.0018362571171619175	0.005339947171800854	0.013961420313096766	0.024538821261127407	0.028564338199647894	0.03174014463294056	-0.022460923328269405	0.006783591718678976	0.0015072973774163609	0.004588752339417889	0.002641669341753808	0.00562164135215905	-0.005801335995892302	0.0010605591626588642	-0.0006174582369887181	-0.0030430831078353503	-0.0026341455214418316	-5.001888627177383e-05	-0.006098361944932289	-0.020631452374030326	-0.005115482106452845	0.03275618817710438	0.059495939341438216	-0.0096291085555359	-0.015455614159485157	-0.010010243815266254	-0.08217807710684924	0.04358301240443299	-0.0028575484129505207	0.008048399493740848	0.013199340763442664	0.003438624893278044	-0.002317685141029033	-0.0021429207577579224	0.00046058275300281306	0.014613822373849571	-0.018849487769572286	-0.003490486977627436	-0.011571273247114197	0.061123799340801394	0.0029371579927237514	-0.174133607177116	-0.22479871365993162	-0.09827566200914643	0.05211165298657199	-0.05726598274397527	-0.04362394932600795	0.01598521580221028	-0.00615831355584407	-0.050450962158224436	0.040277962710366905	-0.04642965040930972	-0.1706160496202049	-0.014051023909552575	0.015882877986994486	-0.07719243260471755	-0.015196297215221801	0.0038798573163373274	0.009674537924621241	0.008475808768362736	0.007911653074388542	-0.011854390949858197	0.002390160847921627	0.005062097664166008	-0.0005399774128584534	0.0007250405849473114	-0.0034490357385765034	-0.03272129625936102	-0.004035097503271103	0.0012966987963843606	0.0344854762434425	-0.03440004560645931	0.009706243297375369	0.005188482795647589	0.0037117756531150703	0.0017204623428879718	0.0014365125185872034	0.028171319592487074	0.0015202997420894902	-0.0005732184187702434	0.004395907289209919	-0.0005667052945383831
degli	0.0028332245785117126	-0.0023426776571808523	0.003238040338987739	0.005347091930100174	-0.0049448871845857185	0.005233335922259777	-0.004767808855865367	0.0050197362697659295	-0.005976640409539017	-0.006609889830660891	-0.005420883089220806	-0.0030509285374034183	-0.0026783009086657076	-0.0014216680066200492	-0.00024406323834919377	-0.0013106429190201888	0.013659226562993185	0.011327330383732785	0.004272204954376376	0.006238949596321435	0.007020566283197153	0.005779217418231813	-0.014774327063313879	-0.0030654474761306894	0.024146514107609374	-0.013593123561394284	-0.011392963663610785	-0.03900460441502862	-0.033447129854203166	-0.06264012630987292	-0.0676848921024552	-0.00855366511653371	0.01819771808068162	0.013381517724818222	-5.953475532748028e-05	0.0007598095097673897	0.0006404608851760746	-0.0013383316879250502	0.002853903390308454	0.0062992542784020625	-0.027288154629023398	-0.053599273002877625	-0.05387609059759133	0.025188824589162863	0.005549365717437091	0.0100027229733177	-0.0007188844908439375	-8.697612522894364e-05	0.0052437980380383754	0.028744860405880153	0.03674499157029153	-0.004922026575398053	0.28842250110500045	-0.06318526479718028	-0.013870854748677833	0.0021282975792633685	0.0030496860653928923	0.0005457030923526115	0.0040370498230867065	0.0005585175540663697	-0.0059599100780723824	0.0014803340446643575	-0.006485099098332956	-0.0007339826530173444	-0.0023528515282622373	0.0018246572293613697	-0.0007037398158446112	-0.0016306177547723878	0.0006004541745789867	-0.0013055412578386822	-0.004045868968170575	-0.0032593636072739277	0.011432848942568652	-0.00042819119099329157	-0.008444298675588244	0.0008265760978629388	0.011705585886541327	-0.14204948172584356	-0.018411416568776744	0.002431122369111972	0.010946030720469211	-0.005296425593221506	-9.484278206587374e-05	-0.00010388413925916913	0.0038067438375916974	0.0006296759101898364	-0.003725080200744347	-0.0004226055002362326	-0.003841829692505173	0.0012105203124373365	-0.005992056360584799	0.0017118754694354945	0.0024246880967454454	0.005095967655781743	-0.0011253501977314744	-0.001372682800387312	0.0024887828577673395	-0.002669273527121246	0.002833910737025499	-0.002460007666199103
citoyen	0.002833224578496839	-0.002347114679736268	0.003249882180158741	0.005722828305198005	-0.00587748449510451	0.00645390699276999	-0.006378501458120382	0.008054739729750918	-0.010543571907646744	-0.013752735436040331	0.1636096913714526	0.018174160052121652	0.0026685300922591527	0.008222294496521213	0.005659034248858637	-0.002471419353904865	-0.00830443859763807	0.0021314586465013786	-0.0008589708543876548	-0.0013457388169745054	-0.0019694025242956888	-0.0020583043945539645	0.0035898755446819013	-0.005487929470956391	-6.599163186960834e-05	-0.00563793642549819	0.000680956875822699	-0.0012081599240000998	-0.0004820701498596488	-0.0010010011367226415	0.0012874261190280421	-0.0003010860831457287	-0.00018812131917088744	-0.0006194725792789809	-3.580515297517493e-05	-0.0002408066047408881	-0.00017413766538732487	0.00036411452818536574	7.731258056150963e-05	-0.0030617221142518903	-0.005854977241450783	-0.0006133591247596167	0.002456959177017849	-0.0018343074873673946	-0.001436758372777863	-0.00046380387416801927	0.00014775543460875937	-0.00012152381114048736	-0.0001339236947077928	0.0032230107921472264	-0.003229253013667017	0.0010240122829861644	-0.001285304091182926	-0.0036294591847405994	-0.0003346061192198272	-0.002981221508862387	-0.004144964436604886	0.0004551674634821389	-0.004026909813992254	-0.0059783901181397975	0.0031824984899602423	-0.001084729452178539	0.008202206925741863	-0.005255862484040398	-0.0017815876434933826	0.0014017880767470247	-0.001426372988520365	-0.010132676477384917	-0.13510333547904121	-0.005347665355276032	-0.05725730900397477	-0.07363952812723287	-0.031977180247755886	0.11653364362557918	-0.005104954274320087	-2.8599643655986178e-05	0.0028935335632823958	-0.007753242799593043	0.08367987858823875	-0.09407285772534939	0.042617215360289305	-0.002208429753409616	-0.0005094870075734784	0.0009279218030504273	-0.0015555879237800535	-0.008111863916537215	-0.0019181404327043928	0.00039533902795661644	-0.00038628781710793266	-0.0007144848202102854	0.005015815260931228	0.0009399867032366021	-0.00017149724167800058	-0.0014217857512171226	0.0006975281941922849	0.005826846622874729	-0.004437232504353111	-0.0002701643998161839	-0.0004171236512769507	0.0005817020408655847
978	0.0028332245785099987	-0.0023457898463716638	0.002985843216886771	0.005470150236261757	-0.005109508485148423	0.005407141310970128	-0.004957241820739539	0.005403455341720838	-0.00645003890200114	-0.0075390372174912795	-0.010028675401207901	0.033349994689365045	-0.0009269889031594284	-0.0005029431205457327	-0.00021816516868496496	-0.0006134149467211524	0.00881875852415675	0.008289805685208818	0.002574548028824117	0.00510239013443563	0.0038943036579013337	0.004134365161330102	-0.010547270949606441	-0.003094031395381722	0.01332178482810349	-0.006935559514691817	-0.003997028972743513	-0.012118710009248293	-0.007499036316780945	-0.021150746878328297	0.06718020651077884	0.03142540407942704	-0.14593842777955257	0.19869909089139437	0.00011911279433789602	0.012941199784233078	0.020539615185718795	0.020751615263586733	-0.009954440001272232	-0.013980831961599268	0.02208894556324566	0.004171080833851558	-0.009843566113395284	0.012390005346727968	0.003113264673388564	0.007831227411310013	-0.0026056074258370677	0.0008312428077561179	0.014396825313487151	0.0009196116422020935	0.002204430999143107	-0.004293385146566875	0.0005877648466354169	0.0011224451232541336	0.00048122311933095194	-0.00012689529262666224	0.005133539082601087	-0.0010118468491560927	0.00662285695684252	0.0014709804713983834	-0.0030804008320413486	0.0019306839740721791	-0.006876517806342408	-0.00014758592982461836	-0.0012323370898809141	-0.001395367531619956	-0.001555645439556033	-0.011738907588868914	0.001918742356649358	-0.16322640944006359	0.05299487591045882	-0.03691688663275575	-0.000798363519637496	-0.004589074591654	-0.0025214461029012193	0.0012996038470145964	0.0006107430862897219	0.0008546066166843574	0.0002280417140849123	0.0006354370406207706	-0.0017151226187817094	0.002603206826765037	0.0004237013795138424	0.0021526720244429308	0.00408143120325519	-4.3523687645336055e-05	-0.0055244554974332154	-0.0007419778542199644	-0.0021046404427101564	0.0035483636219862907	-0.021171539359780278	0.0097055173478719	0.015273175607608595	0.07126842833694076	-0.02074429866536155	0.015696095901679974	-0.024819236889540894	0.014954216013084054	-0.014197214853557866	0.018304830871140747
personnalité	0.00283322457851049	-0.002343117745468349	0.003239018164249454	0.0054965631381397205	-0.006193296756876302	-0.004981858070111325	-0.0037932734803696	0.004385782553731288	-0.005252590746502665	-0.005062872926832208	-0.002572927595377193	-0.0026597094884073568	-0.0013259877867218524	-0.0022178207961207896	-0.0018070058809675357	0.0005284509832241299	0.007163040901465375	0.0026722012235388	0.001999585925586773	0.0005385310742144294	0.0032211766103912884	0.0030314136809775987	-0.0063040582511429575	0.005003317120135817	0.0026561582240313742	-0.002511581290350485	-0.0011210060201522175	-0.002737036204029499	-0.0023383631930504827	-0.00535901883143618	0.011468514068363047	0.004165837241724039	-0.008814913379427407	-0.011307287844708486	-0.00010472820923660862	-0.0037815162299771835	-0.00879298131362244	-0.013931047955911827	0.00829232433458497	0.0238865870992647	-0.009529013194691726	-0.0035570958391344235	0.014026638640479022	-0.03481144350439091	-0.003333577964509823	-0.03675079892200839	0.017075923019823493	-0.004851101318126704	-0.1447106009404061	-0.1625076226731369	0.11463073131817522	-0.058354519340773105	0.0063842929320125094	0.017735863881584914	0.012635299966947452	-0.027121488944741288	0.028290443186073433	-0.005367801249279527	0.016180053019098514	0.006193573449963077	-0.02145257405660691	0.012313165409758998	-0.021457247028275287	-0.004070284525255664	-0.009662085115118102	0.005447550012676097	-0.002402655941689865	-0.017840659762435093	-0.009990212218915648	-0.012124442573953741	-0.0004907677668045485	0.007174726541982411	0.0006933996108790397	0.0005260141704217442	0.009009155207911804	-0.004770613450020974	-0.00939038934223506	-0.0050586987870683536	0.018816924451886055	0.01682554411470428	-0.010710808527919646	-0.0003651914653379864	0.0003908789037067874	-0.0002676044414817428	0.0052582885552161646	0.00448932838745088	-0.0009869286532616147	-0.00031072268041663	-0.001517580704156844	0.000604814301492621	-0.0042463000745538255	0.004680640629785534	-0.0017281511943595838	0.0106044930754207	-0.0016424533668551863	0.0006797383881780789	0.012671181702745319	-0.040308648056496685	-0.020252759742243873	0.002095902149367413
série	0.0028332245785129767	-0.0023489253358505244	0.0032538522858548274	0.0057815594869772904	-0.005388744511465184	0.006348175187303871	-0.006414765729493427	0.007909160392143988	-0.0101170931175688	-0.003169286372284124	-0.00497089155199607	-0.012024105425690832	0.004708301449848393	-0.02605947807293152	-0.026354502531779775	0.020594539356187304	-0.01473010320784636	-0.09789088377985436	-0.007284315031333496	-0.004237165601716623	-0.00654314916419705	-0.005575575248090797	0.003144745117276665	0.00726201556453708	-0.010945037046421522	0.0037346548146691763	0.0012969338090513469	0.00386646373321659	0.0019488379212674407	0.005132214642175349	-0.007681351779878186	0.0005805654925421476	0.001993749737811905	0.0018934609661551945	0.000250483467408703	0.0007250362125821544	-0.0018136939707364599	-0.008418819007809523	0.0035921079969383094	0.037249795065575624	0.0509856290594776	0.001830093752235083	-0.01764863172888088	0.007078032028342188	0.012230287370964876	-0.0010957192508769982	-0.0016977466993674051	0.002986446868816051	0.012066381419052419	0.004746879644452218	-0.00124633422211895	0.0003712943630931652	0.0031792893939546155	0.012626919068121552	-0.009046448278754532	0.0009739808602713526	0.006438620321091559	0.0005621590130169291	0.0056581819108931	-0.009572508145128564	-0.008868258672082303	0.027882215311222848	-0.05434018963455607	0.07909963401075687	0.05452854948671737	-0.0168453006667787	0.025278405800395257	-0.009137837137035375	-0.1163866564300844	0.007732421096347537	0.024012495336835162	0.02530103752979371	0.029157214615236272	-0.11428758062328556	-0.029561379012383853	0.0062435664570893844	0.020861755664119297	0.0034631878982987726	0.011663666651503892	-0.02676488568188639	0.0052338870266227695	0.0048733607182967955	1.1585569083148815e-05	0.0014220182166897813	-0.014636207448034576	0.10497721367594007	0.04624623849263398	-0.0034753948834836566	-0.0036942072311725214	0.004419248936964002	0.03392047853274863	0.013651458521588292	0.032437728458168356	0.0023013510110956453	4.410392205306951e-05	0.048070201254403436	0.00635973387807405	-0.0026040722525742244	0.007586206905915126	-0.00279647113675488
États-Unis	0.002833224578497909	-0.002342132056659186	0.0032370501009333303	0.005411878925773293	-0.0047718842916830454	0.005173183918294896	-0.004336545073590236	0.004981037698988573	-0.005885878550740785	-0.00647600831903016	-0.004586121730752437	-0.002958814728910542	-0.0026803769221823088	-0.0013908650884060813	-0.0002895785765659573	-0.0013134975601198176	0.014501468794051422	0.012911256198812157	0.004336627503572741	0.008407062532757631	0.012418909008332398	0.013786795972387933	-0.03679149778348485	-0.05392959327748299	-0.03396576342390075	0.05336665518661456	-0.006489873660019483	0.012426667734935141	0.006741278488254373	0.012307857429490391	-0.011412063071383479	0.0014054572565521872	0.0026526412106409936	0.0013098458644900043	-2.190684789147752e-05	0.00013246021343398806	-0.00020659577297775045	-0.000991249186859472	0.0007275350475561058	0.0020052229244762803	-0.0038893117411894955	-0.00030883280517115153	0.010324822167985514	0.004927858695693045	0.0013240586852431152	0.0066616119250470975	-0.003054423969917948	-0.0005276739501228281	-0.00028786262301790187	-0.0007547021818815807	0.00042347592449434586	-0.0005512950960156047	0.0009106025839976495	0.006074784519064731	-0.010091956023046123	-0.002980141466064014	-0.004132582133103747	-0.0035978021556059684	-0.004722200091775667	-0.0036454738907967677	0.005343143503756096	-0.003053413945681864	0.011936232072165546	0.0016280027213702842	0.006716855630508632	-0.003990214563241355	0.0015947996649970935	0.03318885962033517	-0.0016921721180408497	0.008024819970276532	0.0007360178186334242	-0.052777779361983274	-0.009902422465428388	-0.036433159330707565	0.056290137354794004	-0.01023450845668834	-0.022780008215344004	-0.0021109826675879224	-0.0019491278495591445	-0.003850495265105589	0.007476305578104838	-0.0029086846577373975	0.003218852859932214	-0.10812428350225567	-0.0064157261234351805	0.003188008922787554	-3.1524813230739807e-06	0.001324939914573522	-0.0013833275849378492	-0.003289480234569089	0.01500573385701459	-0.000506523969940123	-0.013635985754526129	-0.010669646870279362	0.01740454952733593	-0.0010831900061993062	-0.16487691124404397	-0.075562479631046	0.03230858107922581	-0.012149483512714235
BelgiqueOutremeusehttps://www.liege.be/fr/decouvrir/plein-air/au-fil-de-leau/ile-monsinhttps://rycm.be/	0.0028332245785049307	-0.0023419253761926932	0.0030627921994343553	0.00530359967992638	-0.004669418686208063	0.0048826448254709574	-0.004348847717567417	0.004529261007661076	-0.005262423599292596	-0.005721050559410478	-0.0049593035007853585	0.0038326043775344493	-0.0016265382642497023	-0.0008768232813017463	-0.00015479230568300317	-0.0008240336756483915	0.008558722926128507	0.00695380976470864	0.0019715932062033628	0.004049516268974658	0.0010760762200081946	0.0021666694564250488	-0.005700227709354597	-0.0013467781213399753	0.007395510693045476	-0.003551253646674638	-0.0018955907351896374	-0.0054356259734468825	-0.00339254737686667	-0.009026458223778178	0.022622196060755988	0.009005949356708594	-0.03829998092575768	0.03696486856172802	-1.2552776302053549e-05	0.0005965566977045994	8.029519759045472e-05	-0.0011520958726790854	0.0013186240127845213	0.0024145350977174736	-0.007138347478575666	-0.0023579638408973195	0.00544142873641775	-0.008971259359777925	-0.003063529110039243	-0.006877410533597748	0.0032606736990880444	-0.000657598067607021	-0.01384819875046002	0.010175870123096524	-0.014592615184187635	0.019791842506153786	0.001969429370056581	0.00886632493425169	-0.00025994139850519116	0.0005557972212616184	-0.002054905442647692	0.001502446347390744	-0.013844155612745867	0.003409693428465922	-0.001992410788871344	-0.0007495857162702312	0.004455275967469207	-0.000512765913169279	0.005312051516677337	-0.005718596976448121	0.003158717863402263	0.02065567188617827	-0.003629174222558098	-0.15083692915203553	0.04214466898692156	-0.03536698418035438	-0.0002557852874033634	-0.00705667392623951	-0.01297373708327942	0.0031168053544829892	0.00899813461188661	0.001483990330463268	0.003400947746276036	0.0028554350011799207	-0.003368430640782766	0.003996504295709359	-0.0019574315560097907	0.007903220768801426	-0.011551592794552801	-0.0006769958453834274	0.016409838820288902	0.0021070165869268758	0.006279412015310455	-0.011504691407364147	0.05950127152827825	-0.02630720301259429	-0.04297416510408233	-0.1949063278717651	0.05757888821978678	-0.04295362998305713	0.06472129871074297	-0.03833742727959285	0.03723761086240361	-0.06215440011928412
dramatique	0.0028332245785194317	-0.0023512306121994215	0.0032594767212662428	0.005912661009869908	-0.005665683985009392	0.006779306576141161	-0.0069825133690304825	0.008834256963785883	-0.01145066766137378	-0.003290505559126529	-0.006053417293943146	-0.015237454177346177	0.006245384238663491	-0.03471658430196496	-0.035250535902155204	0.027680598701870326	-0.020394581817064997	-0.14514843516724196	-0.012161128222963	-0.00711590274260937	-0.014158670985312018	-0.014598919803573106	0.01277535096821569	-0.01992964866129028	-0.0004635166337462939	0.0017512234045684062	0.0013386806353453476	0.0036110587726246417	0.0017299421343239738	0.005145746920587075	-0.008849568089660398	-0.0003085783041062431	0.0037777879546703062	0.0044481099446588195	0.00021953239542817776	0.0014119395900269935	-0.0002785023059114697	-0.006278696355063016	0.002586036768609282	0.03477170055489584	0.052985554442137234	0.002676650042695577	-0.019461543176915688	0.010030682703834668	0.014261191699692869	0.0003176631510906115	-0.001903247398747659	0.0032288280682440246	0.015213963811864607	0.004268530977546654	-0.0001431644681643327	-5.4412163091585586e-05	0.004224068082621268	0.015158515358157978	-0.007700404429771474	0.0029672218147674956	0.012368268266532131	-0.004428171908133845	0.009280888094669381	-0.007285012577041693	-0.010611528757938749	0.03977976900441751	-0.07984654743459424	0.10880407842588548	0.0734305079847937	-0.021253513868986898	0.03732462545818237	-0.03143510675779915	-0.2111019935019975	0.01182105917035429	0.051987625316125344	0.0657639541324033	0.05914206129406896	-0.2281806923446809	-0.041495248312953176	0.006404764936809996	0.02891016152324732	0.002165288727122936	0.03188825457156955	-0.056630014499851666	0.020528004945210745	0.004511218417385679	-0.0007064894372656803	0.001097870643716335	-0.02075339236029253	-0.041159143709378704	-0.010843073069890644	0.00174511161915538	0.00043386246381397	-0.0042808058932287535	0.015398643773419766	-0.000362555691205157	-0.0022728499239652207	-0.0056409432448379475	0.0021193651724975976	0.032468333005118255	-0.0004459532125695026	0.0026935258771002696	-0.000233447417621567	0.0007337009168417578
inadapté	0.002833224578497116	-0.002343163272234977	0.0032411749718598056	0.005475782708168205	-0.005220724487598301	0.005449370985660193	-0.004925627654788361	0.005324414982831966	-0.006325122038657921	-0.0074000795726355435	-0.006388062293665864	-0.003521316758317408	0.0003657305400871745	-0.0012493496925742378	0.0006742795500537767	-0.0021914148469837904	0.0163436330863952	0.013759995051926181	0.0035198122940802846	0.00949908906502333	0.009828097089252414	0.00985297249534574	-0.02792312457320181	-0.003971122180178631	0.059204483694286165	-0.04149082212433126	0.02873764714550688	-0.2662910038054636	0.36885754119970166	0.10777023592188635	-0.048565480906212904	-0.009510607129017561	0.024596544429883474	0.024482877258044523	-0.0006322166104778867	0.004430375826124532	0.007994069934305265	0.008336396999402803	-0.005206962407438599	-0.008033117348956273	0.008462020951881543	0.002693435408684731	-0.004533977680853913	0.007072203780951315	0.001226662611753639	0.004641812261136962	-0.00015844443570194847	0.00018390682903590867	0.004911098795620107	-0.0026163521215567392	0.003718955381502409	-0.00025656859971055486	0.0020343949923582634	0.004769535420881082	0.0029902162589773695	0.0034412866161482817	0.021584949121747708	0.002789098498215249	-0.0027269789981359	0.0010595361140090694	-0.0013717622360348153	-0.004187626118437225	-0.0021633627174710637	0.00505586953385951	-0.0015265059514681135	0.0004957938939949341	0.003533799891988869	-0.004532975689203231	0.000732601394804867	-0.0005353268086651028	0.0002603276861822372	0.003160541329733542	-0.00041820039697428545	0.001224862541968963	0.006343954103785607	0.009072298860757931	0.0017993693665641144	-6.940229704386833e-05	-5.828117296492047e-05	0.0002826113714796477	0.00020527221167320267	-2.6785968364138532e-05	-0.00012617349442272188	0.00022773550734966723	0.0008256479564758851	0.0001018466900254561	-0.0013165266888164875	5.972526087888371e-05	-0.0003222531391622301	0.00040486547592144453	-0.0007654328920395463	0.0012805020848412826	0.00011617645077319737	0.0018321566735577388	0.00012801423165927778	-0.0002644971176467559	6.883282477887498e-05	-0.0006483959941751966	0.0002944819853113907	0.00014445888655296654
MonsaintLe	0.002833224578547325	-0.002350520099828772	0.0031994405441701274	0.005884231821967025	-0.006418974799692657	0.006996284919409623	-0.00691766168548018	0.008673020737638273	-0.011209549239572549	-0.016492575037075866	-0.05687247113686457	0.40264806283838117	0.01653801356067368	0.009840700067230874	-0.0006663617311074965	0.007085912165130603	-0.038571000112942205	-0.020491703777341507	-0.0035356486851858045	-0.0066703406569788085	-0.005079359187804666	-0.004474721425036141	0.009320208021971754	0.002477058667830722	-0.010290490456860302	0.004216383539531401	0.002495489886432386	0.006342086704039278	0.003370737111611527	0.009640051153623737	-0.023387418042620022	-0.009508166276903714	0.04117615741299466	-0.04506479013248553	-0.00010968332003702744	-0.0020882379997969147	-0.0030308112804915436	-0.0028795143373801938	0.0010198221253319526	0.0015085518534288364	-0.002140256523341982	-0.00017515737611226162	0.0006455791235464351	-0.0005389950725471267	-0.00020255501641093174	-0.000294153561637459	0.0004057269588120624	-0.00016282304512069048	-0.001000301076769709	0.00012976573424893856	-0.00013572477906278958	0.0012616026837730717	0.0003167440521546095	0.0009458044756344005	0.0004363414491973984	0.0003720146785339447	0.0006695067623795131	-0.0001678134113725512	-9.350338932781238e-05	0.00043406157557344645	-0.0005514969434330273	0.00028042747515574437	-0.0007157697483339081	-4.879924278076986e-06	-1.4976266022202409e-05	-0.00029531591606656694	-0.0001217673837133424	-0.000619499326864289	3.71447543713573e-05	-0.007710291105200735	0.0023885387959476367	-0.0010919719138820089	-0.00010624037819092477	-0.00021855140177778117	0.0001125667041090826	0.00019981576793292384	-0.00011166471492410476	9.313664880676792e-05	-3.493202425016925e-05	0.00012957479377727517	-6.607841122506768e-06	0.00016946060393843113	-0.00010170612801622167	0.0004818759604620648	0.00013234146465626075	3.580270904772259e-05	6.016223388918742e-05	7.76171274582155e-05	4.999878543071948e-06	-0.00018095727528243816	0.0013005069920822804	-0.00017651019052775671	-0.0012328073092520413	-0.004958728525090512	0.001887305031477128	-0.0016530351372230096	0.0022992599971311603	-0.0018879587214090526	0.0019264169152876168	-0.0032863817607967525
Street	0.002833224578509123	-0.0023399351207592186	0.0032317915951867557	0.005288083605815917	-0.004588400371841371	0.004797208622561428	-0.00428312724686558	0.004411837532185303	-0.005111850390541822	-0.005401237581463051	-0.004012412464347965	-0.002209767746013337	-0.0018049484693365464	-0.0009072431898576715	-0.00019998861316543586	-0.0008249272732148269	0.008642182295271065	0.006774570175211634	0.001891617710059846	0.003028760279858677	0.003274174983295415	0.002684012514222263	-0.006423271545100052	-0.001549977908602393	0.008922397850533264	-0.006002455304107332	0.00532859047048287	0.0017113442660295053	-0.0017192999939298305	-0.00257043476816624	0.007550102805171575	0.0020312175478812713	-0.005873679688148605	-0.009211246108615621	-9.950342235421315e-06	-0.0027151414570963602	-0.005363418342677769	-0.0069562057290841845	0.004178394674525705	0.006508421137806572	-0.01402356441488541	-0.0029832738306632784	0.009444141067900317	-0.012929964648490241	-0.0038254394559500684	-0.008401538654067727	0.002007209654437024	-0.0017330151636178693	-0.014289499093802997	0.005744199376058188	-0.007921718478945216	0.006128663049928345	-0.0053989270695780234	-0.015931965514561535	-0.004758895698032273	-0.014170877717121317	-0.07599605811309319	-0.009001260006513252	-0.009280886139615195	-0.010444197383643388	0.025628057405234838	-0.022832313497937136	0.11033451759565861	0.24479242275060578	-0.16414166048936094	0.05343177745077621	-0.0108262347418573	-0.04237260481497331	0.001914834445669705	-0.010510118326435175	-0.0010387834989115598	0.025409540184894802	-2.392234233156913e-05	0.00684684997351028	0.00944296348249377	-0.016560628486779704	-0.014873737607229556	-0.0010841351234764196	-0.001432748184676087	0.005031416120775274	0.012345056122276755	-0.006965389443970788	0.00011564037157576042	2.4976073768622354e-05	0.00439076518804318	0.0002413873439978155	-0.00415066243804812	-0.0003458581769634859	-0.0004046168868669113	0.0017869981349413059	-0.0046778839887081205	0.0016182891425280902	0.0012751501166954895	0.0019578510540493427	0.00023747501946519374	0.0002715406062460575	-0.004648800302495654	0.008117945760889214	-0.03452685534175882	-0.009287196289176292
joyau	0.00283322457852543	-0.002344516192343662	0.003242919300715905	0.005417535842528235	-0.005208869253630706	0.005551682209597531	-0.005133061851031552	0.005292522047377814	-0.006561266185070045	-0.007506367658052707	-0.006557458616902951	-0.0037281607286796547	-0.0034002497785550843	-0.001873748822169995	-0.0002582046081914971	-0.0017419348892160503	0.017960692652510577	0.01538123839199242	0.006237567775080869	0.00915565298190356	0.010697448582709653	0.008978234466317318	-0.023654834732216204	-0.0050732051770250326	0.04133993480157001	-0.02405117964199976	-0.02143124526842562	-0.07684456425061102	-0.0674726825539976	-0.11916175440570242	-0.15932384591553553	-0.022578070726277655	0.05217254021279187	0.05027277935332936	-0.00019335521219923847	0.009745581998834024	0.019180318233766508	0.020037402725888304	-0.010707713445768333	-0.017298657232288517	0.042355529517756486	0.041679667343937396	0.026075810731090932	-0.003853504861130042	-0.000114642365136791	0.0007722492217143197	0.0001688614363827806	0.0005160630110554351	0.005890061096749622	-0.017629250149230603	-0.01342730074378889	0.002272840118952984	-0.0025384668277749697	0.0028652381305431223	0.0012356289995036787	0.001885570219228306	0.0045674091788664925	-0.0009492092473248969	0.0037228931936757054	0.0022261312615343217	-0.004658308131547521	0.0025719777765879077	-0.008540519505683446	-0.0007567108154292567	-0.003930680045376919	0.0023786645027261025	-0.0016481638509474755	-0.015003643874183781	-0.000641318536843267	-0.0004313538137867118	0.00990776349446306	0.01842094082773837	-0.021300443970480604	0.005895634091476151	0.027385613082517524	-0.004785735103367472	-0.030818346850383642	0.27250693488728256	0.033972242492721356	-0.0044905658296553845	-0.016263367498543856	0.00367927756476846	0.00012854775737144574	-0.00019245538706831795	-0.004917246581361398	-0.000802882822229094	0.003093405487897678	-0.0016464189320964068	0.004111978029848482	-0.0033543932320094904	0.0015749725474002727	-0.0013828732829259116	-0.00032787450615544343	-0.002219080303236921	-0.0017837475955250824	0.0007316822112000598	0.0003986945895109893	0.0002370042174600655	-0.00020184847048179363	0.00032660423676594147
acteur	0.0028332245786185993	-0.002400174881925253	0.003380198455497631	-0.09598477584602325	-0.0011555488173681208	0.0018878433233414861	-0.0023330006375565744	0.005530493021232801	-0.005128617598278417	-0.0021827597282159336	-0.004193294364368437	-0.008420412321278863	0.0021648742436093864	-0.025861915109119536	-0.0292564836608016	0.024049127992224174	-0.06697475410770236	0.015920466706609758	-0.00015012380927381257	-0.0015537257544549056	-0.0014606720120645372	-0.0007674628882442767	0.000989359232095529	0.006697735454927065	-0.006611214504375958	0.0022724226233799506	0.0008428588308731376	0.0020909659905874478	0.0011295543820141944	0.003977716980426062	-0.003243588477005373	-0.0001290684256726217	0.0012223486421560604	0.0016937833237008237	0.00011953160887801808	0.0010320048436487238	-0.0004326609069553512	-0.0022566509875052345	0.0008727438895347168	0.011272892885679096	0.01725537161123277	0.0018095009108349855	-0.004712667869349249	0.002312148626371407	0.003882946350456551	-0.00014712235769651257	-0.0005088339433190823	0.0009409783170964551	0.00431050857554689	-0.0019495788534748919	-0.003241947498204909	0.000636292612076437	0.0020265613266587305	0.002583374502768036	-0.0021038338768404356	0.00030702945222490976	0.0017020509055208275	-0.0006251030252663282	0.0011517229209305248	-0.001578156048968814	-0.0010967590944958175	0.005674617964523947	-0.009958054215722007	0.01141883445399881	0.007324574039785888	-0.00207984217975092	0.0015928858631447833	0.0013534196941252042	0.00264868789677252	8.692915648217912e-05	-0.0011632449010360734	-0.0036327715488669275	-0.0036374936217200907	0.014021007178925238	0.003127284901271248	-0.0010401733746160909	-0.001165313997955815	-0.0001529973719438881	-0.003863089146092651	0.008077153021928522	-0.0037552538934182483	0.00012462091555402624	1.1255388301132228e-05	4.5088636361104395e-06	0.004104426081126954	0.0040210414451214	0.006445026708002306	0.11966806569966855	0.00011716075909550677	0.003059868218082532	-0.012843117587428277	-0.0010928991039300447	0.00023402241156095759	0.0030476415202851347	-0.0016621897603112485	-0.021064911334341227	0.0006405227143567458	-0.0016198889393389591	-0.0002982472066848027	-0.0009021174242536249
