	0	1	2	3	4	5	6	7	8	9	10	11	12	13	14	15	16	17	18	19	20	21	22	23	24	25	26	27	28	29	30	31	32	33	34	35	36	37	38	39	40	41	42	43	44	45	46	47	48	49	50	51	52	53	54	55	56	57	58	59	60	61	62	63	64	65	66	67	68	69	70	71	72	73	74	75	76	77	78	79	80	81	82	83	84	85	86	87	88	89	90	91	92	93	94	95	96	97	98	99
arrestation	0.000506412452375966	0.022155156144774257	0.01398952353509538	-0.01635634055921693	0.00696954146404724	0.0011495194256575904	0.006626758872354727	0.0025369456799950443	-0.008947753657640275	0.03007445033623788	-0.03271461592797336	0.0004397293176312108	-0.05321898962066093	-0.2657616963355856	0.018254263524709765	0.003940052177689803	-0.0058502871161075585	0.006131125527025409	-0.003207750933155353	-0.00018496005764169048	0.0043561235101708205	0.003222699854818317	0.0029847963594358314	-0.0004038553671536302	0.0006463883488460857	-0.0007389444921468044	0.001333620356222122	0.0035926172538451803	-0.0020946847059710285	0.0021986130204397604	0.002852740508685545	-0.0026868931497014293	0.005066205981245947	-0.0025132934576072583	0.0010868961130231754	0.0015152937205056166	0.0010957442233069964	-0.0001440412377929056	0.005102920701155194	-0.0012461541551885896	-0.00509235365393155	0.0041976004057118835	0.004613827083236256	-0.006525585170848587	-0.001247332769852309	0.0009377983175497775	-0.0023499139203765626	-0.004454364017962407	0.0005385875617133064	-0.007258784707444008	0.002417627879472569	0.00011251022903426146	-0.019262408023000555	-0.023264496918617372	-0.007913468599296694	0.013826975142576917	-0.007285160932475943	0.012788051053255953	-0.011230697203116164	-0.00010210081226311937	9.502366905051596e-05	0.0014143184778813195	-0.0004366716824359127	0.0008641862796410519	-0.007659218161171983	-0.0011960198547829514	7.242726708751351e-05	0.0038625950962085666	0.0004930370682387897	0.0004959725317793211	0.0021404765157376016	-0.0011377257498491804	-0.00257550642089296	-0.001294279875953963	0.00031946718594365607	-5.513218373335692e-05	0.0012844316862230603	0.0034347564359680284	0.0019448835776841803	-0.0025186099881088497	0.012661793632675486	-0.001950480081247005	-0.002835061996757038	-0.0030752486749317442	-7.114748007320692e-05	0.009584578623807544	0.0008918781681824429	-0.0008251062080147567	-0.0024742102174069593	0.003207609216677473	0.0023939385639973865	-0.00018902140982954714	0.0008016410208438983	0.00012211434523336516	-0.0016190090665673352	-0.01750914647188779	-0.01172335359678208	0.014921121319478557	-0.0014098718511656066	-0.000264492895873542
Michel	0.0005064124532577065	0.022155156143269836	0.013989523535157256	-0.01635634055889535	0.006969541463010612	0.0011495194259632797	0.006626758873923268	0.0025369456807351584	-0.008947753658245588	0.004281872159603749	0.009369879516046502	-0.0042624656957417194	-0.003959599902719879	0.005620247532349187	-0.005228072878475553	-0.0034699976648384194	0.00534299865281465	-0.008036212182097354	0.0059881337043923046	0.00035882529098176354	-0.008091855404969244	-0.006158377134777393	-0.006621844827183488	-0.005353480109308153	-0.0014705424323854283	0.0016399832853328988	-0.001339018949409082	-0.00881040059343703	0.005306537995368248	-0.003956651419861741	-0.007952232171398326	0.0056955634421233135	-0.009504741820141943	-0.0029384522416906617	-0.0021909245657328836	-0.0018200395777204204	0.0006567975818026602	0.005372568256641818	-0.007240516920945956	0.004813335380691572	0.007955296769374806	-0.019983852461640576	-0.007568818757307642	0.015959132876181326	0.003136729801826758	-0.005645059667685081	-0.001563620696633699	-0.004944872501025998	0.0030552794675605373	0.014791825023452335	-0.00553142617304163	-0.0036597625566498707	0.01420137604619088	-0.0018900884244770488	-0.002031045193295709	0.012189995718589086	-0.012694987868948633	0.022873805012487786	0.0043225316694377024	0.0033266968434078636	-0.015399312528547423	0.003003959813103237	0.0058357464855270475	-0.009605502033152788	-0.020700083641759237	0.007321394579034819	0.004164281005972439	-0.05930491055356458	0.015433090459956049	0.01013703509343924	-0.028265956824956168	0.036897546940500035	0.04364737640351154	-0.005565486139019289	-0.29025088821438183	0.17884453589829608	-0.26609942060017994	0.2231828713082444	0.03731494123183663	-0.04938000185681796	0.02436967309858882	-0.015425022603328745	-0.06101891334519247	-0.07220714724326341	-0.003633262927512004	-0.012074927441496375	0.0027483536194866935	-0.00013270181449536508	0.004299185027320684	0.0035920177906290686	-0.002692205059445986	0.0012910473615179452	0.005092352934525081	-0.003005761564961453	-0.0020785106115930154	-0.029486137966589165	0.0040070118805245	0.03869273303454798	-0.003161647420503952	0.002333330284952329
Meuse	0.0005064124532960602	0.022155156143248738	0.013989523535093156	-0.01635634055895374	0.006969541462971364	0.0011495194259776415	0.006626758873980306	0.0025369456807595825	-0.008947753658309916	0.003971100164665665	0.009881155016162747	-0.004363426628983377	-0.003424783575717752	0.0061571925391998295	-0.005616349708964626	-0.004899445000904358	0.006643213680894599	0.0297124946632585	0.0003968177214649293	4.834347124327981e-06	-0.0010765648256881744	-0.003004773247343424	-0.005472525385196315	-0.004112439905041644	-0.0005265631712216582	0.0058932345494091	0.004941614244561196	-0.012674017269542787	0.010400711486416189	-0.0036072951919370235	-0.014648077368797176	0.010104164598675688	-0.014996904065338256	-0.0231524919975888	0.022732569454898797	-0.008923083539794822	0.026657345384679565	0.09014733704253604	0.12085374513080278	-0.01800844084425222	-0.01246376300376307	0.049380200873574816	-0.014611948316035671	-0.004300113188215018	-0.007202435489933649	0.022649479066242723	0.04192663775801178	-0.0029356553284195447	0.0012351189458521166	-0.003387794868945783	0.012108121983597796	0.0053785964796719266	-0.0135144859627016	0.0027906696033348395	0.002390821887405482	-0.029106615747971208	-0.007359266592288493	0.004641062653908025	0.00046244263894527904	-0.0015862626926504344	0.0020159650503780518	-0.0040378717599395455	-0.06581495148592147	-0.03070752962430949	-0.003321195033310571	0.003135807031220028	0.0016312447397311852	-0.04947664845166908	-0.16166474780202095	0.022780381792786162	0.03629490831698387	-0.013780263124266957	-0.03287303087570746	-0.014599127414000396	-0.00011215585318687235	0.002655651262234663	0.006131904656371545	0.004718120146874566	-0.025145804601311387	-0.006730530496540153	0.01014105781118992	-0.006656189969917297	-0.024926470124033054	-0.030185347211616108	-0.00026615427666020484	-0.025311301449575906	-0.016259027760399006	-0.04404087702454286	-0.012960025953372069	-0.012112662045805944	0.027571379742661335	-0.00451546367812078	-0.007086570068816488	0.0010860782484289633	-0.04009966754518779	0.031496868628296926	-0.012222863062721639	-0.005767615773332679	0.0011088179848250809	0.005257362786833074
  	0.0012475268775260838	0.01891823968235479	0.01683913288282146	-0.016738826842352453	0.006840621383256746	0.002599373845204594	0.006135899313339792	0.002605514228911765	-0.009240995893032844	0.004130676965599829	0.009289628298744402	-0.004192013238283325	-0.0038980100539337675	0.005629363570145485	-0.005221362841745878	-0.0036645832396026328	0.005443079914575991	-0.007467079245724577	0.0061681590731697995	0.000418699127834927	-0.009039059624693594	-0.007065368063314285	-0.009100935835339611	-0.008794428540086831	-0.0022939258008189477	0.0032477857937764807	0.0005049800038018049	-0.02561523980482824	0.01996771401195564	-0.01676016112728595	-0.08047272491143276	-0.1485134746326719	0.10645981864784859	0.014081821407507368	0.023453800134051926	0.015259996693639139	0.00028375414613271443	-0.0016060018461956961	-0.008364942391905144	-0.0008841237388762396	-0.0013668920375485942	0.00897119662562992	-0.0027975107826317906	-0.0002155623192588059	-0.019452206958998096	0.0037414565117659736	0.004715132014915054	5.708584850756121e-05	-0.0024277363137361024	-0.001730049022205438	0.006412514101330327	0.008931005014358876	-0.018911542340292704	0.028972043758573478	0.006173148476561653	0.014347811985474187	-0.003759290811470412	0.005733131300995283	0.0016782041226667231	1.560663644802373e-05	-0.0013577976931545067	0.00029279660849132623	0.0003205918839889549	-0.0009498827432884235	-0.0004134894192287207	0.0005653255900612889	0.00015842343199587281	-0.0019532863947251938	0.0004942040638312192	-0.000968525102420692	0.0011448230535604253	-0.00025936169587864946	-0.0010397345909805102	-0.0007764313024314401	-0.006629518197133038	0.0019953458157073727	0.0013990637544887428	-0.006183445483565777	-0.002380102993007907	0.002528499908405809	0.02646411297848579	0.23425994962851232	-0.02554721576786802	-0.014960624961411708	0.001054376334820985	-0.0005390003622266666	-0.0020631760034181606	0.0003500327104536473	0.0007173552041047485	0.0011079852312331656	-0.00021071520348187132	-0.00014039812120288808	0.0007019189772213433	0.00080174269115963	0.0009935389709318193	0.0037068621304729224	-0.00022353245905457064	-0.004605887276439647	0.0002880955609938041	0.00019529959272345012
lynchage	-0.04666333225092033	-0.06463899222408304	-0.08456792987639357	-0.09704054270872658	-0.17399182961955945	-0.04480207305868906	0.09651162528196199	0.11702230629951735	-0.22091058354183993	-0.0001499727591617872	-0.00031349931989959473	0.0001448087124630912	0.00013707742964193248	-0.00019003025999864143	0.0001792633731742023	0.00011127239551895086	-0.00018446139033172562	0.0003441550704211035	-0.00023328136500091416	-1.1585133642967127e-05	0.00028431894752777454	0.00022391855814478737	0.00018109016766684142	0.00021562831885992868	7.212498417479853e-05	-6.569892328393487e-05	0.00016821551943293914	0.0003084562074686676	-0.00014838042489380377	0.00019326209876832428	0.00031024038918292356	-0.0002615759599199161	0.0004811465567545921	6.503901339160361e-05	0.0002944812878413806	0.00011654806961364532	0.00011248626238916115	-9.205139402783185e-06	0.0007965860250290432	-0.0003766035532155507	-0.0006316321543543037	0.0013666436323622648	0.0011673480975650692	-0.001899235826965549	-3.072540679507842e-05	-0.00034290957004401413	-0.0020989977274633365	0.003932237684701184	0.002267865904277159	0.006520981788862674	0.0005298213807134323	0.0006744666829329054	-0.00014117166452219318	-1.3218978703467832e-05	-0.00040565708566217204	6.534275168635847e-05	-0.0001380218930100638	0.00020968933107707102	-6.716882671488345e-07	-0.0002859312756292153	-0.00013777088050113948	-0.0001459118267551655	6.897857179172045e-05	-0.0002136098071693676	2.695791302315814e-06	6.33864120521588e-05	-2.6275749975687186e-05	2.696325073992239e-05	-2.4968598566401192e-05	-6.408881561196611e-06	2.404813133725578e-05	-1.0602317629082939e-05	-2.105869437557745e-05	-6.760509109147387e-06	-1.0383711249531261e-05	1.199641158869654e-05	7.118289981918871e-06	4.732117360483224e-05	2.1589355597489198e-05	-1.0261029761567467e-05	-9.264678253510794e-06	-2.3060842815912207e-05	-0.00032763341798788207	0.00013767185639609446	-2.1772111123811522e-05	-1.3992347113240058e-05	1.2942304750255358e-05	-2.4486245017961428e-06	2.3139595397964584e-06	-2.099238152739047e-06	-1.4532309344662125e-06	7.507361399197374e-07	-0.0002131868155384629	-6.498249132692928e-06	-8.009800326594721e-06	-0.0002667075449751914	6.264584220606884e-05	0.00039611320058354285	-3.6818375986576385e-05	4.6442349532983015e-05
excès	-0.3701503264690723	-0.08497833842847777	0.020424267045679782	-0.02915615915810754	0.07900480314747037	-0.006090275071122482	0.0025289554152182914	0.022645925039277582	0.00026386783250587076	-1.9113460814068617e-12	2.2581242431485293e-12	-7.920487182788705e-13	-2.237571239405156e-12	3.7114755713218983e-13	1.4007892068512717e-13	6.069285699017435e-13	-2.1009062545207513e-13	2.9922245237123946e-13	-1.8264903478559802e-13	-4.199142119090671e-13	1.1261477861346236e-13	4.181230014999038e-13	3.3742973692962863e-14	2.7540610850890213e-13	2.8471821254816287e-13	4.9559488457529e-13	9.404651536704112e-14	-3.7599263980059305e-14	-9.89919951566165e-14	2.958397415930847e-14	7.387450026707931e-14	2.8156296738579556e-14	1.4791119717916246e-14	3.529294911874814e-15	-1.6418724019251485e-14	4.572297401805869e-14	-2.1714184270105186e-14	-7.877704565062427e-15	6.401129626354418e-15	2.259043646590797e-15	-2.146026412130908e-14	-1.023053169957322e-14	2.228685985761203e-14	3.128920733619367e-14	-2.7973283411864003e-14	-1.5337123931979946e-15	1.7277845820728999e-15	-1.7218865222545787e-14	5.227155513987114e-15	-2.2298135560205878e-14	9.564397884798126e-15	3.401632816570077e-14	7.983197436445266e-15	-1.5834555888716295e-14	1.833602714107485e-15	5.734995811579324e-15	1.987993103469421e-15	2.2690183065776637e-15	-7.461045670176247e-15	-3.366447745567491e-17	-1.1958614437243553e-14	-2.0706093090128164e-15	6.833509452741637e-15	-8.49450718098943e-15	-9.246076126956382e-16	6.241535066564552e-15	5.519673260123703e-16	3.4529670789318345e-15	4.475694988237411e-15	-3.2491370705045597e-15	3.7214155368392454e-15	-3.665470704738993e-15	-5.039805378581619e-15	-6.7326786507004854e-15	-7.438169004336803e-15	-3.242726725159739e-15	2.0779818837857178e-15	-1.0737938316296436e-15	-3.7816971776294395e-16	-1.8318679906315083e-15	-3.469446951953614e-16	1.5638532135930916e-15	-1.6757428777935957e-15	2.8731357570865868e-15	3.2867317808354946e-15	-2.411265631607762e-16	1.5872719805187785e-15	4.0462425077159025e-16	6.245004513516506e-17	5.767955557622884e-17	6.700369425960417e-16	2.9481896524768958e-15	7.177418381854039e-16	2.2159466102344982e-15	8.131516293641283e-17	-1.061650767297806e-15	-9.367506770274758e-16	-1.547373340571312e-15	2.747368305078268e-16	1.3049457348035531e-15
Malasomma	0.0005064124528320151	0.022155156131905357	0.013989523534832106	-0.01635634056028162	0.006969541450401385	0.0011495194246024499	0.006626758885317857	0.0025369456805337193	-0.008947753663970891	-0.12692316081526614	-0.06794054640850619	0.013987295894927336	0.0025581983845894066	-0.004440562590456748	-0.04359143501270236	-0.010814961637484983	-0.04130877311136725	0.0014884983667776581	-0.002849650928719755	-0.17583971440033755	-0.014081256225848724	-0.0002084939059957525	0.00016886720517173773	0.0005852177919788899	-0.010962537131637133	0.0002947385695275498	0.00023283698483698165	-0.000109888822667882	5.783588321302204e-05	8.438823479328715e-06	3.664728381232727e-05	9.980217606566505e-05	0.0003777089011545742	0.00013884455777991508	-2.949319862923232e-05	7.471110054976609e-05	-0.00010813705989978946	-0.00045499684574201943	-0.00019022359235036342	-0.0002108419325310407	-0.00011099174559898789	0.0023902758357754335	0.0009344003220773094	0.004248473569934724	0.0005446490860622428	-0.0009147565995186646	-0.0007717899487181617	-5.741224112764884e-05	0.0003602575445313611	0.00014305956926100385	-0.0007454785176827265	0.00017288782333813515	0.00083314609799999	-0.0002390084133021518	0.00017363716238939612	0.0005035265420771876	-0.0006029491587400595	0.0008001191980825158	0.00046047610352739025	0.00020638964027380318	-7.111834632493445e-05	0.00044513419665180695	6.78041953928836e-06	0.00026266371384330836	-0.00030541135039845093	-0.00018769532232079536	0.0002867667161402499	-0.002891483708151345	0.0002984188536654783	-0.001716503071237257	-0.017374885215206033	-0.010259544312149054	-0.012456444566614544	-0.0007494622614097745	-0.0005548179586574474	0.0002539636250838229	0.0005320903470274706	0.00036545227975581795	0.0008127291375847525	0.00015372983025872269	-3.10095876260184e-05	0.00010810109485898936	0.0005074509548696063	0.0006820328078845589	6.061527091478339e-05	0.0009150225757907811	-0.0010185175865118532	0.002144052637675671	0.0015408855504124976	-0.0004961386410574635	9.839625896943807e-05	-0.04316173792257696	0.001144413135516323	-0.0011028348706882813	-0.00040188048425064357	-0.0018110832703858038	0.00020258027468275566	0.002692648133766052	-0.0002053416971052361	0.00012488327895795773
sapone	0.0005064124532932423	0.022155156143230083	0.013989523535124889	-0.016356340558881622	0.006969541463003988	0.00114951942597524	0.006626758873908985	0.0025369456807485652	-0.008947753658228353	0.004223305160946933	0.009554469634386345	-0.004306843102061108	-0.004028292455244574	0.005835442782937517	-0.0053742040629294364	-0.0038822554755870323	0.005748001687819688	-0.007955079332650893	0.006289719911194383	0.0004965255199876129	-0.009940415371703449	-0.008104078806030245	-0.011091860481272888	-0.015020203246182402	-0.00025987651214582383	0.009817714496636577	0.04548235503154649	0.04636592048737376	-0.008561107171905096	-0.0020827435510256944	-0.019250518791951905	0.1525747901388632	0.1886447120020373	0.011702929040544307	-0.001068867234213663	0.003415443133627946	-0.00521913524324886	-0.01722210282162133	0.0055361668008443365	-0.013206836232265342	0.0006335659308900161	0.014677389036783372	0.003051362614082267	-0.009608544932855623	-0.003203547599432092	0.007298958081635594	0.007332604499998699	0.002396834098800622	-0.0005328236234382199	-0.01269869816727957	0.0008973199914014526	0.05778908455345495	0.01686166746843343	-0.0048686000816871265	0.0006143606895491604	-0.008650283055461817	0.09665891886767863	0.06426724883674098	0.006993686439811226	0.0013811776573449696	-0.005129407961925331	0.0011949663617837564	0.0011614830231019414	-0.002387840443831364	-0.0016062512017667192	0.0012877281975185151	0.0011195972850283394	-0.008689748665510985	0.0028409371984824267	-0.004430681634350316	0.0020229492796320584	-0.0011655049109345198	0.002015187435147912	0.00033844128019145444	0.0012621879083874806	0.0023446596662471293	-0.0005612299991762652	-0.0015348459211555377	-0.0006340599032913397	4.486086543984097e-05	-0.0024430145241270042	0.00048052117946039904	0.0013705393630308452	0.0015806516902888686	0.0008469888853721439	0.00036856804306020004	-0.003156410745859573	0.000603551892881365	0.0005203948529430443	0.0022737323774243163	0.0004283721889419619	-0.003267519394126388	0.0029094332059940347	0.2268433806029308	-0.00397967651812749	-0.006394517597683869	0.00042422503498486773	0.005061344816601691	4.4465826102885794e-05	-0.0005004373518955068
Tra	0.000506412453338393	0.02215515614333643	0.013989523535182551	-0.016356340558577757	0.0069695414627151	0.0011495194260694862	0.006626758873807011	0.002536945680933783	-0.008947753658281377	0.004357138749522073	0.009552740314028165	-0.004359701166743115	-0.0043049994573132605	0.006171866143949378	-0.005934112816194248	-0.004394630857735229	0.006958994962657514	-0.017369532924963405	0.019003435013124327	0.0014406175729080846	-0.03474233223169418	0.21833492544526586	0.016229210480548654	0.0019142555691652947	0.0003364453653366821	-0.0003052876396140135	0.00017443178982538203	0.0007777389720245438	-0.00029603438875042197	9.234073083884018e-05	-2.9983749091222348e-05	0.0001788182122912244	-0.0003694069184194187	-0.00019994328510834552	-0.00015591096575580876	-0.00014049543265516628	5.382467259248372e-05	0.0004473761496414164	-0.0006421809265322958	0.0004578044589404367	0.0007919884654377248	-0.002266359869007492	-0.0008829627415594208	0.0018932294286826993	0.00038328632239572106	-0.000695610530839712	-0.0001578580209159327	-0.0006425387517324235	0.0004180542481463888	0.001861061825831423	-0.0006996019233964958	-0.00045460866659032873	0.0016092229352132337	-0.0004270454465849227	-0.00034308767028889964	0.0016150567070493315	-0.0014848894734121182	0.0025741971003080955	0.0008976549612823015	0.00036222066300382476	-0.001834058739292557	0.0002575828788240112	0.0005529991802524901	-0.0013554196936873468	-0.0008077680240954773	0.000749851196527047	0.0005082249106355412	-0.005413825802345785	0.0012980010074847377	0.0005524834078246652	-0.0014402571519836443	0.0016796585526717752	0.001644744840582291	-0.00013095282331996542	-0.004204285437463927	0.001183608441150072	-0.00042768220261162255	-0.004770959678410944	-0.0015013090055257057	0.0004561373673227843	-0.0014034699699135705	0.001045685915070431	0.004592090854242647	0.0059876023680577395	0.0004063791355287921	0.0016053714671111158	-0.00042134910454471946	4.054228942912316e-05	-0.0007021163626161708	-0.0006270206529595196	0.0004807492669460538	-0.00025425950446753606	-0.0011015967845181	0.000745096498254697	0.0007782748149492719	0.01284697918028514	-0.002275347623570194	-0.019114484114964123	0.001801740420056523	-0.0017777554208973138
Giuseppe	0.0005064124530673954	0.022155156140728903	0.013989523534975616	-0.01635634055964236	0.0069695414595949395	0.0011495194253609193	0.006626758876262576	0.0025369456805420377	-0.008947753659502723	-0.027556299608790753	-0.008744428736294479	-0.00018167776432198804	-0.005521271450228744	0.010016200185538865	0.08475985396976982	0.0011040308094639262	0.0036112554586098695	-0.002359663435957473	0.0020808150652023927	-0.00011956647928957392	-0.003222471900242209	-0.0025841212929563497	-0.003565344636675177	-0.004567606657561543	0.0526139238952031	-0.001019302159341394	-0.001109409066962505	-0.0035711930428212104	0.0024511968861859043	-0.001464867169951364	-0.0038640792688316786	0.0014480505155085588	-0.006885410027473849	-0.003096419816955791	0.0005722884643361555	-0.001192462745531262	0.0024182709500048406	0.008273983574957192	-0.0008016936751082835	0.003575924199567547	0.006784470450245187	-0.07406329171053336	-0.021282603219674123	-0.11964468233909446	-0.012458343730606173	0.018696004479128232	0.012274252420340795	0.0020563057398233753	-0.004550262456029657	-0.00530643478342765	0.006727447355654817	0.003269780533275565	-0.006623292127145313	0.0017467743308896555	-0.000695210330349339	-0.004523366200453592	0.003215595899030606	-0.007041541180607212	-0.002821679800489853	-0.0010493066722541981	0.0015890351665287421	-0.001706879656644434	-0.0002329070601829447	-0.00014042321754239868	0.001302033662331851	0.0006468947302710427	-0.0007791501864515444	0.008087143291142098	0.00356715010342047	0.029335967224328793	0.059078421832724666	-0.06235683021256443	0.07955853344250109	0.004952920490630753	0.0010199413932393433	-0.000751600232931709	-0.0010081830809645425	0.001246042062723747	-0.0004260775129312461	-0.0004934136839784913	0.002366852975593665	-0.0008853174919509447	-0.003281342198132632	-0.004329475454574134	-0.00043741399459385584	0.003111205467969661	-0.004676380483469042	-0.000515793263073808	0.0063561141979074105	-0.014508386362930155	-0.007965665014607222	0.018410245002466314	-0.0007928580365846971	0.0012842469034925108	0.00032558699557635974	-0.00043141639777315817	4.075570559955205e-05	0.0006711245453730281	-0.00020837456068424843	0.0003103679191816418
Mike	0.0005064124532388477	0.022155156143264992	0.013989523535162411	-0.01635634055890406	0.006969541463011278	0.0011495194259612625	0.00662675887392161	0.002536945680721617	-0.008947753658239996	0.004384405313424662	0.0092376865571683	-0.004256798400071414	-0.004011388742900256	0.005750687768499296	-0.005325912274102435	-0.0034167921373769103	0.005537996496679137	-0.010223275425654967	0.003955544787456945	0.0003012564390402837	-0.007547354946580945	-0.006505443457248692	-0.0061857356854704915	-0.006986680036898661	-0.0022533128205468106	0.002226425200241618	-0.00444328223372401	-0.0121471975054636	0.006763793963958826	-0.007064587896963981	-0.013626991867359464	0.012088154150950414	-0.022160651171877255	0.0034980157668407174	-0.009686213074935071	-0.006002273111564419	-0.0020355507334225186	0.011894889599929258	-0.048060956069723555	0.03443928665628185	0.09992075256972054	0.07007719499691985	0.008937732320862878	-0.022441388472461358	-0.0018599609378506527	0.0020757980783122866	0.0009605902015262709	0.011419146811015336	0.03569294885727152	-0.024919553710167155	0.016463658720352263	0.012731890167928559	-0.011114600645644238	0.07429494068508949	-0.24355134482509694	-0.05297687137034738	-0.0034357535466954625	0.001233547220755216	0.02842830827637317	0.006899004211070294	0.03638133849893302	0.021036220276085038	-0.004425545271534811	0.014386830484478096	0.0012506007897792695	-0.001763521252449301	-0.11360086651442185	-0.011155913549512059	0.003676466767387709	-0.0007770119100895833	-0.0012478397443345412	-0.003745587998314195	-0.0003938609051962078	0.0034474894486264725	0.04537981595939639	-0.013241912307535476	-0.02139331027239277	0.021142656508572544	0.0063121172975523655	-0.003179884114721629	-0.003591241461304057	-0.005329125672799228	-0.029621397154000226	-0.040285438898931436	-0.0008922944345505945	-0.024082374049060853	-0.012052348282617073	0.002703499513760995	0.03729532744710156	0.07106175786225881	-0.06409073270158891	-0.0034222734047770712	-0.021726712270750462	0.0011085155274954354	0.0033953405919724226	0.017069272683034546	0.007393421268459101	-0.015241874693311782	0.0016934326634616107	0.038892187826330145
amor	0.0005064124530750819	0.02215515613958715	0.013989523534862566	-0.016356340560101247	0.006969541457875252	0.0011495194250705526	0.006626758877337456	0.002536945680447088	-0.008947753660071315	-0.042758083392501256	-0.01739798912607671	0.001735521572179251	-0.006661462158614073	0.012910033618101682	0.13927798403977404	0.003913560503404281	0.002993410267063917	1.4346525704700842e-05	0.00029621806749588865	0.0017728355961262971	-0.0005942094620149609	-0.0009350884384075307	-0.0021178590867200566	-0.009280629882420916	0.23059401522702758	-0.007693940530322413	-0.0061497536842072455	0.0068890601710012295	-0.004818661556962789	0.002058187991760591	0.0051582991682089015	-0.007140755336505506	-0.001843100871207262	0.0015470026121221939	-0.00048284346690072056	0.0005374595862535779	-0.0012221551565469312	-0.003830721117113854	-0.00035680304746635956	-0.0009876765427230174	-0.0025519596476270426	0.021968009605128003	0.005732456336341994	0.03144159946264108	0.0029061982420897072	-0.00384491165801614	-0.002032786038320905	-0.00042033598637108765	0.0008535072483289762	0.0008912983974266857	-0.0006869062403907071	-0.0015683919917855726	-0.00015960461636812476	5.106519809579095e-05	0.00028689570735834	-0.0005649607845785495	-0.002391130222355999	-0.0010494527422580616	-3.653169112284235e-05	-1.2609993134795594e-05	0.0012222681057527708	6.642619812460734e-05	-0.0004627793100106808	0.0017084007912862302	0.0003493065541678611	-0.002148158851838972	-0.0004930055506157952	0.0008298811914442831	-0.004124978247208227	-0.015536051209346396	-0.02355927008437834	0.030844472875758845	-0.0317843484878497	-0.0017431839907787873	-0.000264649207948599	0.00020070711340932214	0.0005760806510485263	0.0003028016402788173	0.0002865222571497403	5.1907013548229504e-05	0.0003003782560215257	-2.6816792973614258e-05	-2.5108269689521587e-05	-6.295119951848542e-05	-0.00011543296428444064	8.067037169063251e-05	6.512386827311014e-05	-4.853856987761811e-06	0.0003494050397759568	-0.0010627976238649578	-0.0005220671173947651	0.0003217206867315406	-0.00022214816934636788	-0.007329530855641597	5.627684770141819e-05	2.3463468677322255e-05	-0.00011670510232994046	-1.8255943178269e-05	8.031638578679659e-06	-0.00013972298883228225
Roberge	0.000506412453281789	0.02215515614324882	0.013989523535218786	-0.016356340558944714	0.0069695414630301395	0.0011495194259487915	0.006626758873987828	0.0025369456807529103	-0.008947753658261457	0.00423305605954562	0.009494984003490694	-0.004287595441243694	-0.003983505570824632	0.005723013009242217	-0.00531943780931147	-0.0037077702886548405	0.005520463674654813	-0.0075937112784383205	0.006164484876432182	0.00041205501656686543	-0.008943554903476031	-0.006928103437034745	-0.008602048321346369	-0.0074795952531125035	-0.0019730201356342883	0.0025792297419137944	-0.000935464874612433	-0.016111352454060906	0.011349167318361181	-0.00798197012012935	-0.01940826918324884	0.016767540041229444	-0.029763832226401225	-0.019542938271882075	-0.00960321565191424	-0.017698453520298044	0.008575738415831887	0.07763810060439905	-0.15979310208413333	-0.2253451168939252	-0.12777515893391053	0.08616608158504889	0.029631889652925472	-0.059280494833625116	-0.004021543137267201	0.010828471954634813	-0.03909996525790788	-0.12174351550880355	0.0033796580382434325	0.026752522901159558	0.02409272139883225	0.003013962296069655	0.007821631612235794	0.010333126744116263	-0.007009122399832993	-0.005201045502825856	0.0027328041411932404	-0.004701083923277175	0.0005715247390727621	-0.00633382753834251	0.0018940032679754738	-0.0025369048618509317	-2.5396487608310607e-05	-0.0019262221108682866	0.0022811161928470436	2.265444761318899e-05	-0.0019822411123293056	0.007389248762890527	-0.0018584292889091154	-0.0007660464611851474	0.001870310438073364	-0.0015421204474238945	-0.0018415046790641043	-0.00041822772313066317	-0.0004622737367452661	0.00035111129523796654	0.0007842538247086031	0.0011045566047747839	0.00041020199492726363	1.8826074001747464e-05	0.0007247088296495248	-0.00029760578239802977	-0.0022084045662974757	0.0001027271372212643	-0.0003744689470378318	-6.113957037092647e-05	0.0006007227153226628	-9.825681709054539e-05	-0.0004768218623925053	-0.0010378123610885863	0.0008521226670785975	0.00013328897523995077	0.0004411309300111625	-0.0003296591470112038	-0.0002940483521244731	-0.003065298212681744	8.63724025473014e-05	0.003991828525651333	-0.0002533900089333158	0.00014770450952993503
groupe	0.0005064124532564153	0.022155156143265416	0.01398952353516378	-0.01635634055889596	0.006969541463011824	0.0011495194259763387	0.006626758873921406	0.002536945680732219	-0.008947753658249256	0.004340809082814443	0.009281957202535185	-0.004255066529749348	-0.004068144371302915	0.005077412046002122	-0.005197287046750465	-0.003461625690762431	0.005360395504953238	-0.008044359541579083	0.006103007813995238	0.00035976285571454183	-0.008171670318009113	-0.0062755708935000685	-0.006667056454325092	-0.005783358670789302	-0.0016349974363719624	0.0018140851996036377	-0.0022825198601620477	-0.009248024568379604	0.005482230090736977	-0.004470897458398087	-0.009147533053284331	0.006497300744070417	-0.011452378236899288	-0.004372427983094826	-0.004876402484392536	-0.003938417350302849	-0.0011487141620771216	0.002014240385565033	-0.006847036111409649	0.0051090760353605675	0.008592096506630351	-0.024290081201183072	-0.012445278147107613	0.02357666751420806	-0.008374255111624294	-0.00638997967662769	0.0022283796290012954	-0.010525665153315718	0.0023563255586364503	0.03242431261638933	0.009020303812732671	0.001908522934275186	0.01430361001515085	-0.019706048788722962	0.0025265334728684684	0.016730246326428992	-0.03316494192695269	0.062394246077677164	0.05495006323681446	0.006006632817649894	-0.14164627124874032	0.06436214688937505	-0.07659549490904925	0.11706435282381551	0.04946103461175214	-0.04880222782191551	-0.015347477345392284	0.08724554856429437	-0.017647354545141387	-0.003183123761667066	0.010581544628132334	-0.01001363490574113	-0.00973241881495793	4.307999246151297e-05	0.015463554861618567	-0.004083368429528049	0.001592493408488908	0.01431937398417544	0.0037910737334735786	0.00040488429773044874	-0.0023139789043336717	-0.002277509573314989	-0.014813539338271585	-0.013914838682992191	0.03272481659134582	-0.0015982680288545571	0.002917201484545885	-0.0003321905596084452	0.0010651706389946474	-0.0011528685566944902	-0.001582189154872774	0.0005042841825642587	0.0008459547676543908	-0.0014707699191864303	-0.0014263984731636085	-0.012873869546767775	0.0008652190741521917	0.017167246337245756	-0.005932183432088745	0.0008425007900333758
traite	0.000506412453241412	0.022155156143254452	0.013989523535156116	-0.016356340558907598	0.006969541463039364	0.0011495194259776836	0.0066267588738942364	0.0025369456807106438	-0.008947753658240704	0.004903814678372611	0.008332617640670227	-0.004140244181940836	-0.004558946165102806	0.0025346433051389866	-0.005003753096410048	-0.0033083894418631313	0.005320859544152836	-0.00932477235722774	0.006571974076695864	0.00035720161317113374	-0.008447183431560614	-0.006646112680194399	-0.006457320101316812	-0.006398714839170603	-0.0021620016699740903	0.002237058409075511	-0.004880061302513104	-0.010988232007968857	0.006612247228311952	-0.006757783212390919	-0.01214708672696961	0.010846093516902423	-0.01978327776256648	-0.007379381897482436	-0.009942015235577141	-0.008366023773912701	-0.0006688137612215279	0.02379870104742416	-0.06866290493913409	-0.05995426332335041	-0.02241568915974584	-0.006838603936525195	-0.019560609727160658	0.032498671106134004	-0.003802160213718028	0.007466021973925208	0.07973633784898143	0.22411032978223738	-0.014508458300012309	-0.07126617813946065	-0.019592100903189955	-0.005001542341735728	-0.02390805579133292	-0.021664413293154862	0.021099405538319793	0.0033403793424943984	0.00027303798615949137	-0.00024531775961241105	-0.00568416359891836	0.0003789342529636848	0.005717044147366697	0.0008222610077907534	-0.0014480808045662446	0.007880525834659669	-0.001981592461373702	-0.002380615661268539	0.004394982196926871	0.0062046938408801145	-0.0012492416531633918	-0.00024068174512192024	0.0008609610079578812	-0.0015090319840240108	-0.0011092153602271183	0.0025108811092122265	0.007888770969809117	-0.0025318122894627407	-0.0006391296521119789	0.005849898645856021	0.0018616924768191459	-0.002171503241515457	0.0003587129003040507	-0.00110566559771193	-0.005493749068727164	-0.00760099032708939	-4.82442327950169e-05	-0.003974235583927086	-0.0013444195200900588	0.00021154415569248124	0.005140473074112381	0.009305435141971782	-0.00869434174487965	-0.0003807047760792951	-0.002796927248037421	-0.00011282233640091283	-0.00016124005402315162	0.0008904071047646633	0.001090483854571821	0.00011808621366465703	0.003329381936883212	-0.00011411658486438174
auprès	0.0005064124532689959	0.022155156143257953	0.013989523535132251	-0.016356340558911196	0.00696954146299494	0.0011495194259532238	0.006626758873941565	0.00253694568072922	-0.008947753658261089	0.004197943527617652	0.009521182676656609	-0.004282672933241901	-0.0039333809506385976	0.005718357607887886	-0.005260251165030851	-0.0037033791629141567	0.005400042819749807	-0.006696538434714239	0.005240296213909038	0.00038601066382513565	-0.00820339519661998	-0.006244291652168695	-0.008047158577180673	-0.005860214037363534	-0.0012900543428285283	0.0018099962511779568	0.0012067250792017873	-0.011497669375835988	0.008020107376942713	-0.004228208617583148	-0.01104605719274101	0.007645575558563881	-0.012151263351810345	-0.004996830234807771	0.0010403565378234707	-0.0025112815319351216	0.004487450916027766	0.015954133003448428	-0.005266853055722831	0.008504394315912689	0.02240497094935727	-0.021825595275728013	0.006896974680065268	0.012513131776365765	0.014243346170667885	-0.043824416761619495	-0.06708719316158487	-0.005412319691921392	0.2685623325292258	-0.09474404926582716	0.04800568733457656	0.02193038804153868	-0.041295371580843586	-0.0051981415358961355	0.05484182946198873	-0.013487598690231733	0.01961957250251544	-0.030543139357567247	-0.019728102806691	-0.005989716922491918	5.0257073875622284e-05	-0.010146307587915324	-0.0018501465320643756	0.0025909890730361467	0.006358012463042539	-0.006686649412275813	0.0019018831718816546	0.024590302950424813	-0.0056432643960098085	-0.0008906273644404333	0.006855291231197748	-0.004648844659597303	-0.006730228128640194	-0.001460189434944089	-0.005343263867912374	0.002566284695503824	0.002846300439333947	-7.312886088874484e-05	0.0001622868218542127	-0.0005513477453148814	-0.011070968116381356	0.0008971621075110647	-0.0014859677003722538	-0.003579459093145453	-0.0007173782166033886	-0.00027681817210298276	0.00118902091886587	-8.278076868164402e-05	-5.4566758595514346e-05	-0.002073092541811106	0.00014401788192312521	0.00026148457097894683	-0.0002812753754257559	-0.0007865576700852244	-0.0009998147300079884	-0.0035457260376759933	-0.0007625743057184647	0.004261166083663632	-0.000751554660370922	0.001209201603035378
évolue	0.0005064124532562595	0.022155156143271012	0.013989523535156825	-0.01635634055889678	0.006969541463005396	0.0011495194259666666	0.0066267588739277565	0.002536945680734412	-0.008947753658245594	0.004256946940969771	0.009405969158498983	-0.004266690141659981	-0.003932334305729798	0.005633165754734486	-0.005223628298924899	-0.0035357339059485186	0.0053593808411116365	-0.0069725456221660775	0.0057307720473338455	0.00035790846150353855	-0.007934720289235973	-0.006049773242312517	-0.006828105522253642	-0.005093281836686309	-0.0013542101647111197	0.0015546936492918041	-0.00044062863243658	-0.008733337998904592	0.005530290241553286	-0.003674960940867558	-0.008066350421453948	0.005587648814148415	-0.009115948562741975	-0.003833761454748421	-0.0006572631409475956	-0.0019997375035490294	0.001985914655904099	0.008600325744287136	-0.001194994573245154	0.003370623339635653	0.006222832998569312	-0.01746805592367065	-0.00488439545476513	0.012716451556572077	0.0037249214700330485	-0.011910698139971495	-0.018739267689603628	0.0005469196390862442	-0.00857301361589864	0.005410694302569513	0.0038925172413701416	5.2026403765224474e-05	0.004740353506713473	-0.002994483160344206	-0.0016426176385671183	0.0058175046682409515	-0.006815227396135946	0.012162790748575554	0.006286155942594418	0.0011132524662766632	-0.009427599654446374	0.0008378368518250866	0.003196111460648764	-0.007280337355717163	-0.003490043891735381	0.004144398508165873	0.0026218073029465124	-0.024649653437820888	0.008052533788279637	0.0023012863541735113	-0.007567457681491224	0.008120851079058501	0.008184803046305405	-7.959220501885505e-06	-0.019607832879456825	0.005605965498459779	-0.001850597049657439	-0.02244822103330503	-0.007856123316914912	0.0019450878036959807	-0.00873542163955481	0.004857661394817087	0.02071434282598572	0.02717715280370737	0.0024569567803563604	0.007592154655610519	-0.0027886553716686587	0.001330108438590917	-0.0030429973644003753	-0.0017438991415967818	0.0018959500619726176	-0.00133556751936849	-0.004361938659101509	0.003989201347036824	0.007254036842145052	0.05969131961745287	-0.00886397963001808	-0.09142260991081824	0.00842123077968798	-0.0036725190775673197
engendre	-0.3701503264690691	-0.08497833842847803	0.020424267045679793	-0.02915615915810698	0.07900480314746966	-0.0060902750711227605	0.0025289554152186033	0.02264592503927804	0.00026386783250576754	-1.9112324570191852e-12	2.2580192923782327e-12	-7.923290523030938e-13	-2.2379806341454866e-12	3.7114755713218983e-13	1.3890451289189087e-13	6.08102218753459e-13	-2.1011783892660452e-13	2.9992436485770657e-13	-1.83173788637081e-13	-4.1938824510640363e-13	1.1234112598512702e-13	4.1801414760178623e-13	3.3143464101687004e-14	2.7527178263599475e-13	2.8456880948879437e-13	4.938029423296603e-13	9.388632449605638e-14	-3.776997161211715e-14	-9.833025236063997e-14	3.029727076858668e-14	7.392296410418941e-14	2.8132552711002123e-14	1.5290069557694075e-14	3.243092643392953e-15	-1.659197952641467e-14	4.509934092844503e-14	-2.2828784761001752e-14	-8.27632165817209e-15	7.422068602075393e-15	2.584588901406726e-15	-2.0410376947582742e-14	-1.0279754478204062e-14	2.2552977280848596e-14	3.0419189302882677e-14	-2.7330988492356434e-14	-1.9738019134711224e-15	1.524920191205495e-15	-1.6072673790848424e-14	5.1262230679922915e-15	-2.256810190115477e-14	9.063008590132204e-15	3.329636710119356e-14	7.980378510796804e-15	-1.5608174475101322e-14	1.6104739070099683e-15	5.7033371081427475e-15	2.514481678428382e-15	2.1159289598227105e-15	-7.220352787884465e-15	5.62741585101445e-16	-1.2933878008316788e-14	-2.1409740300071256e-15	7.166603465183496e-15	-8.44631439442245e-15	-7.407269242420966e-16	6.04421027117219e-15	1.1050967812283735e-15	3.5501115935865357e-15	4.4122149510383846e-15	-3.0763694543189946e-15	3.490480474099833e-15	-3.7389796120335106e-15	-4.466262429336787e-15	-6.075760554391518e-15	-6.430267559739966e-15	-2.8104553189897685e-15	2.22814388467496e-15	-1.0421351281930669e-15	-4.462576141950336e-16	-1.9658753791507166e-15	-7.042977312465837e-16	1.7746221159242737e-15	-1.7156415177410622e-15	2.2854981795994433e-15	3.5447312403055764e-15	-7.511352650979575e-16	1.5202682862591743e-15	-1.341158087364569e-16	2.168404344971009e-18	-4.458239333260394e-16	5.00901403688303e-16	2.769594449614221e-15	9.625546887326308e-16	2.03426143118024e-15	-1.8648277366750676e-16	-1.672273430841642e-15	-1.0512424264419451e-15	-8.326672684688674e-17	2.5326962749261384e-16	1.1065367372387058e-15
1993)Roberto	0.0005064124532682695	0.022155156143269548	0.013989523535151838	-0.01635634055894007	0.0069695414629933825	0.0011495194259948742	0.006626758873912265	0.002536945680740246	-0.008947753658281467	0.004282226555145751	0.009443982425639444	-0.004290741585908622	-0.004036962186299769	0.005766794518288258	-0.0054025347670369405	-0.0037130630327314226	0.005695140909476497	-0.00895365410683091	0.005842509168973197	0.0004954951684307894	-0.009324470180100597	-0.007729042051897919	-0.009536224558310543	-0.013416816283160379	-0.00377222353629925	0.008856604090460176	0.038988621725740316	0.04684610625465673	-0.013021033160145593	0.0019221545421447095	0.0033893935987595178	-0.01373828969759224	-0.02753106322561718	-0.006398125910565685	-0.0024143591484139153	-0.00508903681631415	0.0019235653761582668	0.021171158401374283	-0.04374282848707329	0.14301400185982246	-0.1329740625601825	0.046736714167599655	0.0046699304130915975	-0.022507709962581324	-0.00453710476292781	0.008570981514199489	0.006496583759601075	0.0038987317932297153	-0.0017000761433762516	-0.014671129803851218	0.00439903438303573	0.055783546367496176	0.017876633317707488	-0.0034046178918890587	-0.0010244292203290231	-6.219837657341467e-05	-0.0022145652850108404	-0.005818564897169816	-0.0036387768838905534	0.004408498205623082	-0.0011910301650595776	-0.0019018092740272514	-8.381083430237428e-05	-0.00021844124792130685	0.0015916687466878423	-0.0002765592628341817	-0.004411461902379042	0.015929494128725942	-0.007582496907752119	0.04117963491815117	-0.01903973754717116	0.011307354360937988	0.005840425446591652	-0.002473817343290982	-0.055905656703576695	-0.11712083637343716	-0.012684326071317366	0.004904506740878596	0.00032891310602044407	-0.0005166729582394705	-0.003971275184868735	-0.0003264683692178593	-0.008945569184507528	0.005077090258961423	-0.00022726566578735744	0.0002023732656276627	-0.0008233996505681055	0.00019409369012156731	0.00011827516130986319	0.0002319922588222504	5.106935877078299e-05	-3.829186450494764e-05	0.00033687625119270407	0.00382991501061924	0.0007297908772281778	0.0026736106218787567	-0.00013140338518320693	-0.0040780464786287045	0.0005735763957074739	0.004908006751657882
Brett	0.0005064124536098519	0.022155156145681306	0.013989523535428615	-0.01635634055955098	0.006969541464486178	0.0011495194255181822	0.00662675887528422	0.0025369456818535707	-0.008947753660105173	0.004648515538392094	0.009997996669250225	-0.0047704902427888355	-0.006831445260466602	0.010113879385298633	-0.014672806403147939	0.3047510789224309	-0.056637329554418664	0.008894430839198095	-0.004332085672371441	-0.00141426371625027	0.004371466745022154	0.0026585082721694636	0.0016163295557640742	0.0011338282132932948	0.00042917884244278556	-0.0003020158968009874	0.0007577245569712056	0.001169329644508239	-0.0005124840419847049	0.000654287785133062	0.0009614307022376405	-0.0007498148939508046	0.001334040930596169	0.00018800560285085099	0.0006456160678159218	0.0002775559773125753	0.00020003016019353728	-0.00019847660865868227	0.0013402538767585837	-0.000656501080142103	-0.0011141737952931323	0.001734624655774377	0.0014616295345559354	-0.0021579982812601674	-1.1563351063304984e-05	-0.00023845048932633338	-0.000897133156665142	0.0005094325778816668	0.000375473391024062	-0.0013009116818825863	-0.0009707457947046113	-0.0004920030821004	-4.866647745259585e-05	-7.331357753758219e-06	0.0006218557608902793	-0.0001295275605297675	0.00029988342407500593	-0.0004353439810367739	0.0001433076785389226	8.392883970419494e-05	0.0010907001443693737	0.0005583652611516318	-0.00038225816893543466	0.0011263405452138187	8.005813869918325e-05	-0.00046861852769829014	8.748914068730611e-05	0.0005634655164997266	-0.0002879241877379938	-1.0306219830223977e-05	-4.313761892892412e-05	-0.00023680979747890945	-0.0001254254279527559	0.0002380346351081369	0.003382984751204501	-0.0011044382030598195	-0.00028935397527754926	0.002537335897167975	0.0004884324496423117	-0.00032445040112452726	0.00015193330794321253	-0.0005347876889937771	-0.0025871634406856216	-0.0033306401056086947	-6.215981636094943e-05	-0.0009811554244802644	5.7618281568245014e-05	-0.0003010250261128785	0.00022696112274725802	0.0006905570193754028	-0.00037697863098566566	0.00618180415376056	0.0006264961224071032	5.36394962441196e-05	2.268045440758249e-05	-0.004820349948439148	0.001193177244177883	0.007238979930240967	-0.0007571991477111828	0.0010408698926601082
définitif	0.0005064124532691407	0.02215515614326804	0.01398952353514396	-0.016356340558906703	0.006969541463004614	0.0011495194259677666	0.006626758873936683	0.0025369456807411367	-0.0089477536582528	0.004186140339529864	0.009516992645683085	-0.004286104300586811	-0.0038610015778006157	0.0057066305327272485	-0.005131064858457491	-0.0037801336044224936	0.00554452088798143	-0.001790244373949917	0.004927208960446685	0.00035643715246235646	-0.007137869927490892	-0.005704554982455191	-0.007131691303585956	-0.00526810675631652	-0.0011620885538782758	0.0020701436556429162	0.000791467010275837	-0.010198895076166916	0.006926409263557134	-0.003825504986715801	-0.009981270547071309	0.006566990817757228	-0.010696369720232185	-0.007851889593144925	0.002181042547834925	-0.004438811257855157	0.005496707509006033	0.019518368270972725	0.01838686296319964	-0.00010133777744938434	0.003116567090199851	-0.01065027626109774	-0.005849812443138779	0.011445927674825595	0.0004072781503065214	-0.009641165701315025	-0.009805603982380824	-0.0018730635819887787	-0.0012218320587590458	0.0133442544277733	-0.006461533329139547	-0.005534499827043506	0.024827263636965115	-0.006114514406891626	-0.011175933978548071	0.06643120314669121	0.021301625295680453	-0.01550219560410144	0.0023495345338906846	0.0016614578974632568	-0.006823132314667042	0.0067976745645589795	0.005172872513472821	-0.013379281319740973	-0.005917130407882918	0.021064276997208222	0.0086496265572778	-0.03809963476674967	0.11289690214179715	0.1397890632589756	0.11290441417903763	0.005047768877997433	-0.16448185426128875	-0.0229775846455844	0.029392594854875196	-0.0067157987305132855	0.006897881922335424	0.03158622332293574	0.011140228921254363	0.0003323167778872911	0.03935364959587767	-0.007759135895589806	-0.019929928093218596	-0.02331444384270523	-0.001956265983249557	0.004951608900292566	-0.025071864934717695	0.0027941540737797263	0.05253982055952361	-0.10737161561685347	-0.0666307046789171	0.003178515896160599	-0.0009173069201351483	4.33225167086979e-05	0.0029462910680810436	-0.009268754554439977	0.003354754803939923	0.012564411145267636	-0.0003019890172169439	0.0004105797629299334
Alessandro	0.0005064124527884848	0.02215515613474678	0.01398952353478444	-0.016356340560401507	0.006969541453056618	0.0011495194246817634	0.006626758882142173	0.002536945680441714	-0.00894775366242287	-0.09551136346616851	-0.04895131719501222	0.009322189797256365	-0.0019376208752066946	0.00434877428058323	0.06227405290041551	-3.0722940604057704e-05	-0.006652566480723818	0.0014082618899697041	-0.0015859652431613213	-0.05667905374971913	-0.0035758618880238195	0.000596711414079808	0.0009012007113416035	0.0015084636243597584	-0.02688359883762999	0.0007616587347597364	0.0004069313164421045	-0.0004876152217191083	0.00022242225656751239	-3.9351882527885484e-05	-3.248779523504756e-05	-7.942354371434086e-05	1.9712570178841225e-05	2.7692731655893198e-05	2.3963190224586582e-05	-7.576863323040725e-06	-2.264041566734888e-05	-6.330043861307896e-05	0.0005293785609148157	-0.0003589739721380405	-0.00022655705310678398	0.004031445087432425	0.0009742260951178105	0.006710653016897738	0.0006219294019671974	-0.0010248727412423431	-0.0007190663888135882	-9.284845057855123e-05	-8.382932644387882e-05	0.00036665564716414434	5.1918097736324974e-05	0.00032256338691132106	0.0005394730214707943	-0.00015957279606609864	-0.0003142567912010792	0.0010796568440055764	-0.0003695656626649061	-0.000577590150535605	-0.00010901544275829841	-5.9221038559627314e-05	-0.0009085046879233297	-0.00023026061118641326	0.00032815515658978466	-0.0016144430000566783	-0.00017580024003075595	0.0019706271598964645	0.00033878340259074454	0.00023729953115695333	0.006714362351540173	0.031445166552920206	0.05824927282563066	-0.0602255672641672	0.07867921515337532	0.004709103944210662	-0.0003791708209281102	-0.0004576920977397544	-0.001582450797172158	-0.0009437055164968032	0.002414906097311471	0.0004952451515590197	-0.0003480980225345695	0.0004217511527995193	0.0018143446717402726	0.0022748687814530344	0.00030110675070993366	0.004932788295820646	-0.005854574506207895	0.0060111930636778735	0.007294572196732346	-0.008128767454497055	-0.003260880944865337	-0.10513447745986389	0.002540192364856413	-3.838152306611574e-05	-0.0005836761114181117	-0.0021051000442562917	0.00027500676661317003	0.0032681099827430796	-0.0002528494815706465	0.00024413261805464705
Jean-Éric	0.0005064124534674136	0.022155156143244748	0.013989523535084843	-0.016356340558935915	0.006969541463208102	0.001149519426031632	0.006626758874036716	0.0025369456807383694	-0.008947753658189984	0.004341772192139363	0.009438565802782123	-0.004312337591832796	-0.004206769052941905	0.005405387431495184	-0.005548861823829236	-0.004072748943508008	0.006098923900478005	-0.008623230820544286	0.008185277656745326	0.0005654802159110844	-0.012351996720773813	-0.01093077048095556	-0.016627831632532102	0.2399453251595736	0.007544463150592131	-0.007504065163263053	0.00019877055764410507	0.019300315791087434	-0.010308559826093838	0.00606133707560872	0.006328987463458232	-0.0047495332378928974	0.0075201970161956795	0.0029798005687686605	0.001316678516485651	-0.002638308374042544	-1.6891602551923102e-05	-0.0038812240608633256	0.00126293000631814	-0.0010321134409807219	-0.0026071084470253546	0.0063385413391868805	0.0025647088360592246	-0.005245954770215037	-0.0008203131786827461	0.0031759252923699113	0.0028818579951150024	-0.0017108262298600701	0.0030597232206459298	-0.001840067387207566	-0.002379245115449971	-0.0009331890508894588	-0.001994148975940706	-0.002471086898632187	-0.0002374455912243045	0.0017653778687373054	-0.0003084937811915641	0.0006272808463410042	-0.0015557900084333214	0.000317361316842956	0.002930935816419661	0.0011538899771904789	-0.002887048152002968	0.001937956258145068	-0.0013861413201530417	-0.000925343589934812	0.0003531574485425554	-4.778573639229247e-05	0.00048697721896530594	0.0003585472316206192	-0.00022033229652306105	-0.0008447077235221701	-0.00042927239760342855	0.0054496470876365215	0.02962605535950102	-0.015138860721186463	0.00905953789201622	0.009961536189066207	0.026546252981937614	-0.33126076351549294	0.0023060483294878413	0.01109790507154668	0.035585675219797185	0.03248536599993737	-0.0004298556337669724	-0.006593452998171861	0.0009975067482478318	-0.0001118796458300592	-0.00018014717728081792	-0.0028741078077554744	-7.418210241040904e-05	-4.211279735957709e-05	-0.001998962789739318	-0.0004579863039753313	-0.00039879035589404036	-0.0006606395563257539	-0.011556346296590976	-0.008992561655791674	0.0002141278133753824	-0.0006784852667071236
Ettore	0.0005064124528710713	0.022155156138467795	0.013989523534834302	-0.016356340560242922	0.006969541456611408	0.001149519424870892	0.006626758878338199	0.0025369456803874084	-0.008947753660605944	-0.055509576164259666	-0.02486549473383911	0.00345550661932419	-0.006682663622318241	0.013328845298678303	0.15741623896853713	0.005037393450431566	0.0018758492022512678	0.0015240531206342025	-0.0011230090860152742	-0.0014575771872111284	0.0013830744521011944	0.0009202583537570381	0.00095886082192868	-4.917178818775195e-05	0.01671049105684437	-0.0007550381403352271	-0.0008650669175157504	0.0010980140159672835	-0.0009048826314090842	0.0004269180294999852	0.0011998727843332796	-0.0018711193512473254	-0.0006195071440075891	0.00039603420731100145	-0.00020640672032083132	7.64169468909974e-05	-0.00037648279292344536	-0.001050324816487499	6.448210822235408e-05	-0.00030301362444982126	-0.0006854724914092671	0.0064126409292647735	0.0012202039836783731	0.009069854509910885	0.0005666185349170303	-0.0007530773151650889	-0.00028393504365742546	-7.761462211762211e-05	-0.0005824796029235415	0.0004084006986709858	0.0011841815587629357	-6.81848532642965e-05	-0.0005464592391173813	0.00017768691069151507	-0.0008252418551579046	0.0012143802604992673	-6.493549796553286e-05	-0.0030478577786073706	-0.0010971597198567214	-0.00045276951442108646	-0.0014221407791501005	-0.001094571366078645	0.0008043742167492291	-0.003332146793445171	0.00012806687526429467	0.004260547226362517	0.0003460854699077324	0.0040860691621699766	0.014925514171364685	0.08020478805744932	0.1514313422923772	-0.1599004346110908	0.20683611760388093	0.012447222934895238	-0.0009047109374238856	-0.0010473857121418057	-0.0034909119391541015	-0.0017933972648812423	-0.002224413375089633	-0.0006844688172877337	0.003355917729886207	-0.0009625260396355206	-0.003151357416715476	-0.004216191076613251	-0.00047179749414704396	0.007201693491035551	-0.009487695134645542	-0.000667070616865083	0.011707867205388751	-0.02749484311911863	-0.014492555630028258	0.028535499019648167	-0.0018494607783488357	0.005377388076547052	0.0007695433112708382	0.004421753972891844	-0.0008707345658442861	-0.006210168613746882	0.0003812083031374345	-0.0003009371084018687
978	0.000506412451638988	0.02215515614475278	0.01398952353962065	-0.01635634055570159	0.006969541457936077	0.001149519424921949	0.006626758875995628	0.002536945680021075	-0.008947753658962224	0.005418588964721024	0.01310617571566099	-0.006212636206869552	0.2734233646266238	-0.050561856410485904	0.012551978588839961	0.0032505717114649536	-0.00406543004839361	-0.0018214050472462654	-0.0010219820535292082	-6.492833353344808e-05	0.0014431476221466412	0.00109552464883554	0.0013092077728619892	0.0008151736079284105	0.00023965020188407591	0.002453104222233772	-0.0002998788032951349	0.001059941114723923	-0.0008240484003561702	0.0003788831061988055	0.000985289581319887	-0.0006808863110861554	0.0010259743596667907	0.0010092373210276108	-0.0007724022707981021	0.00037345229526477403	-0.001018962162887398	-0.0033641489708404926	-0.0036602872540482936	0.0003621534551704805	6.674539291299337e-05	-0.00017424389722476945	0.0003838277292284905	-0.0004007646167542701	-0.00013946158816068404	0.00038670903691341986	0.0003342346359339769	6.601543358713755e-05	-1.6321762421267336e-05	-0.00030361553898847985	0.0004200340056956216	0.00029604242740300133	-0.0006096633784314024	0.00026150800147589116	-8.78553352993746e-05	-0.0006583157233042546	0.0005819519640138287	-0.0010455895435965232	-0.0005731724038773901	-0.0002317591173892328	0.00042113647432710354	-0.00041151619694668163	-0.0002632106178827539	4.406758403420268e-05	0.0003156302474803469	-0.0001603126376799295	-0.0002553207191913448	0.001253305952008941	-0.005218262752764716	0.00044690775884687463	0.0019929604838205845	-0.0012385217278478313	-0.001880418219188741	-0.0013650320643976937	0.0005876678959782645	-1.5752384604166366e-05	0.0005801269194674074	0.00175570688952556	0.0011825505486598754	-4.781942693697985e-06	0.00115516819535047	-0.00031449379879785067	-0.0013343181637340447	-0.0020705728356351987	-0.0013637699296523726	0.00043892730630026855	0.035984421787185916	-0.006255338648720548	0.04397453492030802	-0.0011861770834542297	0.020737176455024646	5.503140704075189e-05	-0.0007495481889915915	0.000548088487811536	-0.00012965079759755596	0.00044200101350734544	-5.944829915785488e-05	-0.00020271987164720978	-1.983987971032955e-05	-1.0586591336965868e-06
aria	0.000506412452793168	0.022155156138993062	0.01398952353483936	-0.016356340560213584	0.006969541457112719	0.0011495194248611865	0.006626758877724999	0.002536945680361321	-0.008947753660329018	-0.04970204024592618	-0.021325337146269528	0.002569990574182273	-0.007747142997051818	0.015440735287782462	0.18357253594987685	0.00652990692739147	0.003571815860503185	0.0020850538714556467	-0.0015379516142381938	0.010982134460238435	0.0033846771688373564	0.001791310866983769	0.0024162848109835623	0.005112724196564954	-0.10744311006212401	0.003326413510232746	0.0023397268582470675	-0.0025188416157853823	0.001565349253869192	-0.000572722233650341	-0.0012680687530549743	0.001371700528305147	0.00026940017018889774	-0.00024385059384365583	5.165307008095847e-05	-0.00012546698854915683	0.00011010407322785167	0.0003474221931975759	0.0004902851003583599	-0.0001429023917044393	-0.0001894692970864526	0.005368169935706268	0.0016015325814096586	0.011783661376481534	0.0013325327553242532	-0.002580411474466465	-0.0022259223490891425	-0.00027305272192368313	0.00011283010020395965	0.0012512603229130127	-0.000770976040103251	-0.0005914665679780764	0.0017631247092647507	-0.0004972055095636783	-0.0005138922638182721	0.0031877855576286866	-0.00010191144333935882	0.0006449380735881177	0.00044279306263751185	0.0001631862552129144	-0.0019482286793137279	0.00017214578099273778	0.0007805044213998543	-0.002523977560384331	-0.0006962107039106945	0.0030470613103136717	0.0008512113132026445	-0.0026414166386066204	0.008071288248529674	0.023283192193270907	0.03630007411091486	-0.03158725628270641	0.03504437892547748	0.001193716413541799	2.612096208643702e-05	-0.0001287162184712698	-0.0005411753502336616	-0.0009657528592865597	-0.0007207122584379734	7.699453535835003e-05	-0.0016103928556526134	0.0004193967849534441	0.0014396343022009964	0.00207090973162049	0.0004015338816416633	-0.004329850810948537	0.005801897625359931	-0.0009609617397776569	-0.008257814159194042	0.017585277710492765	0.009282596941301884	0.006134910392809575	0.0007138094026587398	0.0011387443875450452	-0.0003398632378378355	-0.001988464849828779	0.0007681651595354902	0.0031833184416791838	-0.00014007747324769945	0.0003869115017816349
Stones	0.0005064124533506232	0.022155156143553907	0.013989523535126844	-0.01635634055931278	0.006969541463298	0.0011495194258590014	0.00662675887385301	0.0025369456806442407	-0.008947753658040587	0.004542204082277576	0.009318206309635323	-0.004351229189257153	-0.004469064393185891	0.006199360162780089	-0.0061299270495585026	-0.004236223190134646	0.007554881048857028	-0.036315646046240074	0.0850189483208434	-0.01768831889857335	0.19016903919251055	0.013758198502288849	0.004113396440342348	0.0004580304398966693	7.729576535277096e-06	3.634012389797884e-05	-0.000370878904084745	-0.0006277563027309212	0.0003153522951546421	-0.0006934455054176293	-0.0011194853923968378	0.0011279074055768577	-0.0022043892009188525	-0.0001287739849449574	-0.0018138062765425044	-0.000601202772130273	-0.0008635289100937254	-0.0005502232602030241	-0.004914434991815104	0.0021134252496888347	0.0034891373585156536	-0.006272826956591672	-0.006066953060873494	0.00884026764407302	-0.00028289565430750766	0.0024338226630834193	0.007176547067672781	-0.0034468200651143416	-0.001491831836490854	0.009161012077501675	0.007785792670103069	0.004035453337368326	-0.0004090639818797124	0.0008208728292121298	-0.007123353954952768	0.00044897574302350633	-0.002534183445599787	0.003950737914534409	-0.004952911675339252	-0.0027414435699626067	-0.03434960800231461	-0.024618440232369684	0.023896919538586872	-0.09280748096569807	-0.020826965330084067	-0.14318405608163012	0.008725939642645833	0.013616328167097354	0.00019389966475672838	-0.0007857932358069752	0.0006560773579405901	-0.0034711549712814075	-0.0022619287423686807	0.0014485533908758438	0.022856258003972424	-0.006697408611414762	-0.01643175955137465	0.004556498208979231	0.00130302366353647	-0.0006211108733697552	-0.0011860828924877172	-0.0009452315762236122	-0.005270386290765391	-0.006714118594212075	0.00013527892811447632	-0.00137206087012837	-0.0008810351208336704	0.00019951451802448922	0.0008492055878535423	0.0008851670555215293	-0.0002442339091054376	0.00011498243178090933	0.0014267594467175908	7.505018360823502e-05	8.27473263286518e-05	-0.004996545353773203	0.0014116377540113884	0.007261210178823349	-0.0007300444195999008	0.0009990962376762611
quasi-totalité	0.1221699529182198	-0.14070669248063059	-0.18181788187266798	-0.1901247205142512	0.19678591149454408	-0.009805929431123255	0.027047756146432757	0.04824952815886097	-0.008288233925356695	-0.00015744919792621756	-0.00039750280132432167	0.00017500907588288115	0.00013493459563825722	-0.00024848475325045874	0.00022624271040831354	0.00020161596642340976	-0.0002707268784011279	-0.0013353616975280182	6.495233563776309e-06	1.2421543527204305e-06	1.5442408177856538e-05	0.0001071957430375567	0.0002142225865559838	0.0001581793699265968	1.6485979049814713e-05	-0.0002563380353948208	-0.00022181701298280918	0.0005181792786566698	-0.0004328935164410427	0.00014224794098133492	0.0005948411534521242	-0.0004103291943125129	0.0006037321460387909	0.0009813684504628645	-0.000981480175253736	0.0003741166193049469	-0.0011431959769780846	-0.0038489842527707633	-0.005211665759042986	0.0007916567347899772	0.0005695013263988958	-0.002187698582544067	0.0005808785565912286	0.0002606607208189538	0.00031849647695870385	-0.0010088626279955576	-0.0018205705641077714	0.00011899741439551229	-0.00010818499719162077	0.00018116693406855077	-0.00044313209511434386	-0.00020072064133264274	0.0005576736876873115	-0.00011761309957523253	-0.00011015989691659338	0.0011517748926724632	0.00023087495160887313	-8.948887774644018e-05	1.3477102566800125e-05	6.97808018030803e-05	-0.00014439963298280362	0.0001350881613158114	0.0019878212115929175	0.0008543095236718764	3.9917856619451145e-05	-4.3497693720511354e-05	-3.2918333890759224e-06	0.0009959680855869063	0.004140602850420299	-0.0003072074435350676	-0.0006858122061400105	0.0004084827710101749	0.0004503031896126537	0.0005315715291634676	-0.000979168719922336	0.0003340508612517444	-5.9834184874144134e-05	-0.002914984428989466	-0.012462512617817365	-0.001984653468250719	0.0018364074189050755	-0.0011135755757327743	-0.0038819254786731693	-0.004293680916454419	-0.0003058495137855526	-0.0019850236439212833	0.0013524855822958544	-0.004729657023823211	-0.002023333631423193	-0.0012471597427373346	-4.207629680372336e-05	-0.0016659595283160956	-0.00018383873985806628	0.0001127769872649538	-0.0008000678557512509	0.0009846794605101253	-0.0003374788944107837	-0.0004688172753291933	4.813000531102285e-05	3.3956378440811374e-05
1940	0.0005064124533396327	0.02215515614339196	0.013989523535125446	-0.016356340558740495	0.00696954146285801	0.0011495194261054548	0.0066267588741021136	0.002536945680888202	-0.008947753658203234	0.004310068351764956	0.009765074309177921	-0.004417579492366222	-0.004439431494488141	0.0064915655938004024	-0.006310631049670061	-0.0052510378780221975	0.008068022565273709	-0.033648363175529175	-0.13574970998922034	-0.0025717755946938464	0.045871163380763434	0.009703894345950646	0.005619137773626415	0.0006624591774900498	7.419495035699662e-05	-0.00017846290853430047	-0.0009854595111640804	-0.002283398048466696	0.0011525772443802282	-0.0015056501757192441	-0.0022289445864876163	0.001857607209766909	-0.002551655916974336	-0.0005312589378150877	0.00010120670019586164	-0.0007188430645110339	0.0010445037745128918	0.0043420585948473756	-0.0030864883803919836	0.003975074329996056	0.012666952956746736	-0.0026821334090852745	0.043816818965856937	-0.0005838835011515978	-0.00395304787235896	0.0063999009386853725	0.004725182113925192	0.0004924730386381341	0.00014266632120807094	-0.001962120679761853	0.0025892707960951953	0.0015682702532470432	-0.0017623736369054201	0.009828362740271466	-0.035736903564964534	-0.008279576495415025	-0.0015316188463255888	0.0018345111543218977	0.009999931062969473	0.0037881159629776302	0.018244573322291253	0.015994485725733677	-0.004031291644506547	0.016254641474910562	-0.006504641141186158	-0.004444507467334506	0.18788847017151492	0.022314005362778066	-0.004135570591791813	0.00017450866692978655	0.0014123801187665656	-9.219336070087148e-05	-0.0009529606502402281	-0.0008252398003935598	-0.007510648998071365	0.0022615774824042275	0.004054656862413632	-0.0021478148670745958	0.00010307203437756162	0.0005059810015076525	0.0006787451846963777	0.0006591523437657863	0.0038570172024489386	0.004971358396733159	0.00021964644286877455	0.003217156178629107	0.0012762009769841276	-0.0005630259123734814	-0.005386338406315563	-0.01032312302420689	0.009550976750378713	0.0004917088462200759	0.0035832870372930503	-3.869094732728045e-05	0.00376725923878624	-0.0019596490568786276	0.002361317854165358	-0.004490788605259012	0.00040815318808421104	0.1883449540822859
Gallon	0.0005064124527606796	0.02215515613070845	0.013989523534753134	-0.016356340560576395	0.006969541449197575	0.0011495194244940101	0.0066267588863596506	0.0025369456805106674	-0.008947753664423743	-0.13919100868487835	-0.07528306109265281	0.01575118586190228	0.0034939993930582056	-0.005998944736071248	-0.049985039451594465	-0.006298739418093879	-0.017461073272195368	0.0010522886400534926	-0.0020472762384498517	-0.13666778403149726	-0.01115262556118777	-0.000272558728613835	3.6452036667796426e-05	0.0004903640217784892	-0.00979508560775824	0.0002994234564835721	0.00013836825053394612	-0.00032993309996365836	0.00016896825928099403	-3.942207596143636e-05	-0.00010832251035207272	0.00019088481282764877	0.00021631562377336756	-3.9829054958989306e-05	0.00011215658303780063	-4.727490197883096e-06	8.754352533391608e-05	0.00023536206763051593	0.0007384205837610365	-0.0004528339297880287	-2.3743922780366557e-05	0.0024251186704361966	0.000638051024836201	0.0038005921220435326	0.00040225834956086285	-0.000605234503815246	-0.0003860535389815464	-4.000753266182426e-05	0.00011733312712191576	2.2974365681575556e-05	-0.0002472866693575299	0.0008320717867162886	0.0006227993215107731	-0.00020024402331018237	5.491588218536295e-05	0.00011681103608802111	-0.0005818758111304605	0.00035070719613863356	0.00021814981721154578	6.965058330958489e-05	-0.00010194455471966346	9.442767314561044e-05	-0.00016020773841562605	-8.66213146584326e-05	-9.070465046841052e-05	-4.028757637567588e-05	4.426287042192317e-05	-0.0005270473389613114	0.0001208947493858757	-0.0005738881175746994	0.0025221629074915685	0.0037732957850265566	0.003961310598223528	0.0004926473334546694	-2.3462346548453156e-05	-0.00018933091969093087	-0.0005998213763345212	-0.00028553009942877336	0.0061704044372761745	0.0013286153806238892	-0.002213632658074595	0.0012434424356897456	0.004839326097492784	0.006129937095953181	0.0007044219145255375	0.006194941638144217	-0.007019331155964361	0.011916865253853038	0.009247440306193235	-0.004371715637823277	-0.0004316722401982529	-0.2146792569287363	0.005576715537739708	-0.004365923929497212	-0.0014178910560143426	-0.00586641849916298	0.0007238391230278557	0.008607070500360171	-0.0006490220382431985	0.0004475722303980148
sujet	0.000506412453300372	0.022155156143407996	0.01398952353514428	-0.016356340559097435	0.006969541463156436	0.0011495194259128448	0.006626758873884032	0.002536945680688771	-0.008947753658142935	0.004493779158930696	0.009207188270020114	-0.00429095610382007	-0.004244593455117249	0.005851662911489853	-0.005670246462528476	-0.003665037377083751	0.006428432089337955	-0.02313201883777903	0.044536562441498555	-0.008334471204537043	0.08712965902938108	0.0032350327403836204	-0.00053912274585413	-0.003010014416311035	-0.0011421930946805187	0.0009836047440905564	-0.0033163594178899267	-0.004428764625079896	0.0018501171579718984	-0.0031947226864734606	-0.004611357604667951	0.004099503649751893	-0.007749156575194503	-0.0004430374505202408	-0.005541237737553815	-0.001815678677655965	-0.002540807027160826	-0.001518523987995499	-0.014130975667812231	0.005955968059790977	0.00967232531495149	-0.016333004773780354	-0.015377744321070422	0.022203433396413202	-0.0006600015845389541	0.005777329757992814	0.016807378049286725	-0.007902965078311052	-0.003361535122175029	0.020473101720091803	0.016869994499071443	0.008679696270829438	-0.0008203495930068014	0.0017330611397777251	-0.014879865545983684	0.0009518623567331581	-0.005132415310983313	0.007923967063018117	-0.009678233501137133	-0.005248744975358682	-0.06471934085532356	-0.04604950214571698	0.04393996124628765	-0.16975349909941748	-0.037469183243340067	-0.2555624587455593	0.015189287836206215	0.023262620238481073	0.0001680182505784544	-0.0012913755534325392	0.0013911005749280359	-0.0054234940737602705	-0.003920065465045057	0.0017465308355672005	0.03038775042238039	-0.00858607981354981	-0.024720431735507108	0.002999277528240302	0.0008762390934777724	-0.0004662894873023165	-0.0016247724969299313	-0.0006196115840921834	-0.0038187494533920494	-0.00476207712286404	0.00016733077388866283	-0.0006133720991681885	-0.0006272638562979552	0.0001320995985481287	0.0003146199592729427	0.00020032373932929275	0.00015469404404555402	4.5117047290717466e-05	0.0006480544188918942	0.00010346784659305601	7.076266433475153e-05	0.0007210154497511723	-2.4234349337397265e-05	-0.0014148826041286283	0.0002049287368042635	-0.00037289983926710264
Boito	0.0005064124533168613	0.022155156143223092	0.013989523535156707	-0.016356340558966505	0.0069695414630470106	0.0011495194259542305	0.0066267588739546265	0.002536945680787062	-0.008947753658261847	0.00426136821032759	0.00956904967041523	-0.004328105989965378	-0.004114707008239346	0.005954097881300732	-0.005596930121148788	-0.004062251568608646	0.006118567760726351	-0.009662748712343499	0.004445808815407342	0.0005764435571344196	-0.010448116031532865	-0.00960290437648386	-0.013748880931642121	-0.026704594323004947	-0.007477798267692898	0.02314627124367153	0.12990691291654352	0.18358755932661677	-0.0632516505985508	0.022184839766831367	0.049968143850967164	-0.08619766389229827	-0.042919146567071804	0.00928420294936736	-0.0009353710184803793	0.005603731959190463	-0.00266349769853525	-0.02157850917349615	0.03095643586625622	-0.09761639719674585	0.08132460290026458	-0.013841254402161994	-0.0009212307496133509	0.0050369519662910815	-0.0009952854120110106	0.0032286990766636583	0.006009924995542472	-5.45774343771923e-05	0.0008705606464827041	-0.004920667840957959	-0.0005412652947983936	0.03671749277117235	0.012223023444286	-0.002200487122662482	-0.0005798823666380033	0.0003923604541581048	0.009654065409989698	0.006787329496074534	-7.434686213813116e-05	-0.0011797110947803632	-0.00025517686656055484	-0.0013897903397315494	0.00012693037203971396	-0.0008614856466389609	0.0009095846076718431	-2.9450345260318474e-05	-0.0023498546193415335	0.010515404196413745	-0.004971375056625327	0.02834590814032547	-0.013452209604831948	0.007917282628033297	0.004834974833619022	-0.00048362442237204163	-0.016431027094125958	-0.031659457143108395	-0.003781780195029028	0.00024330041778986532	-0.00016016276955785422	-4.77254522624742e-05	-0.0010341232034731598	9.053563740234367e-05	-0.0004472226523439069	0.0007170467019233986	6.78668130868996e-05	5.632495146108002e-05	-0.00018444394912871948	2.7585581388702048e-05	3.3062058702329825e-05	2.8812428845914964e-05	-1.7563910611646805e-06	-0.00010930635686808206	-1.7235234450577e-05	-0.003940746229530242	0.00014574955101627225	0.0002627774337151112	-3.7044855654158604e-05	-0.00011844530544174309	6.135365999251734e-06	-0.00039547073166890047
concept	0.0005064124532508067	0.02215515614326586	0.013989523535146705	-0.016356340558905228	0.006969541463011374	0.0011495194259692422	0.006626758873921442	0.002536945680715231	-0.00894775365824272	0.004402960898772805	0.009193213090723282	-0.004251549663794722	-0.00407287640662212	0.005071512339677335	-0.005230267597671851	-0.0035676378555674028	0.0055409937905649695	-0.006348428406478937	0.006168242877711531	0.0003611399527693784	-0.008215570608076686	-0.006596706966026699	-0.007079632956691328	-0.007139197072518082	-0.0022327227582838063	0.0027911581718972596	-0.006530329583549874	-0.011944925460070227	0.0054792628602615846	-0.006827326411063992	-0.017031423508655774	0.0072582375934034955	-0.02016985839921953	-0.018436203394021362	-0.0272428649772485	-0.03310696778449594	-0.018735579423203426	-0.0340840081825745	0.011051391764343447	-0.025058199765831336	-0.0161394862184006	0.008779981657873989	-0.006441451673227183	0.00888525404918514	-0.053039911872754295	-0.004326199796371897	0.014388587809495328	0.05773415443673148	-0.004756546423493267	-0.014891627987944512	0.0005146882382295339	-0.005054094239990397	0.010511797710756818	-0.011523765749269964	-0.007917218492886558	0.06305119665971727	0.033000123935613204	-0.03510971034905154	-0.010872013033238911	-0.004967075722330348	0.018128064992998037	-0.0014746722861033253	-0.0022840988077938414	0.007361377254913912	-0.000987936384404085	-0.003611666937432277	0.0005568284731807948	0.007753881110813227	-0.0026527763874469824	0.003222294607375069	0.0042975172989373235	-0.0014273108729114358	-0.007851581421492062	-3.428179498995206e-05	0.008854257488501589	-0.0024205608766292783	0.0004226817997362185	0.00844546074764273	0.0028092908714324053	-0.0018246240156509818	0.0026428031500595403	-0.0020419191120906923	-0.00929832635944086	-0.013455738009202642	-0.00864089840682204	0.020050668661742967	-0.001839187875394224	-3.6907801089752345e-05	0.0023067034744890386	-0.001910210543492193	-0.0049981786993353455	-0.0001229480012544759	-0.0018776335425180046	0.00029345438528257024	5.387678939308867e-05	-0.000663063563789007	-0.005649118131277442	-0.0039707449528277455	-0.0066238358544659995	-4.8737233383060576e-05
Franco	0.000506412453295438	0.02215515614322841	0.013989523535122962	-0.016356340558880876	0.00696954146300375	0.0011495194259752155	0.006626758873907543	0.0025369456807488875	-0.008947753658226644	0.004224323630515538	0.009556657593185351	-0.004308128302823643	-0.0040328443452332914	0.005842607932631113	-0.0053796601567424425	-0.0038924355512172685	0.005765619836547014	-0.008011649551231322	0.006332161152296395	0.0005010576265193885	-0.01002379478425532	-0.008193310696445638	-0.011243502850329296	-0.0154245509657745	-0.00017235811913101935	0.010147142138695938	0.04723215321573558	0.04846154746093382	-0.009069457168271032	-0.002104308690633394	-0.019964284643085816	0.160079288727888	0.1984618480273252	0.012465236886153565	-0.0011658806835724523	0.0036509864538552773	-0.005602391889282177	-0.018504509107682525	0.005914235300603112	-0.014305649395408532	0.0007640919806305045	0.01611987568153985	0.003273598312283293	-0.010455051046872256	-0.003583979710065316	0.008220172656464981	0.00834124492222201	0.002672053026398412	-0.0007245062543661815	-0.014237904739907785	0.0013524612448651465	0.06501407851826674	0.018633175191894055	-0.005391070313175557	0.0006111888736927999	-0.010071554308038383	0.10976411991119495	0.07249542638498264	0.007729613013061782	0.0014844615104176151	-0.00576976019172419	0.0011691745775809738	0.001317839457785395	-0.002754565095365317	-0.001706847359075797	0.00144569510272732	0.0011692825979245612	-0.009209007497974387	0.00305381714870965	-0.005624973941764687	0.002494447660525329	-0.0013516152410145241	0.0016615080209851341	0.00032501288450362904	0.0014672453435220622	0.002984266692064146	-0.0005124517194746282	-0.0016863918953684955	-0.0007005419291054606	4.9729309405700806e-05	-0.002853257472461354	0.0005537816199458046	0.001574593855938216	0.001792154263238493	0.0010288206085265876	0.0004056100186571501	-0.00394962706909271	0.0007651458464343044	0.0006346365929795136	0.002998043395286255	0.0005964685076689361	-0.0043824726653406785	0.003827930245993304	0.3021638571923053	-0.005495295634414366	-0.009260282414279012	0.0006063201192921873	0.007616176373439395	2.755971930662137e-05	-0.0007357460395963009
franchir	0.0005064124533151852	0.022155156143249977	0.013989523535071213	-0.01635634055897067	0.006969541462962529	0.0011495194259779113	0.006626758874003787	0.002536945680766944	-0.008947753658338444	0.003787061115263237	0.010180431598652794	-0.004414514387801664	-0.003035831453284482	0.006409368106428025	-0.005746096158734583	-0.005581061442250469	0.0071439268628652065	0.0452469885472456	-0.002107006052893128	-0.00011064252350424103	0.0015811039068026125	-0.0017527866408152395	-0.005842340764209774	-0.0035058255539853044	1.612222957228515e-05	0.00670626078194615	0.00908179930881089	-0.01522342996468299	0.01372230247208167	-0.0038719647976149687	-0.015835803513744594	0.01146248245810436	-0.016255420604585374	-0.032675656357855576	0.03499383232573316	-0.012026889033816202	0.03888290567967869	0.12914265005611866	0.18106781906999006	-0.02914580129887845	-0.023222364950188576	0.08042057483717024	-0.014395474540871207	-0.016427703749216822	-0.011770539799215992	0.03551261227086454	0.05869510885216492	-0.0027487142641378012	0.007399851498156494	-0.00841971057058137	0.005532144428600989	0.004198638509839855	-0.013891166786756691	0.003810671120335809	0.0017836668011708186	-0.015084939998529567	0.0083706404644145	-0.016135892074807177	-0.007861319944300412	-0.0008595499032325945	0.010899204385417666	-8.84019947494227e-05	0.028296420141084376	0.02520229099226097	0.00855542043422853	-0.007363871466325694	-0.006774128436934902	0.11444801404754092	0.29478544538934687	-0.0662896016147754	-0.09178833739969221	0.027370473847327697	0.08915886539374092	0.0779865697824244	0.02897503889316238	-0.01814468663774053	-0.02039475222336254	-0.0037884532996568672	-0.0788405812764681	-0.011310940500238663	0.011605374699019318	-0.008638027958280833	-0.04680877664599004	-0.0690484310167933	-0.008240663103448682	-0.05018061670440294	-0.11071941564945717	-0.010626777460888377	0.04347024231322059	0.007091874375260741	0.16813916427661313	0.0036372349161843368	-0.028870997542063185	-0.005916689097198545	-0.09364725978108851	0.04618659990346069	-0.017839912959629254	-0.006446945115111907	0.001505713899608662	0.007958850556577246
équivalent	0.04896915903503318	-0.005891453995301181	0.005591190666862174	0.23647750737211262	0.06213926973172856	0.07947866855816868	0.14119812956365804	0.10908527509755896	-0.13188977757296808	-0.0005698244447142659	-0.0011889949628885801	0.0005500415202849344	0.0005289666923823555	-0.0007215838483544111	0.0006947263181986941	0.000441485535728567	-0.0007345796592431288	0.001429210265348345	-0.0010205554972602792	-5.112336864933689e-05	0.0012617938789362623	0.001052760419864686	0.0009601182614504304	0.0019460214710556737	0.0010140258471083977	-0.0012514530038859738	0.01743007098163783	-0.009285032211980685	0.0011885581513481265	-0.0011133645350592243	-0.0007461749348170655	0.00034733003217145633	-0.0003932161707666719	0.0007713726203599226	0.000786161760919702	-0.0008867222015555708	0.0006338040075231253	0.001959761130727482	-0.001869495238608994	0.0005283562731308298	0.000797191311669576	-0.0008338887042940613	-0.00023486440790072277	0.00034867565263531076	0.00356345390866966	0.0004067077382364677	0.00047164565490085005	0.0002744571567478774	-0.00013768507018191282	-0.00017705241328508261	-0.00038013019417546196	0.00010921125734624117	-0.00027876580470043914	0.0006335220851699333	-5.788909083423075e-05	0.00017793257062725563	0.0002694544192858761	-0.0004410294064001708	-0.0004512388516926823	4.3657287925913044e-05	0.0004168229760771274	-0.00035864920382262626	0.00038466573995610254	-0.000714006309868202	-0.0001465700352293437	0.0003182632637582748	6.946785154783369e-05	-4.614566091465464e-05	-2.0431192417520944e-05	5.230233914651269e-05	0.00021123342223036882	-9.387102131134932e-05	-0.00026121253424780944	-5.8237698287971e-05	3.345167401902656e-05	2.2200498256442504e-06	6.630261859991052e-05	0.00014328989168834212	5.802096178287733e-05	-5.412849254842443e-05	-0.0006162519632811453	2.2205886364505272e-05	-0.00022282215042525598	-0.0003386511552193096	-0.002559285398288929	-0.00014390822299777234	-0.00012635440162966628	2.773651652034244e-05	0.00013663732209394364	2.3544480022722868e-05	-0.00011917898678719542	1.1003200233601282e-05	8.067115616316386e-05	-5.458749894752103e-06	3.233567634091875e-05	-0.00015916736331410698	0.00042073240303903254	0.00017700050096850482	-0.013505938406654448	9.917006910201099e-05
apparaître	0.0005064124532539594	0.022155156143270203	0.013989523535151267	-0.01635634055890303	0.0069695414630007385	0.001149519425968467	0.006626758873921133	0.0025369456807199098	-0.00894775365824259	0.004271268060982327	0.009416489162956655	-0.004275989900686948	-0.003978943914028341	0.0056779686019028126	-0.005289066619576919	-0.0035981971356591957	0.00549128763978174	-0.007731689947023723	0.006008484876930806	0.00039451452967200797	-0.008541930963413207	-0.006718275745336137	-0.007753640392109748	-0.007920769071177343	-0.0022574736229625057	0.003660470667153885	0.004316807943905802	0.0005011852211023893	6.999232633325247e-05	-0.003789228297734491	-0.01093967670885393	-0.0002366967046447076	-0.015577683181029367	-0.012576589042840522	-0.019788714076230184	-0.02392040483682661	-0.014771906588246788	-0.03201193850674065	0.0163117922506602	-0.003564681050515806	-0.006350754153338579	-0.0007964509614132279	0.0009523511217114926	0.0013166118763168423	0.0026764664183792164	-0.006421972718448451	-0.00990351512056619	-0.0028537691684155093	-0.0024683669779466716	0.009281735356212729	-0.025089617750834393	-0.0060815364563379356	-0.022730607175529542	0.0026151155966896334	0.0007117940026952559	-0.0009358288235758589	0.00371199969382283	0.0019687345348755065	-0.0030985332192425582	0.02068941354736917	-0.010086431079755463	0.004391953339752511	0.0028507544624331318	-0.002468686073443729	-0.005998393613492988	0.0033991672411944522	0.005675635274067333	-0.050857893709183435	0.022449775296679665	-0.13260359657190143	0.06890867772249218	-0.03964834754786031	-0.030169049937682227	-0.005015458461257723	-0.028011214432654526	-0.05967335638592083	-0.001124736539466315	0.009161317773362444	0.0021980418646968306	-0.0002841314983820138	0.0031195349687530645	-0.0009741087938292671	0.0004267549227204458	-0.0067601379768822654	-0.003709428509967668	-0.0008479840158957261	0.0010872874303520302	-0.00023505276755581245	8.914187295456979e-05	-0.0006726544962683712	-0.0003459475716679904	-3.322676881854173e-05	-0.00030778670462626207	-0.0034348380492182366	-3.456184770066163e-05	0.0014777591456740496	-0.0007197394403683256	-0.002426748171437398	-0.002944138484094879	-0.0005904236227827321
public	0.0005064124531772851	0.022155156143257512	0.013989523535046677	-0.016356340558902525	0.006969541463121405	0.0011495194259764994	0.006626758873726226	0.0025369456806093524	-0.00894775365816828	0.006881566767050321	0.004907296534492767	-0.0037062906318823855	-0.006507533886646023	-0.008819825902511505	-0.003929307485386201	-0.003140440396243376	0.004818199103862116	-0.006248254157667552	0.005560649917680219	0.00034314434450533407	-0.007600041680745646	-0.005987153713371853	-0.0067447271358159365	-0.004979551510880073	-0.0018054502551861258	0.002267210856869791	-0.004715194938685923	-0.010520937206324379	0.0048935997640883605	-0.005536367127899786	-0.014642654012975998	0.005251264929157289	-0.015682468950090813	-0.015524411046528155	-0.022049895009597097	-0.027771425892950022	-0.017081989995184933	-0.03599402070616471	0.019902505036763746	-0.006015305590406313	-0.005787384532952347	-0.00200967379824131	-0.0031679317505688325	0.007838148104962857	-0.032688074578492404	-0.009931775449744327	-0.00567419062744799	0.011098753049766291	0.0007704594841847325	0.014837343214825651	-0.018212862758163622	-0.01158316026374109	0.09263142009021186	0.10036590146951961	0.04900788929893509	-0.05228879695881907	0.03607904600708192	-0.06384807401399867	0.06240707088076354	0.007881149879804192	0.014826875787996158	0.04225408181681069	0.010665524327771942	-0.03260363003798298	0.05389057782204233	0.0027979882443518976	1.874845126408585e-05	0.005156504620254619	0.015799699116697093	0.021656924860443683	0.020769984640752127	-0.001556968670504393	-0.03008403506548434	-0.003896082275726254	0.00484534503135165	-0.000235399167682697	0.0026898782212213456	0.00990303213419473	0.003921884143953981	-0.005455857568050511	0.0050246135037262	-0.0021442427136311565	-0.0073791946084273445	-0.012932266383199519	-0.0066820855511665255	0.017159672943773657	-0.0038328524979224675	9.44352890841335e-05	0.006953509726142329	-0.017466199080347387	-0.010103433429431954	0.00040660054589858677	-0.00016498072236064017	0.00042956286911965307	0.003942924408881454	0.023143242840974534	0.04622509057138649	0.02169435343275874	-0.004909346082825457	-0.0009326140395096456
arrondissement	0.0005064124533061759	0.022155156143244467	0.013989523535066009	-0.01635634055893325	0.006969541462977018	0.0011495194259811222	0.006626758873945435	0.0025369456807505155	-0.00894775365829878	0.004168275723084508	0.009657034368452354	-0.0043406596239757515	-0.0038000006622185903	0.006062541081939974	-0.005661486261846158	-0.004585992945772813	0.006643294663260165	0.027679263769963523	0.0013169585077834776	-4.0735925532604626e-05	-0.0008889800628634316	-0.0031275346636630928	-0.003247271772566971	-0.004928362037545825	-0.0014062451476061473	0.009799571522329116	-0.0018600897749056916	-0.01665529445873682	0.014092912561277048	-0.023246799295494766	0.04903856228818973	-0.006451819859262663	0.007360891395973472	0.0010971603531761325	-0.0006893236664276021	0.0004379826935831522	-0.01092221400690446	0.005485900063348656	0.0019099893302021317	0.0010629783570189752	0.0020620758065093463	-0.003415143162960217	-0.006470061191389365	0.008987843487518287	-0.0010396369636563943	0.03457292827964034	-0.01387200280898898	-1.3472352018877205e-05	0.0028116024672070125	0.0026416250434354305	-0.0028183421213334625	-0.0024568036398188702	0.005305654604162725	-0.0013688221422429958	-0.00020070914418667202	0.00418051901801738	-0.006258870437171801	0.010845586822058799	0.004967157883727365	-0.0007435493440692125	-0.01248671253420782	0.0014578146113403008	0.10688537819457221	0.03560757419610512	0.0034920902446937065	-0.0025585743347977027	0.00022580939203192384	-0.01148734133932425	-0.03375155799788612	0.008162224889930333	0.010050498686773511	-0.0021979926999281143	-0.014887869539779709	0.08214648739790828	-0.009602158185006343	0.0020437293179775594	8.99790526001404e-06	-0.006228295076092044	-0.0021453541421995095	0.0020322454464397257	-0.0017811760978180048	0.001120193317302981	0.005403148616853823	0.007543655621569473	0.0009075930699582392	0.0022812290973099306	-0.003060071005057608	0.002270861126510357	0.0006100035857722698	9.534619691850001e-05	0.0016250311555172444	-0.00019835185799231027	-0.001287493812345859	0.0011065529335392637	0.0012324918586049474	0.017011007985820628	-0.0010320358736142722	-0.02314233775312982	0.002121670056034297	-0.0013426273555175892
réalisateur	0.0005064124528734269	0.022155156131274962	0.013989523534914136	-0.01635634056047346	0.00696954144960377	0.0011495194244748477	0.0066267588861725684	0.0025369456804985695	-0.008947753664361109	-0.13543834312819053	-0.07296793841759988	0.015168439714466294	0.00288810476546343	-0.0049079108487822196	-0.04268731764242949	-0.010877379818245124	-0.04274535135704806	0.0020011426002055723	-0.004347897423208033	-0.26732423921312964	-0.02135984978402541	-0.00021801637864563863	0.0004298228881106137	0.0009462517002251773	-0.014212179408654466	0.0002965355790832861	0.00031044362472063577	0.0004895274412537614	-0.00032635592218717305	0.0001749132777108288	0.0005361889508254122	-0.00019011912312154496	0.0009168637920002679	0.0005578515931054881	-0.0003106060852306865	0.00021668874647345473	-0.0005246456756266198	-0.0017749916393670778	-0.0013920024291986463	-3.730657244305072e-05	-0.00038465741537899194	0.0037276545817838723	0.0012814945341729893	0.0056079665914284095	0.0005285488986775139	-0.0006869460804795732	-0.00039623618884207875	-4.6189812171615525e-05	0.00024273109366978942	1.284824182293655e-05	-0.00014728557932796723	0.00011741350934197463	-3.703344415808669e-05	6.775169142010858e-05	1.1923494951302261e-05	-0.0002099780556876977	0.00032603336410118934	-0.00041992275537017373	-0.00028778517227778447	-8.269476981558403e-05	0.0004469820090383614	-0.00017196454463825353	0.00010487684772896179	0.0005788540409185026	0.000295244358338321	-0.0005785893808204748	-0.0003285739406666967	0.0022286392843790218	-0.002606877198493942	-0.008379661520050125	-0.005797130230701865	0.024390725478873623	-0.016455789834353328	-0.001102082603124569	0.0006340703736657889	-0.00010840945474977395	0.00037434429347448644	0.0001240124453625486	-0.005498755707679472	-0.0011444366404109842	0.0014993693775699995	-0.0009878076754459102	-0.0038989472133088197	-0.00486361868401263	-0.0004961658453944511	-0.0049258084716220915	0.005409265679535154	-0.008860892344004551	-0.007090775821592631	0.0039102501034044045	0.000634696685611178	0.15210386872077258	-0.0038496723784720516	0.002731198810812354	0.0009186216454871503	0.0035117082674401153	-0.00041224066193404975	-0.004990200904691623	0.00035267195943471856	-0.00020472811575613086
Stick	0.0005064124533255675	0.022155156143480844	0.01398952353513661	-0.016356340559204496	0.006969541463226533	0.0011495194258859826	0.006626758873868735	0.002536945680668147	-0.008947753658092278	0.004517731815691671	0.009262593281267181	-0.004320946154856215	-0.0043560645699532675	0.0060244698846837	-0.0058985204894797085	-0.003948649389797862	0.0069870585468923465	-0.029646385534017262	0.06451710776249689	-0.012948464658078605	0.13794898300635813	0.008413478002692836	0.0017419058906425048	-0.0013290715604767577	-0.0005868204096792476	0.0005275529375605157	-0.001899745239330648	-0.0026155753849068882	0.0011230960342441263	-0.002010563643600616	-0.002971425809070113	0.0027146026172383065	-0.005171193189407675	-0.00030291415095874165	-0.0038338176403985296	-0.0012639248451703554	-0.001774359735962469	-0.0010685837006670451	-0.009979974565138905	0.004243506259995146	0.006938454314837715	-0.012041987651263445	-0.011439758627824361	0.016620234366995706	-0.0004968814904800004	0.004413796167860814	0.013027879871599944	-0.006240345408029678	-0.002647850203213403	0.01647552931074815	0.013790457037506709	0.007133539795461279	-0.0006271022565174552	0.0014612207530875507	-0.012669121222430453	0.0008686168706564533	-0.004535235763380054	0.007077993071092818	-0.008598607733647439	-0.004762364929111589	-0.05995541153278057	-0.04286270632576568	0.04157475658512851	-0.16135882335009016	-0.03620911835254149	-0.24842113300376856	0.01510479402344299	0.0230584393246804	0.00046783406087159724	-0.001266507277912695	0.0008632788646184223	-0.005671431505772301	-0.0034566043021480057	0.002538838167418607	0.03841940778001101	-0.011284404859558632	-0.026121817244372274	0.008427065478350202	0.0023447689008363713	-0.0010976673252261744	-0.0018764594302393145	-0.001676904444163602	-0.009193953427196243	-0.01167163849181698	0.00021449455799207228	-0.0023890744689608816	-0.0014759442663210532	0.0003357417267097841	0.0014753931510507108	0.0015634863013284516	-0.00047287110417541323	0.0001963406418821075	0.0024127760352518515	0.00011430045966246202	0.0001313241803126747	-0.008496637842775783	0.002374095314421409	0.012313688368579824	-0.001234149970091678	0.0016743377601517086
.Le	0.0005064124532393015	0.02215515614326611	0.013989523535139808	-0.0163563405588992	0.006969541462997174	0.0011495194259663998	0.006626758873917544	0.002536945680690814	-0.008947753658235033	0.004339386874183333	0.009325540911583746	-0.0042712138206426374	-0.004030174745148398	0.005652506516222986	-0.005316724151524803	-0.0035109469164601274	0.005576676967064963	-0.008959412003075654	0.0068697681908544694	0.00038831008432601124	-0.008983133008938063	-0.007188181205805387	-0.007433063086514273	-0.008704533610439475	-0.002931452812504254	0.0034320849800814415	-0.01256773856924627	-0.013159902010031515	0.0033093407539813878	-0.008562386284190891	-0.024152651733282342	0.004464288247421561	-0.025351377440431963	-0.031236360434190872	-0.05896651271596727	-0.06758017611353172	-0.04861073539759358	-0.11225741448181527	0.051615966383554736	-0.018929665026301834	-0.025398644597411438	0.032311139423703006	0.004808705702109259	-0.012114716177630032	-0.1137548374736922	-0.0056105696773577	-0.005651723253568008	0.0022212280040961527	0.003803661158534172	-0.011013502048148705	0.01113357730503917	-0.007050101608423158	0.006961188921944837	-0.002856672922177084	-0.0021915681635818725	0.001087082635858652	-0.0016977305154975229	0.0019456127714469894	-0.003453755985023366	-0.006548677056798082	0.008158942573123032	-0.006133750406671521	0.00463053758531475	-0.008468868548702773	-0.004161525367220374	0.004070813106788886	0.0007188856668762875	-0.004055157663674311	0.0010281605290857069	0.002264183011452963	0.000951593221627962	0.0006434757184282891	-0.0017865370975130013	-0.0010904651874977165	-0.005357116386479779	0.0021782115452544026	0.0007763350981327055	-0.004139380622388435	-0.001091847786241319	0.00047141348044023903	-0.0024652111354989776	0.0010750762419568412	0.004522851024541929	0.004774616660742295	-0.015957249406310808	-7.476196129234565e-05	-0.00017616885455822202	3.128859229124901e-05	-0.00034396385100700973	-0.0007738290728525545	8.279882141718625e-05	-0.00013639553522297367	-0.0009896305071335466	9.56070031718026e-05	0.00022531492999626685	0.007503957721818762	-0.002011592639955046	-0.01186118094397722	-0.015619501181729927	-0.001699898290629471
2018	0.0005064124533610964	0.02215515614332311	0.013989523535053713	-0.01635634055890336	0.006969541463057732	0.0011495194258512715	0.006626758873927781	0.0025369456807170588	-0.008947753658237566	0.004359616811817383	0.009351619348102634	-0.004288033915870777	-0.004094531255421544	0.0057713547937742315	-0.005455916443394325	-0.003628241393931495	0.0058109851632314816	-0.010440815726789236	0.007880968480256122	0.00044201568276867886	-0.010395851885655524	-0.008664950070989002	-0.009361377390784832	-0.01588507365564329	-0.0064534067034361315	0.008163292986447458	-0.023738036087179108	-0.13443700340675283	-0.3547218870294294	0.040281028276880335	0.04097652456549876	-0.015257373997038678	0.027029264752164245	0.0070353011215272855	0.011641604839112281	0.009534488032387888	0.005392852598634011	0.0065082969089411006	0.0060416836997799015	-0.003398229546420592	-0.005791267009825358	0.010955755630464891	0.0059428414093234865	-0.009910794298473387	-0.0008395312975149386	0.0014447135685294438	-0.0004263711413157291	0.003114268749462355	0.0008647097865686531	-0.006886665614085091	0.00993512181450088	-0.004884551809401013	0.00703986516650834	9.906072271318616e-05	0.0012221755469220413	0.001476929773412712	-0.0007926899630844517	0.0014830938046767478	0.0025332430472086494	-0.006407765323760243	0.003965881207559455	0.00017900423140875844	-0.000850943285676854	0.0013743464188030931	0.0006219838849676716	-0.000814237868550241	-0.00021842364298307534	0.0030096875326334717	-0.0003924298610917406	-0.0003929547602907384	0.0003830137846629923	-0.0007966494606890017	-0.0004182369317023982	0.0004090301202471873	0.004362891144469725	-0.0013196585927917322	-0.00015747380957034608	0.0035577755415268646	0.0009984890689131976	-0.0003789582383046681	0.00033257639522900394	-0.000733710363096517	-0.0043332432292068805	-0.0032046721034747674	-1.1538603075728174e-05	-0.0009878784351417087	-0.0001226283405789503	4.78080527653987e-05	0.0005296386571899655	0.0005847817709111369	-0.00029205193790372624	0.0001166134940162808	0.0008078384395872624	-0.00019880143584303177	-0.0001839142953271702	-0.0056194497746081965	0.0011939710328183533	0.008200837946108071	-0.0006710957546113286	0.0009326535937659005
jouer	0.0005064124527165198	0.022155156131611935	0.013989523534644504	-0.016356340560486276	0.006969541450396672	0.001149519424681835	0.0066267588851111415	0.0025369456805510253	-0.008947753663775343	-0.12629159724868078	-0.06773161030572823	0.014002049748225198	0.0032434662492667574	-0.0056903353766472155	-0.05187841326076091	-0.0016202715576773292	0.009636327152624682	0.0007154537012457765	0.0007957702016202245	0.0019888086709155847	-0.0009263264839704991	-0.0008707114485997647	-0.0011064820093789772	-0.0005213760776101032	-0.004921311256064954	0.0006220706609752712	0.00019434813930428897	-0.0022025118021767104	0.0014415454592767024	-0.0006040679114709375	-0.0018337227726585618	0.0012735131668227982	-0.0015689750979951307	-0.0016400443889010858	0.0012693117762925745	-0.000606857750837822	0.0017082573810636168	0.005618686379122421	0.006458776865928554	-0.0011616429250746801	0.00027654895991635	0.001354627808632958	-0.00045022186249739284	0.002628653192704633	0.0004345429995487518	-0.0009016489900721267	-0.0006510710119089905	-0.00010900167379286044	-5.010546483394623e-05	0.0003314352348328359	-0.0005807624480464379	0.0012003068857737605	0.0017009406791485852	-0.0006833701677778424	0.0002354242302668	0.0006043996591538867	-0.002162273273313148	0.0023218687718801513	0.0013132151769459101	0.0003818147159386446	-0.0009773420502059414	0.0006615558222948754	-0.0007642606464899684	-0.0009668908594545331	-0.000746923423540142	0.0004464215774125787	0.0005922902748662496	-0.004918960089028833	0.002594720075245596	0.0014456355552686596	0.0015087392406193225	-0.0018587761971361483	0.010171342401216326	0.0012425121606220104	-0.00036450229721445097	-0.00040490844509098305	-0.001475229701270599	-0.0004974908950248153	0.015783344982782763	0.00330489463461084	-0.005414070829182177	0.0029361561402391125	0.011036403516653793	0.01356591207481362	0.0013974932032221308	0.010637850023300092	-0.011500923491170177	0.02003400029920508	0.014599854408660967	-0.005706817998493278	2.3305098190265537e-07	-0.317655774829839	0.008052595241771274	-0.006123395314238467	-0.0012541060447894751	-0.004601022334858105	0.0005964818671396083	0.006163411945177741	-0.0004237196876736658	0.00028279127452975105
Guido	0.0005064124528321526	0.022155156135084553	0.013989523534737416	-0.016356340560028722	0.0069695414542617195	0.0011495194251131906	0.0066267588815912696	0.002536945680619557	-0.008947753662029058	-0.0860676334404692	-0.044043057316568664	0.008401435826149375	0.0011646595253518445	-0.0025587709959291674	-0.040508439012306025	5.020774612462051e-05	0.020994110616155238	-0.00497151518710533	0.0038841369140939054	0.06337040405363548	0.0006654738721214709	-0.003448998864440869	-0.0043382440815046336	-0.005752164977928167	-0.0029149473887110024	0.0037876076431961054	0.01637206358257622	0.019142710538972783	-0.005126457574876496	0.0009219795101632108	0.0010044479197006196	-0.0016517545234234336	-0.005116014724048609	-0.0017108385651733026	1.661593250846662e-05	-0.0012477999389433557	0.00015531949697867632	0.004421611594843388	-0.010199402227720126	0.02968485882988458	-0.025468740466138638	0.0049888965720953065	-0.0015403465516461321	0.00072071686946232	0.0004121452689190336	-0.0009036052983812164	-0.0005542246500433451	-0.0023062410557511326	0.0002489410487404236	0.014841523632640885	0.005765961830189051	-0.10871226783591972	-0.04848099892622893	0.013910271676248418	0.0016879369837038399	-0.012950632513242313	0.04315358138139617	0.011868225309113807	-0.0020897007514030655	-0.002539551963284505	0.0022581855627677497	-0.0014087170881277086	-0.0009861592906864002	0.0016491431640676558	0.001896937263439205	-0.0015610629130718917	-0.0009759912947613588	0.01124001776941587	-0.0038861473527810686	0.013027624792152671	-0.006527816389621468	0.004036776146719531	0.0011042264986751561	0.0004376088606707621	0.005576687752769991	0.01042256033913727	0.0008854626180921228	3.3059889319733885e-05	0.0012954414277325853	0.0002805661279757805	0.001370337445105548	1.5527384655208742e-05	0.0007732779010922058	0.0008100376502241505	0.00018593401128841775	0.0011806822631516569	-0.0009546249316441701	0.0025109509588631994	0.0017967174900503377	-0.0005248569013952405	-0.00019763425394772846	-0.04415766585778718	0.0012295692901833572	0.003351534031099551	-0.0021402190744483785	-0.004366521698706247	0.0019208219666599663	0.002089071463459559	0.00010312940554917936	0.00031375589511038445
